{
  "_type": "DynamicMap",
  "_version": "2",
  "model": {
    "_type": "Model",
    "_version": "2",
    "nodes": [
    {
      "_type": "InputNode<float>",
      "_version": "2",
      "id":       "1006",
      "size": 3072,
      "shape": [32, 32, 3]
    }, 
    {
      "_type": "NeuralNetworkPredictorNode<float>",
      "_version": "0",
      "id":       "1007",
      "input": {
        "_type": "InputPort<float>",
        "_version": "0",
        "nodeId":         "1007",
        "name": "input",
        "type": 1,
        "input":         "1006.output[0:3072]"
      },
      "predictor": {
        "_type": "NeuralNetworkPredictor<float>",
        "_version": "1",
        "inputLayer": {
          "_type": "InputLayer<float>",
          "_version": "0",
          "inputPaddingScheme": 0,
          "inputPaddingSize": 0,
          "outputShape": [32, 32, 3],
          "outputPaddingScheme": 0,
          "outputPaddingSize": 0,
          "data_rows": 32,
          "data_columns": 32,
          "data_channels": 3,
          "data_values": [0, 0, 0, 0, 0, 0, 0, 0, 0, 0, 0, 0, 0, 0, 0, 0, 0, 0, 0, 0, 0, 0, 0, 0, 0, 0, 0, 0, 0, 0, 0, 0, 0, 0, 0, 0, 0, 0, 0, 0, 0, 0, 0, 0, 0, 0, 0, 0, 0, 0, 0, 0, 0, 0, 0, 0, 0, 0, 0, 0, 0, 0, 0, 0, 0, 0, 0, 0, 0, 0, 0, 0, 0, 0, 0, 0, 0, 0, 0, 0, 0, 0, 0, 0, 0, 0, 0, 0, 0, 0, 0, 0, 0, 0, 0, 0, 0, 0, 0, 0, 0, 0, 0, 0, 0, 0, 0, 0, 0, 0, 0, 0, 0, 0, 0, 0, 0, 0, 0, 0, 0, 0, 0, 0, 0, 0, 0, 0, 0, 0, 0, 0, 0, 0, 0, 0, 0, 0, 0, 0, 0, 0, 0, 0, 0, 0, 0, 0, 0, 0, 0, 0, 0, 0, 0, 0, 0, 0, 0, 0, 0, 0, 0, 0, 0, 0, 0, 0, 0, 0, 0, 0, 0, 0, 0, 0, 0, 0, 0, 0, 0, 0, 0, 0, 0, 0, 0, 0, 0, 0, 0, 0, 0, 0, 0, 0, 0, 0, 0, 0, 0, 0, 0, 0, 0, 0, 0, 0, 0, 0, 0, 0, 0, 0, 0, 0, 0, 0, 0, 0, 0, 0, 0, 0, 0, 0, 0, 0, 0, 0, 0, 0, 0, 0, 0, 0, 0, 0, 0, 0, 0, 0, 0, 0, 0, 0, 0, 0, 0, 0, 0, 0, 0, 0, 0, 0, 0, 0, 0, 0, 0, 0, 0, 0, 0, 0, 0, 0, 0, 0, 0, 0, 0, 0, 0, 0, 0, 0, 0, 0, 0, 0, 0, 0, 0, 0, 0, 0, 0, 0, 0, 0, 0, 0, 0, 0, 0, 0, 0, 0, 0, 0, 0, 0, 0, 0, 0, 0, 0, 0, 0, 0, 0, 0, 0, 0, 0, 0, 0, 0, 0, 0, 0, 0, 0, 0, 0, 0, 0, 0, 0, 0, 0, 0, 0, 0, 0, 0, 0, 0, 0, 0, 0, 0, 0, 0, 0, 0, 0, 0, 0, 0, 0, 0, 0, 0, 0, 0, 0, 0, 0, 0, 0, 0, 0, 0, 0, 0, 0, 0, 0, 0, 0, 0, 0, 0, 0, 0, 0, 0, 0, 0, 0, 0, 0, 0, 0, 0, 0, 0, 0, 0, 0, 0, 0, 0, 0, 0, 0, 0, 0, 0, 0, 0, 0, 0, 0, 0, 0, 0, 0, 0, 0, 0, 0, 0, 0, 0, 0, 0, 0, 0, 0, 0, 0, 0, 0, 0, 0, 0, 0, 0, 0, 0, 0, 0, 0, 0, 0, 0, 0, 0, 0, 0, 0, 0, 0, 0, 0, 0, 0, 0, 0, 0, 0, 0, 0, 0, 0, 0, 0, 0, 0, 0, 0, 0, 0, 0, 0, 0, 0, 0, 0, 0, 0, 0, 0, 0, 0, 0, 0, 0, 0, 0, 0, 0, 0, 0, 0, 0, 0, 0, 0, 0, 0, 0, 0, 0, 0, 0, 0, 0, 0, 0, 0, 0, 0, 0, 0, 0, 0, 0, 0, 0, 0, 0, 0, 0, 0, 0, 0, 0, 0, 0, 0, 0, 0, 0, 0, 0, 0, 0, 0, 0, 0, 0, 0, 0, 0, 0, 0, 0, 0, 0, 0, 0, 0, 0, 0, 0, 0, 0, 0, 0, 0, 0, 0, 0, 0, 0, 0, 0, 0, 0, 0, 0, 0, 0, 0, 0, 0, 0, 0, 0, 0, 0, 0, 0, 0, 0, 0, 0, 0, 0, 0, 0, 0, 0, 0, 0, 0, 0, 0, 0, 0, 0, 0, 0, 0, 0, 0, 0, 0, 0, 0, 0, 0, 0, 0, 0, 0, 0, 0, 0, 0, 0, 0, 0, 0, 0, 0, 0, 0, 0, 0, 0, 0, 0, 0, 0, 0, 0, 0, 0, 0, 0, 0, 0, 0, 0, 0, 0, 0, 0, 0, 0, 0, 0, 0, 0, 0, 0, 0, 0, 0, 0, 0, 0, 0, 0, 0, 0, 0, 0, 0, 0, 0, 0, 0, 0, 0, 0, 0, 0, 0, 0, 0, 0, 0, 0, 0, 0, 0, 0, 0, 0, 0, 0, 0, 0, 0, 0, 0, 0, 0, 0, 0, 0, 0, 0, 0, 0, 0, 0, 0, 0, 0, 0, 0, 0, 0, 0, 0, 0, 0, 0, 0, 0, 0, 0, 0, 0, 0, 0, 0, 0, 0, 0, 0, 0, 0, 0, 0, 0, 0, 0, 0, 0, 0, 0, 0, 0, 0, 0, 0, 0, 0, 0, 0, 0, 0, 0, 0, 0, 0, 0, 0, 0, 0, 0, 0, 0, 0, 0, 0, 0, 0, 0, 0, 0, 0, 0, 0, 0, 0, 0, 0, 0, 0, 0, 0, 0, 0, 0, 0, 0, 0, 0, 0, 0, 0, 0, 0, 0, 0, 0, 0, 0, 0, 0, 0, 0, 0, 0, 0, 0, 0, 0, 0, 0, 0, 0, 0, 0, 0, 0, 0, 0, 0, 0, 0, 0, 0, 0, 0, 0, 0, 0, 0, 0, 0, 0, 0, 0, 0, 0, 0, 0, 0, 0, 0, 0, 0, 0, 0, 0, 0, 0, 0, 0, 0, 0, 0, 0, 0, 0, 0, 0, 0, 0, 0, 0, 0, 0, 0, 0, 0, 0, 0, 0, 0, 0, 0, 0, 0, 0, 0, 0, 0, 0, 0, 0, 0, 0, 0, 0, 0, 0, 0, 0, 0, 0, 0, 0, 0, 0, 0, 0, 0, 0, 0, 0, 0, 0, 0, 0, 0, 0, 0, 0, 0, 0, 0, 0, 0, 0, 0, 0, 0, 0, 0, 0, 0, 0, 0, 0, 0, 0, 0, 0, 0, 0, 0, 0, 0, 0, 0, 0, 0, 0, 0, 0, 0, 0, 0, 0, 0, 0, 0, 0, 0, 0, 0, 0, 0, 0, 0, 0, 0, 0, 0, 0, 0, 0, 0, 0, 0, 0, 0, 0, 0, 0, 0, 0, 0, 0, 0, 0, 0, 0, 0, 0, 0, 0, 0, 0, 0, 0, 0, 0, 0, 0, 0, 0, 0, 0, 0, 0, 0, 0, 0, 0, 0, 0, 0, 0, 0, 0, 0, 0, 0, 0, 0, 0, 0, 0, 0, 0, 0, 0, 0, 0, 0, 0, 0, 0, 0, 0, 0, 0, 0, 0, 0, 0, 0, 0, 0, 0, 0, 0, 0, 0, 0, 0, 0, 0, 0, 0, 0, 0, 0, 0, 0, 0, 0, 0, 0, 0, 0, 0, 0, 0, 0, 0, 0, 0, 0, 0, 0, 0, 0, 0, 0, 0, 0, 0, 0, 0, 0, 0, 0, 0, 0, 0, 0, 0, 0, 0, 0, 0, 0, 0, 0, 0, 0, 0, 0, 0, 0, 0, 0, 0, 0, 0, 0, 0, 0, 0, 0, 0, 0, 0, 0, 0, 0, 0, 0, 0, 0, 0, 0, 0, 0, 0, 0, 0, 0, 0, 0, 0, 0, 0, 0, 0, 0, 0, 0, 0, 0, 0, 0, 0, 0, 0, 0, 0, 0, 0, 0, 0, 0, 0, 0, 0, 0, 0, 0, 0, 0, 0, 0, 0, 0, 0, 0, 0, 0, 0, 0, 0, 0, 0, 0, 0, 0, 0, 0, 0, 0, 0, 0, 0, 0, 0, 0, 0, 0, 0, 0, 0, 0, 0, 0, 0, 0, 0, 0, 0, 0, 0, 0, 0, 0, 0, 0, 0, 0, 0, 0, 0, 0, 0, 0, 0, 0, 0, 0, 0, 0, 0, 0, 0, 0, 0, 0, 0, 0, 0, 0, 0, 0, 0, 0, 0, 0, 0, 0, 0, 0, 0, 0, 0, 0, 0, 0, 0, 0, 0, 0, 0, 0, 0, 0, 0, 0, 0, 0, 0, 0, 0, 0, 0, 0, 0, 0, 0, 0, 0, 0, 0, 0, 0, 0, 0, 0, 0, 0, 0, 0, 0, 0, 0, 0, 0, 0, 0, 0, 0, 0, 0, 0, 0, 0, 0, 0, 0, 0, 0, 0, 0, 0, 0, 0, 0, 0, 0, 0, 0, 0, 0, 0, 0, 0, 0, 0, 0, 0, 0, 0, 0, 0, 0, 0, 0, 0, 0, 0, 0, 0, 0, 0, 0, 0, 0, 0, 0, 0, 0, 0, 0, 0, 0, 0, 0, 0, 0, 0, 0, 0, 0, 0, 0, 0, 0, 0, 0, 0, 0, 0, 0, 0, 0, 0, 0, 0, 0, 0, 0, 0, 0, 0, 0, 0, 0, 0, 0, 0, 0, 0, 0, 0, 0, 0, 0, 0, 0, 0, 0, 0, 0, 0, 0, 0, 0, 0, 0, 0, 0, 0, 0, 0, 0, 0, 0, 0, 0, 0, 0, 0, 0, 0, 0, 0, 0, 0, 0, 0, 0, 0, 0, 0, 0, 0, 0, 0, 0, 0, 0, 0, 0, 0, 0, 0, 0, 0, 0, 0, 0, 0, 0, 0, 0, 0, 0, 0, 0, 0, 0, 0, 0, 0, 0, 0, 0, 0, 0, 0, 0, 0, 0, 0, 0, 0, 0, 0, 0, 0, 0, 0, 0, 0, 0, 0, 0, 0, 0, 0, 0, 0, 0, 0, 0, 0, 0, 0, 0, 0, 0, 0, 0, 0, 0, 0, 0, 0, 0, 0, 0, 0, 0, 0, 0, 0, 0, 0, 0, 0, 0, 0, 0, 0, 0, 0, 0, 0, 0, 0, 0, 0, 0, 0, 0, 0, 0, 0, 0, 0, 0, 0, 0, 0, 0, 0, 0, 0, 0, 0, 0, 0, 0, 0, 0, 0, 0, 0, 0, 0, 0, 0, 0, 0, 0, 0, 0, 0, 0, 0, 0, 0, 0, 0, 0, 0, 0, 0, 0, 0, 0, 0, 0, 0, 0, 0, 0, 0, 0, 0, 0, 0, 0, 0, 0, 0, 0, 0, 0, 0, 0, 0, 0, 0, 0, 0, 0, 0, 0, 0, 0, 0, 0, 0, 0, 0, 0, 0, 0, 0, 0, 0, 0, 0, 0, 0, 0, 0, 0, 0, 0, 0, 0, 0, 0, 0, 0, 0, 0, 0, 0, 0, 0, 0, 0, 0, 0, 0, 0, 0, 0, 0, 0, 0, 0, 0, 0, 0, 0, 0, 0, 0, 0, 0, 0, 0, 0, 0, 0, 0, 0, 0, 0, 0, 0, 0, 0, 0, 0, 0, 0, 0, 0, 0, 0, 0, 0, 0, 0, 0, 0, 0, 0, 0, 0, 0, 0, 0, 0, 0, 0, 0, 0, 0, 0, 0, 0, 0, 0, 0, 0, 0, 0, 0, 0, 0, 0, 0, 0, 0, 0, 0, 0, 0, 0, 0, 0, 0, 0, 0, 0, 0, 0, 0, 0, 0, 0, 0, 0, 0, 0, 0, 0, 0, 0, 0, 0, 0, 0, 0, 0, 0, 0, 0, 0, 0, 0, 0, 0, 0, 0, 0, 0, 0, 0, 0, 0, 0, 0, 0, 0, 0, 0, 0, 0, 0, 0, 0, 0, 0, 0, 0, 0, 0, 0, 0, 0, 0, 0, 0, 0, 0, 0, 0, 0, 0, 0, 0, 0, 0, 0, 0, 0, 0, 0, 0, 0, 0, 0, 0, 0, 0, 0, 0, 0, 0, 0, 0, 0, 0, 0, 0, 0, 0, 0, 0, 0, 0, 0, 0, 0, 0, 0, 0, 0, 0, 0, 0, 0, 0, 0, 0, 0, 0, 0, 0, 0, 0, 0, 0, 0, 0, 0, 0, 0, 0, 0, 0, 0, 0, 0, 0, 0, 0, 0, 0, 0, 0, 0, 0, 0, 0, 0, 0, 0, 0, 0, 0, 0, 0, 0, 0, 0, 0, 0, 0, 0, 0, 0, 0, 0, 0, 0, 0, 0, 0, 0, 0, 0, 0, 0, 0, 0, 0, 0, 0, 0, 0, 0, 0, 0, 0, 0, 0, 0, 0, 0, 0, 0, 0, 0, 0, 0, 0, 0, 0, 0, 0, 0, 0, 0, 0, 0, 0, 0, 0, 0, 0, 0, 0, 0, 0, 0, 0, 0, 0, 0, 0, 0, 0, 0, 0, 0, 0, 0, 0, 0, 0, 0, 0, 0, 0, 0, 0, 0, 0, 0, 0, 0, 0, 0, 0, 0, 0, 0, 0, 0, 0, 0, 0, 0, 0, 0, 0, 0, 0, 0, 0, 0, 0, 0, 0, 0, 0, 0, 0, 0, 0, 0, 0, 0, 0, 0, 0, 0, 0, 0, 0, 0, 0, 0, 0, 0, 0, 0, 0, 0, 0, 0, 0, 0, 0, 0, 0, 0, 0, 0, 0, 0, 0, 0, 0, 0, 0, 0, 0, 0, 0, 0, 0, 0, 0, 0, 0, 0, 0, 0, 0, 0, 0, 0, 0, 0, 0, 0, 0, 0, 0, 0, 0, 0, 0, 0, 0, 0, 0, 0, 0, 0, 0, 0, 0, 0, 0, 0, 0, 0, 0, 0, 0, 0, 0, 0, 0, 0, 0, 0, 0, 0, 0, 0, 0, 0, 0, 0, 0, 0, 0, 0, 0, 0, 0, 0, 0, 0, 0, 0, 0, 0, 0, 0, 0, 0, 0, 0, 0, 0, 0, 0, 0, 0, 0, 0, 0, 0, 0, 0, 0, 0, 0, 0, 0, 0, 0, 0, 0, 0, 0, 0, 0, 0, 0, 0, 0, 0, 0, 0, 0, 0, 0, 0, 0, 0, 0, 0, 0, 0, 0, 0, 0, 0, 0, 0, 0, 0, 0, 0, 0, 0, 0, 0, 0, 0, 0, 0, 0, 0, 0, 0, 0, 0, 0, 0, 0, 0, 0, 0, 0, 0, 0, 0, 0, 0, 0, 0, 0, 0, 0, 0, 0, 0, 0, 0, 0, 0, 0, 0, 0, 0, 0, 0, 0, 0, 0, 0, 0, 0, 0, 0, 0, 0, 0, 0, 0, 0, 0, 0, 0, 0, 0, 0, 0, 0, 0, 0, 0, 0, 0, 0, 0, 0, 0, 0, 0, 0, 0, 0, 0, 0, 0, 0, 0, 0, 0, 0, 0, 0, 0, 0, 0, 0, 0, 0, 0, 0, 0, 0, 0, 0, 0, 0, 0, 0, 0, 0, 0, 0, 0, 0, 0, 0, 0, 0, 0, 0, 0, 0, 0, 0, 0, 0, 0, 0, 0, 0, 0, 0, 0, 0, 0, 0, 0, 0, 0, 0, 0, 0, 0, 0, 0, 0, 0, 0, 0, 0, 0, 0, 0, 0, 0, 0, 0, 0, 0, 0, 0, 0, 0, 0, 0, 0, 0, 0, 0, 0, 0, 0, 0, 0, 0, 0, 0, 0, 0, 0, 0, 0, 0, 0, 0, 0, 0, 0, 0, 0, 0, 0, 0, 0, 0, 0, 0, 0, 0, 0, 0, 0, 0, 0, 0, 0, 0, 0, 0, 0, 0, 0, 0, 0, 0, 0, 0, 0, 0, 0, 0, 0, 0, 0, 0, 0, 0, 0, 0, 0, 0, 0, 0, 0, 0, 0, 0, 0, 0, 0, 0, 0, 0, 0, 0, 0, 0, 0, 0, 0, 0, 0, 0, 0, 0, 0, 0, 0, 0, 0, 0, 0, 0, 0, 0, 0, 0, 0, 0, 0, 0, 0, 0, 0, 0, 0, 0, 0, 0, 0, 0, 0, 0, 0, 0, 0, 0, 0, 0, 0, 0, 0, 0, 0, 0, 0, 0, 0, 0, 0, 0, 0, 0, 0, 0, 0, 0, 0, 0, 0, 0, 0, 0, 0, 0, 0, 0, 0, 0, 0, 0, 0, 0, 0, 0, 0, 0, 0, 0, 0, 0, 0, 0, 0, 0, 0, 0, 0, 0, 0, 0, 0, 0, 0, 0, 0, 0, 0, 0, 0, 0, 0, 0, 0, 0, 0, 0, 0, 0, 0, 0, 0, 0, 0, 0, 0, 0, 0, 0, 0, 0, 0, 0, 0, 0, 0, 0, 0, 0, 0, 0, 0, 0, 0, 0, 0, 0, 0, 0, 0, 0, 0, 0, 0, 0, 0, 0, 0, 0, 0, 0, 0, 0, 0, 0, 0, 0, 0, 0, 0, 0, 0, 0, 0, 0, 0, 0, 0, 0, 0, 0, 0, 0, 0, 0, 0, 0, 0, 0, 0, 0, 0, 0, 0, 0, 0, 0, 0, 0, 0, 0, 0, 0, 0, 0, 0, 0, 0, 0, 0, 0, 0, 0, 0, 0, 0, 0, 0, 0, 0, 0, 0, 0, 0, 0, 0, 0, 0, 0, 0, 0, 0, 0, 0, 0, 0, 0, 0, 0, 0, 0, 0, 0, 0, 0, 0, 0, 0, 0, 0, 0, 0, 0, 0, 0, 0, 0, 0, 0, 0, 0, 0, 0, 0, 0, 0, 0, 0, 0, 0, 0, 0, 0, 0, 0, 0, 0, 0, 0, 0, 0, 0, 0, 0, 0, 0, 0, 0, 0, 0, 0, 0, 0, 0, 0, 0, 0, 0, 0, 0, 0, 0, 0, 0, 0, 0, 0, 0, 0, 0, 0, 0, 0, 0, 0, 0, 0, 0, 0, 0, 0, 0, 0, 0, 0, 0, 0, 0, 0, 0, 0, 0, 0, 0, 0, 0, 0, 0, 0, 0, 0, 0, 0, 0, 0, 0, 0, 0, 0, 0, 0, 0, 0, 0, 0, 0, 0, 0, 0, 0, 0, 0, 0, 0, 0, 0, 0, 0, 0, 0, 0, 0, 0, 0, 0, 0, 0, 0, 0, 0, 0, 0, 0, 0, 0, 0, 0, 0, 0, 0, 0, 0, 0, 0, 0, 0, 0, 0, 0, 0, 0, 0, 0, 0, 0, 0, 0, 0, 0, 0, 0, 0, 0, 0, 0, 0, 0, 0, 0, 0, 0, 0, 0, 0, 0, 0, 0, 0, 0, 0, 0, 0, 0, 0, 0, 0, 0, 0, 0, 0, 0, 0, 0, 0, 0, 0, 0, 0, 0, 0, 0, 0, 0, 0, 0, 0, 0, 0, 0, 0, 0, 0, 0, 0, 0, 0, 0, 0, 0, 0, 0, 0, 0, 0, 0, 0, 0, 0, 0, 0, 0, 0, 0, 0, 0, 0, 0, 0, 0, 0, 0, 0, 0, 0, 0, 0, 0, 0, 0, 0, 0, 0, 0, 0, 0, 0, 0, 0, 0, 0, 0, 0, 0, 0, 0, 0, 0, 0, 0, 0, 0, 0, 0, 0, 0, 0, 0, 0, 0, 0, 0, 0, 0, 0, 0, 0, 0, 0, 0, 0, 0, 0, 0, 0, 0, 0, 0, 0, 0, 0, 0, 0, 0, 0, 0, 0, 0, 0, 0, 0, 0, 0, 0, 0, 0, 0, 0, 0, 0, 0, 0, 0, 0, 0, 0, 0, 0, 0, 0, 0, 0, 0, 0, 0, 0, 0, 0, 0, 0, 0, 0, 0, 0, 0, 0, 0, 0, 0, 0, 0, 0, 0, 0, 0, 0, 0, 0, 0, 0, 0, 0, 0, 0, 0, 0, 0, 0, 0, 0, 0, 0, 0, 0, 0, 0, 0, 0, 0, 0, 0, 0, 0, 0, 0, 0, 0, 0, 0, 0, 0, 0, 0, 0, 0, 0, 0, 0, 0, 0, 0, 0, 0, 0, 0, 0, 0, 0, 0, 0, 0, 0, 0, 0, 0, 0, 0, 0, 0, 0, 0, 0, 0, 0, 0, 0, 0, 0, 0, 0, 0],
          "scale": 1
        },
        "layers": [
        {
          "_type": "ScalingLayer<float>",
          "_version": "0",
          "inputPaddingScheme": 0,
          "inputPaddingSize": 0,
          "outputShape": [34, 34, 3],
          "outputPaddingScheme": 0,
          "outputPaddingSize": 1,
          "scales": [0.00390625, 0.00390625, 0.00390625]
        }, 
        {
          "_type": "ConvolutionalLayer<float>",
          "_version": "0",
          "inputPaddingScheme": 0,
          "inputPaddingSize": 1,
          "outputShape": [32, 32, 32],
          "outputPaddingScheme": 0,
          "outputPaddingSize": 0,
          "receptiveField": 3,
          "stride": 1,
          "method": 0,
          "numFiltersAtATime": 32,
          "weights_rows": 96,
          "weights_columns": 3,
          "weights_channels": 3,
          "weights_values": [-0.321975, -0.0780629, -0.124881, 0.140227, 0.260916, 0.348042, -0.00607042, -0.0936708, -0.122472, 0.0946064, 0.33429, 0.336858, -0.100354, -0.185106, -0.211782, 0.0381551, -0.0760581, -0.215102, -0.0715844, -0.0397964, -0.0595885, 0.0295291, -0.122255, -0.185106, 0.147049, 0.132361, 0.106805, -0.248848, -0.114536, 0.0534783, -0.00424893, 0.0300101, 0.0143785, 0.136391, 0.160766, -0.027846, -0.282207, -0.138866, 0.0319948, 0.040038, 0.023937, 0.00369021, 0.239305, 0.175444, -0.0546121, -0.270074, -0.149408, -0.00636586, 0.0144004, -0.0327873, -0.0580367, 0.273677, 0.182185, -0.0388169, 0.203066, 0.128379, -0.0904813, -0.154468, -0.131409, 0.00445701, -0.194538, -0.0696805, 0.175883, 0.276231, 0.189258, -0.160542, 0.0555554, 0.0301321, 0.0144051, -0.301964, -0.141474, 0.115114, 0.135925, 0.0845464, -0.218591, 0.150403, 0.0796237, 0.00763887, -0.203684, -0.0922441, 0.0893618, 0.0836665, 0.0848523, -0.0147756, 0.0582456, 0.0894545, -0.0288037, 0.00142127, 0.0226789, -0.0785844, -0.0131079, 0.024643, -0.0245225, 0.0523565, 0.14036, 0.0156979, 0.0495894, 0.126179, -0.0119357, -0.14536, -0.112007, -0.0694673, -0.0386405, 0.0481487, -0.0236404, 0.0159557, 0.116878, -0.00829717, -0.170756, -0.0219665, 0.120087, -0.185055, -0.0253986, 0.157226, -0.16094, -0.0285829, 0.158512, 0.0503188, 0.0572795, 0.121108, 0.0724071, 0.072398, 0.135292, 0.0633117, 0.0180371, 0.0989856, 0.147565, -0.0543088, -0.227313, 0.135569, -0.120459, -0.305678, 0.175467, -0.0906043, -0.236348, -0.100194, -0.103209, -0.118094, 0.139714, 0.0585069, 0.0745409, 0.178628, 0.155749, 0.143759, -0.00766096, 0.119184, 0.0805754, -0.333935, -0.352829, -0.35897, -0.0122824, -0.0778825, -0.0776905, 0.0458888, 0.132064, 0.0785377, 0.108058, 0.188824, 0.191956, -0.0582019, -0.0848206, -0.0634665, -0.115036, -0.0826537, -0.0199675, -0.00217402, 0.0598269, 0.18391, -0.0123012, 0.0931968, 0.236754, -0.0035026, 0.00809826, 0.112652, 0.0673178, 0.0688935, 0.102918, -0.0924881, -0.120195, -0.18549, 0.0645219, 0.0339004, 0.0713806, 0.0428631, -0.0189686, -0.155894, -0.00886922, -0.103444, -0.307286, -0.000379704, -0.075305, -0.00949672, 0.0414656, -0.082665, -0.0362883, 0.0553031, -0.0453855, 0.0069251, 0.13195, -0.0520587, -0.0301466, 0.163676, -0.0555835, -0.0354423, 0.15345, -0.0280526, -0.00168765, 0.149051, -0.0252682, -0.0101051, 0.160879, -0.0382482, -0.0253213, 0.0632128, -0.0959534, -0.0663102, 0.112508, 0.0508963, 0.15606, 0.106998, 0.121871, 0.0817733, -0.291257, -0.105322, -0.296931, -0.252073, -0.383794, -0.235747, 0.314644, 0.171608, 0.275399, 0.126747, 0.154722, 0.0856764, 0.0899091, 0.115865, 0.175848, -0.246445, -0.378628, -0.211306, 0.164154, 0.0265528, 0.112301, -0.0649035, -0.0184655, -0.0124687, 0.0497376, 0.0634296, 0.0488654, -0.00421969, 0.0111074, 0.0244369, 0.0656598, 0.0583801, 0.0288013, 0.110632, 0.0793499, 0.0576845, 0.000213461, -0.0205601, -0.000460818, 0.0182981, -0.000932982, -0.00588421, 0.00471914, -0.011449, 0.00722598, -0.0454756, -0.0363381, 0.0232395, -0.158591, 0.0449244, 0.0714654, -0.0502711, -0.0866882, -0.12319, 0.208878, 0.0636366, -0.0602367, -0.0587435, 0.190253, 0.261277, -0.106235, -0.0695788, -0.0778851, 0.110091, -0.060418, -0.219932, -0.19331, 0.0453541, 0.105984, 0.0289958, 0.169385, 0.214037, -0.0179928, -0.0975151, -0.256113, -0.00562089, 0.0581687, -0.0502831, -0.0927685, 0.183247, -0.089865, -0.0216777, 0.0824017, -0.0559715, -0.120033, 0.206894, -0.104919, -0.256181, 0.39837, -0.157248, -0.136901, 0.246471, -0.124831, -0.0238543, 0.0922468, -0.0682854, -0.158464, 0.259822, -0.112085, -0.0494071, 0.129896, -0.0873241, -0.0364091, -0.0445944, -0.122899, 0.156171, 0.132453, 0.211519, -0.0449828, -0.104792, -0.104491, -0.145465, -0.1222, -0.217112, 0.26393, 0.255139, 0.333033, -0.144688, -0.161992, -0.173346, -0.129781, -0.107022, -0.150227, 0.234029, 0.201476, 0.318391, -0.123322, -0.138028, -0.105551, -0.250807, -0.00711248, 0.275275, -0.294887, -0.0862889, 0.200309, -0.0852768, -0.00209191, 0.0249469, -0.227548, -0.0601075, 0.0861219, 0.0290997, -0.0056952, -0.0168835, 0.245539, 0.0765926, -0.142228, 0.160682, 0.0412114, -0.109792, 0.274209, 0.0719319, -0.190595, 0.179273, 0.00427351, -0.206513, -0.00381026, -0.15455, 0.0532085, 0.111696, 0.0426105, 0.201452, -0.0699548, 0.0339196, -0.0296559, -0.0608545, -0.203243, -0.0822731, 0.026202, -0.227698, -0.06169, 0.191499, 0.107491, 0.215495, 0.0660908, 0.103913, 0.102584, -0.000505517, -0.189099, -0.112579, 0.000916332, -0.187052, -0.091379, 0.118224, 0.151614, -0.00613429, 0.13171, 0.157156, -0.0384883, 0.158537, 0.158292, -0.0136073, -0.0377527, 0.00243525, 0.0510492, -0.0352389, 0.00501519, 0.0270509, -0.0271771, -0.0169991, 0.0168476, -0.167856, -0.185516, 0.00543445, -0.15115, -0.158869, 0.0427497, -0.130745, -0.163342, 0.0290585, -0.0744101, -0.0904566, -0.106208, -0.161203, -0.131808, -0.160383, -0.0737439, -0.075948, -0.0961559, 0.198828, 0.245595, 0.0903405, 0.221951, 0.330985, 0.129694, 0.213328, 0.277748, 0.128471, -0.0897549, -0.0538003, -0.0267325, -0.189099, -0.114801, -0.0989105, -0.142657, -0.115349, -0.0445638, -0.0989768, 0.133376, -0.0645564, 0.14365, 0.0909624, 0.124096, 0.030527, -0.196335, -0.0227692, 0.0400135, 0.168149, 0.0529895, 0.147997, 0.0140329, 0.128547, -0.0829877, -0.284685, -0.116806, 0.0958189, 0.0760074, 0.141148, -0.0311681, -0.23722, -0.0529085, 0.000609748, -0.149743, -0.0614628, 0.0102654, 0.0854189, -0.000267352, 0.0609228, 0.0864965, -0.0970951, 0.0689874, 0.125199, -0.0305964, 0.0524007, 0.063907, -0.0784695, 0.0961508, 0.00700538, -0.25247, 0.0889131, 0.0228729, -0.209029, 0.0754864, 0.0330459, -0.0374587, 0.125895, -0.0298778, -0.19811, 0.134146, -0.00150666, -0.14681, -0.000609805, 0.00124901, -0.000824066, 0.000366618, 7.68146e-05, -0.000859677, 0.000405972, -0.000946805, -0.000362283, -0.000695323, 0.000477714, 0.000244628, 0.000901515, -0.00128718, 0.00121514, 0.000351077, -0.000340654, -0.000570464, 0.000709915, -0.001865, -0.000476625, 0.00103797, 0.000537281, 0.000249346, -6.95584e-06, 0.00143396, -3.93401e-05, 0.159536, 0.088791, 0.202813, -0.202068, -0.193799, -0.254751, 0.0349908, 0.11515, 0.0240365, 0.0291674, -0.0926363, -0.0868922, -0.0704215, -0.0157773, -0.111662, 0.0396175, 0.189694, 0.133674, -0.0568497, -0.175806, -0.230244, 0.297419, 0.349986, 0.353174, -0.296507, -0.135676, -0.164863, 0.0165885, 0.0317682, 0.190551, -0.212795, -0.175862, -0.126449, 0.172815, 0.0457937, -0.06291, 0.0827796, 0.144925, 0.251389, -0.270918, -0.183596, -0.207956, 0.263991, 0.196537, 0.0232827, -0.00824586, 0.0594058, 0.192641, -0.246649, -0.178151, -0.182337, 0.220435, 0.115983, -0.0533697, 0.0232101, 0.0807437, 0.0515762, -0.189656, -0.0650177, -0.0555734, -0.223612, -0.0164293, 0.000726179, 0.173281, 0.0542739, -0.0297182, 0.217586, 0.107161, 0.0259617, 0.032801, -0.0232966, -0.0758842, -0.0312356, -0.0880326, -0.077703, 0.0954601, 0.0263841, -0.00996553, 0.0702493, -0.021658, -0.058721, 0.178512, 0.125987, -0.295705, 0.143081, 0.0489995, -0.40081, 0.125384, 0.0380875, -0.182603, 0.0452789, 0.0117885, -0.0663246, 0.0305881, 0.0555397, 0.119474, -0.0504315, -0.0406927, 0.21398, -0.102626, -0.0457808, 0.201125, -0.200998, -0.111429, 0.234484, -0.147073, -0.156941, 0.21941, -0.0571705, -0.108464, -0.147912, -0.0285498, -0.117385, -0.0908809, 0.138034, 0.0362243, 0.148278, -0.0537843, -0.0968364, -0.00871478, 0.110091, 0.00148924, 0.137975, 0.061949, -0.060105, 0.146486, 0.00253179, 0.0281678, 0.142877, 0.0379097, 0.0147378, 0.162738, -0.0953992, -0.144454, 0.0249677, 0.162299, 0.039715, -0.19052, -0.0396267, -0.165184, -0.195919, 0.0052313, 0.0382634, 0.221329, -0.00625958, -0.132122, -0.276045, 0.116582, 0.0562789, 0.183432, -0.0491126, 0.000396042, 0.220476, 0.0706693, -0.00368921, 0.0537583, 0.00688987, -0.0243219, 0.192673, -0.143906, -0.0974383, 0.00522351, 0.184129, 0.0108199, 0.0575072, 0.143978, 0.0748243, 0.102422, -0.116658, -0.0480321, -0.0662314, 0.0761749, 0.00733866, 0.000971586, -0.250801, -0.226579, -0.276173, -0.125863, 0.0761683, -0.0209955, -0.0933523, -0.0111544, -0.120663, -0.0588572, 0.161243, 0.0533841, -0.030017, 0.21557, 0.118417, 0.0493208, -0.0890118, -0.197024, 0.0763826, 0.0313807, 0.0853806, -0.183879, 0.0299427, 0.208559, 0.168783, 0.0909048, -0.0948055, -0.0898095, -0.221903, -0.289146, -0.0116332, 0.156333, 0.352935, 0.169303, 0.14046, -0.00246248, -0.00283685, -0.157224, -0.278679, -0.0772672, -0.013497, 0.174986, -0.00585072, 0.0243792, -0.0126333, -0.149539, -0.150171, 0.26063, -0.136476, -0.150188, 0.267152, 0.143796, 0.105605, -0.223303, 0.0277673, -0.0776408, 0.0673152, -0.17233, -0.17308, 0.283544, 0.114407, 0.231205, -0.338746, 0.181695, 0.114067, -0.220621, -0.0046454, -0.0146942, 0.011191, 0.0495819, -0.0464701, -0.12635, 0.0369043, -0.13207, -0.28262, 0.116177, -0.0373311, -0.178482, 0.035459, 0.116087, 0.152613, -0.0358392, -0.0018972, -0.0362723, -0.0644765, -0.0757498, -0.165815, -0.0848772, 0.00716044, 0.127659, -0.00982425, 0.112472, 0.257709, -0.00258567, 0.0829232, 0.218631, 0.200377, 0.123432, 0.0454717, -0.00493754, -0.206653, 0.0548889, -0.0468227, -0.197289, -0.0245541, 0.0920252, -0.0769701, 0.0461229, -0.23272, -0.385633, -0.125797, 0.129041, 0.165039, 0.161027, -0.0802958, -0.162678, -0.0220448, 0.0306543, 0.030283, 0.114222, 0.0456646, 0.217752, -0.0102012, 0.049795, 0.0674011, -0.00716556, -0.0379659, 0.0120198, -0.152842, 0.0595413, 0.124963, -0.039287, 0.0723663, 0.0244873, 0.0313581, -0.0809368, -0.0947741, -0.210198, -0.0228544, -0.0270655, -0.163066, 0.0780362, -0.00152354, 0.0867837, -0.0362356, -0.0617919, -0.0876769, -0.00517022, -0.0266411, -0.0780848]
        }, 
        {
          "_type": "BiasLayer<float>",
          "_version": "0",
          "inputPaddingScheme": 0,
          "inputPaddingSize": 0,
          "outputShape": [32, 32, 32],
          "outputPaddingScheme": 0,
          "outputPaddingSize": 0,
          "bias": [0.0183052, 0.00250551, -0.00559228, -0.0506354, -0.00550526, 0.000181355, -0.0912968, -0.060036, 0.0839312, 0.0797143, 0.00164941, -0.00214861, 0.0174917, -0.0248554, -0.0172769, 0.0168839, 0.00014782, 0.028302, 0.0787955, -0.00331104, 0.0280012, 0.0106269, -0.103049, -0.0101945, -0.120807, 0.0173665, 0.0119366, 0.0204686, -0.0185452, -0.0229721, 0.00267226, -0.101896]
        }, 
        {
          "_type": "ActivationLayer<float,ReLUActivation>",
          "_version": "0",
          "inputPaddingScheme": 0,
          "inputPaddingSize": 0,
          "outputShape": [32, 32, 32],
          "outputPaddingScheme": 4,
          "outputPaddingSize": 0
        }, 
        {
          "_type": "PoolingLayer<float,MaxPoolingFunction>",
          "_version": "0",
          "inputPaddingScheme": 4,
          "inputPaddingSize": 0,
          "outputShape": [15, 15, 32],
          "outputPaddingScheme": 0,
          "outputPaddingSize": 0,
          "poolingSize": 3,
          "stride": 2
        }, 
        {
          "_type": "BatchNormalizationLayer<float>",
          "_version": "0",
          "inputPaddingScheme": 0,
          "inputPaddingSize": 0,
          "outputShape": [15, 15, 32],
          "outputPaddingScheme": 0,
          "outputPaddingSize": 0,
          "multiplicationValues": [16.248, 7.16198, 11.4815, 16.6942, 15.7389, 11.6926, 17.5056, 21.1284, 12.1899, 11.6863, 14.1287, 11.2917, 8.44662, 18.1823, 14.5381, 8.3579, 9.42243, 9.46266, 9.55618, 316.228, 14.7748, 9.88738, 34.9434, 17.9869, 23.9814, 15.866, 13.7191, 13.7514, 20.4429, 10.254, 12.7313, 16.5363],
          "additionValues": [-1.36159, -0.873434, -0.839018, -0.665231, -0.798993, -1.11678, -0.516757, -0.455082, -2.05547, -1.50568, -1.04517, -0.613822, -1.07067, -0.622445, -0.854648, -1.02656, -1.01222, -1.07746, -1.04907, -1.72822e-41, -1.49054, -1.08691, -0.334753, -0.723802, -0.401779, -1.2236, -1.28659, -1.21559, -0.550681, -0.799551, -1.04483, -0.605863],
          "epsilon": 1e-05,
          "epsilonSummand": 0
        }, 
        {
          "_type": "ScalingLayer<float>",
          "_version": "0",
          "inputPaddingScheme": 0,
          "inputPaddingSize": 0,
          "outputShape": [15, 15, 32],
          "outputPaddingScheme": 0,
          "outputPaddingSize": 0,
          "scales": [0.234497, 0.294737, 0.260804, 0.17331, 0.212146, 0.267801, 0.212462, 0.167484, 0.27568, 0.167736, 0.249979, 0.263986, 0.27316, 0.249549, 0.226651, 0.235402, 0.271841, 0.257438, 0.206535, 0.0113632, 0.224053, 0.271936, 0.164161, 0.225336, 0.189539, 0.213689, 0.249902, 0.244477, 0.243751, 0.257942, 0.245252, 0.173952]
        }, 
        {
          "_type": "BiasLayer<float>",
          "_version": "0",
          "inputPaddingScheme": 0,
          "inputPaddingSize": 0,
          "outputShape": [17, 17, 32],
          "outputPaddingScheme": 0,
          "outputPaddingSize": 1,
          "bias": [0.0633737, 0.101622, 0.162004, 0.189859, 0.108152, 0.0577908, 0.243432, 0.0074482, 0.155939, 0.125549, 0.13092, 0.0550903, 0.100837, 0.112744, 0.0210388, 0.107275, 0.110786, 0.0416485, 0.136167, 0.236929, 0.157679, 0.121091, 0.160008, 0.0819847, 0.0141497, 0.166832, 0.082079, 0.152782, 0.00262224, 0.0892307, 0.0254424, -0.0122295]
        }, 
        {
          "_type": "BinaryConvolutionalLayer<float>",
          "_version": "0",
          "inputPaddingScheme": 0,
          "inputPaddingSize": 1,
          "outputShape": [15, 15, 128],
          "outputPaddingScheme": 0,
          "outputPaddingSize": 0,
          "receptiveField": 3,
          "stride": 1,
          "method": 1,
          "weightsScale": 0,
          "binarizedWeights_numVectors": 128,
          "binarizedWeights_values": [13290227702247458084, 1730724849060421507, 12119271457626543398, 2901520725934458290, 948983230, 15124153726445772206, 6454313192296786605, 17713537668811352996, 16470758371469022526, 3851678589, 2758912203567243419, 7966201480607277104, 4056219479163109888, 14860423528829408423, 4005139735, 111789892783160761, 13583416936175090321, 6819214597295014584, 5287243556113781894, 2589987982, 6673529982767052977, 16733920679224540588, 14860423153497888055, 11637585801021342352, 1904288384, 16002442002740550678, 587724297571247931, 6834181644350675006, 22171248839232678, 3524260696, 4772131752552451112, 9802664765367398915, 6239209618245826053, 6825790188487843727, 1388187793, 6573589721540342951, 11038339870823699719, 15279078037559710116, 3460218859272121272, 910502617, 4878005893244483801, 14382859269318249603, 4843146426424638019, 14093560187274275401, 3263614992, 5085031586593757609, 5707107789885398373, 17015370622507785293, 13705259948692404292, 1865472335, 14238096107452644433, 4684434749413179827, 3175131362318487553, 5490543407306785980, 2889503777, 7186079602700211504, 727684771732921713, 5481735210021815633, 5346361146920228145, 605096225, 6604456960526491436, 13296858077466082373, 14280387236188317905, 289534474792855384, 3456397898, 8544313672159711317, 6783705845918074722, 9431981320306758, 869428041683882414, 874104691, 1740095919034342435, 8144249894336682421, 12769113418131837508, 787620188637067313, 4120991793, 16037811488933674035, 14162070487343301514, 159072442932568387, 4648885123142412371, 1108706283, 14904906126083126375, 8658756341315795239, 1164630213193633062, 14382876022813582, 3226530, 4598663097695466427, 11499892902080196480, 6126732232624343692, 288701055947351598, 1141613699, 4066984823104551358, 11262844808730302246, 1742969087858068902, 5179063180197701825, 1471811669, 592250843877154051, 658036991416932609, 5094645475541373737, 17587056221981233069, 1144095659, 1378146085583793521, 379756852142950562, 8143010259506832024, 5773685779570509824, 4051718178, 11188140322444172434, 15826339599866027318, 13408444842225582600, 9441235905762450947, 442766980, 8914840274177477435, 1190568990856416155, 5946373816120218491, 1284239717814294, 1160283214, 2247330493797831428, 10384598364773793071, 4069038759161397557, 16142554943403647028, 2760237360, 5130202865556654220, 10961779112982078329, 7473694381214536707, 4044325952193561734, 1620276083, 9260571267493664900, 6826820574772529280, 3961405348531649972, 6528514345090470196, 1320808821, 15333033476861494204, 13078667709362333145, 11926033713316096509, 11602402820506002312, 2705654765, 17839990138881589376, 14858501648253484083, 3465813705375099139, 5346101596670398722, 539560762, 5265289847690697145, 1478623724446095673, 2370480210541093409, 15069908173397840291, 3508688931, 749319948880735383, 623313792996182022, 9980922380432052870, 785339950114961091, 2594331654, 586049072205520058, 11884380643999764512, 369876424823987614, 607105292369128530, 2150634378, 1297247800089821256, 6309600962353451200, 17613655806212859298, 8949563024288726151, 3089177895, 5735126391908103057, 5153985568427125329, 14233250870757370496, 14200604179257601749, 2368878919, 7258027285038516, 3462713633784040903, 10131350548194575780, 16452291158498837445, 3290088869, 6634387351065274261, 3584789151539254564, 9514421578084062773, 4906537808585272973, 3424257300, 4913991076555961048, 5117956429699372458, 4039831321495109347, 15859475631411439811, 940428716, 364559371086600326, 14573095080262878173, 17284768631604874737, 2490782176363282483, 3130392580, 3480547420596855665, 5897377062093401909, 10978673309415375152, 14434693509702669631, 3391509766, 11656910714422274696, 14345829934675815716, 10975348358822347129, 9123260933026485603, 505549838, 2361460852368136490, 13265850928670423109, 14378780665070602288, 16483702610468066614, 3481511541, 16906366935463853347, 70241239146308358, 9350704901422835841, 6061524320656198668, 3411998094, 17308412688370752967, 18240419508949075089, 8070953780281208234, 17366140337780706688, 3650153713, 326968853101016305, 17015650692500928560, 8946180925757956208, 733559317422617602, 405213271, 361282481971909258, 4018868650986569859, 9513304458018678780, 3197420723755266939, 2283146276, 5085446093771090561, 5656985273376582167, 4707645634923996803, 13278245218083161918, 944041388, 2319007887867385644, 1731850784534855027, 11576333393348281634, 367788164574662207, 2156176803, 18353836912140486849, 5054747436267096330, 10962981006439747846, 4617898290936107830, 3442942487, 5347905844257928999, 11657541874138193191, 16469039936981813936, 1480778898585020560, 3587041745, 16713707405543085637, 1762631200319725653, 13006892929393100460, 13264332064516000702, 806399396, 13521641326151781641, 10952979859464668973, 3514439009600571680, 10399037122427245838, 939642234, 787305595697042340, 10102023274171014059, 9543576937234505293, 9812244354649428129, 2301893795, 2325415484985896753, 1192549072440256544, 4235041611037106954, 6527914897661188371, 1513542527, 1899572489447465785, 2566431805219468188, 2399806659280814368, 7345823999587367975, 1736551456, 12551832482493332409, 562114842145652897, 2533515313348720, 879663389491959985, 630286769, 12122877810471078917, 3713783114291854707, 11657793175485416496, 8325474645569591195, 293749028, 15097175521867569703, 6524546135392249862, 5884763864650408340, 6017760267637839877, 1621582724, 7261388302924849777, 7978039892359898928, 4374988925061934131, 2433382622659239486, 187047045, 11856160260459449032, 15353308727351020744, 18235283384253407568, 14417101267718803525, 4201928103, 8394850581243724464, 3527956473206392880, 3804876275240992912, 12120696612606860682, 3421986505, 117969696290238624, 1270297054641607909, 9326695912623902864, 16539395628521076976, 4290772287, 2982423309795438678, 16768335469420418102, 12260799460622047248, 2353588410426405232, 2057534000, 16922874925068530473, 5121483612574113591, 4818332705996810769, 17770969735530753725, 3617546841, 2612554046149591736, 2398351623812786881, 5746156443449043137, 16976093154557176448, 3669422103, 10486009377638901968, 5166245330463017402, 10976483655149438253, 869779690937779715, 2552681533, 18342023793372435751, 2308822337809043743, 17837177517875331319, 2326157079381592510, 554642139, 5086710300872359215, 14166511699290398801, 5047446190212981009, 5178050040523123283, 1255543721, 55348934366177939, 8552984907692147612, 9819219937070842882, 11365471542644039477, 2318066835, 9133115202742912943, 2326119826274640713, 7427489088158248361, 108517950528422048, 608283008, 17330598408154555138, 5048675935755595068, 13316422469591008078, 5337469535183283239, 3829794503, 10596525791364334082, 1371468384957132402, 9322011267644157787, 15005144980173815643, 3395087116, 6608955502096149113, 10360997549525079559, 9954668242891062402, 15827685951806220721, 3664647430, 6825049960839025927, 1889277715676131037, 9227221223558182994, 17768372008207783202, 2777132049, 11530026842787588691, 11529784960853140766, 16688616264863825972, 18412339421552529332, 4289995283, 7265291384004780692, 4850098093948624180, 9140597727503450368, 5076427616037048452, 2094660979, 16870152245220364802, 17193073293471387973, 7969128340730350145, 2594363662467664753, 85043217, 4117972245234448179, 5348645949991152376, 12316668652494984390, 3108064878463685893, 2866812938, 10702607242106394173, 3460490978744724528, 13016612457631059012, 82507374023484037, 287639552, 2632260215101565571, 7463171049388281256, 12141930193422108466, 8653760356400415941, 205182246, 16013249104453916087, 11837116478940910727, 12033726544477168361, 3585015388687337616, 2957249696, 14011843630679363965, 7995029933724533130, 9810551140999626764, 11413843618839972989, 3664125007, 3874682893297322112, 9620122771601482168, 13096936902731279000, 10772822207416549512, 25217192, 5311655552256106410, 1189732785850309535, 5122327819729430019, 5481518614732588593, 1334922042, 5374873858136697361, 7193984288210158082, 16358211361761536728, 17293904004661003064, 4051716768, 6354680944267586598, 2306694773682368523, 15861344141663948076, 2382700160485490689, 3045420093, 6305536162695054209, 5621243096080580522, 15723824193193689754, 1008947647198891028, 2323005387, 1757626737087738301, 13591711066804557838, 1885064593328330900, 11391816039041807895, 2802436176, 626160937748632286, 2027451310217762062, 2031779116082057240, 6630482075331064881, 2140169527, 3478048358923633284, 9233665398695184188, 876679258488345606, 11258670945207765299, 1276833123, 3462649844677469168, 9123155337080998316, 1738417538239681854, 2247429269505012013, 505747594, 9259480070395840824, 12722071022410260601, 17766032098588483600, 13042884673737712304, 3836059696, 15145109149837023384, 13100383593672873253, 5344103726387547319, 3278740043266908409, 1244271367, 4057748933048587730, 15997987877771493165, 7458422271405769018, 2779251565582951057, 125870602, 11828735209897991300, 14347386524038928513, 9212582496630057627, 7104343457364648593, 1921344432, 12112445629642923319, 10971984211211721985, 8888486938669482400, 4296209720442364290, 1402710909, 9742311773996849282, 576491565209203610, 18424216709266650469, 3461558624256575498, 2074044217, 5675592394947687797, 6963145627373048374, 85025295412760578, 5778015096943407864, 339720797, 5117251093381184807, 4991150094771396625, 3366871528285472961, 16048177931026169985, 1589370237, 2632852268307652689, 14309950609624223030, 13260936162693984049, 9638199875935338563, 3092608943, 14317981446035878467, 14968337072497991857, 2632820931379701905, 2308598010226169279, 562659488, 13488660703956392017, 12480627136866177330, 15781837634717157585, 17200663288121465136, 2140543171, 12142242054176516272, 11473541717467175568, 9551475454305369693, 5526675222628800261, 1670983760, 16615936322591599235, 7482205521215481720, 8394926472592232964, 5197811541799473678, 1411568950, 11394138396988568739, 14854613204314623104, 14357687545576954566, 15541393228964442821, 1195428040, 587188150825000199, 1239155134726277262, 11220384826088889474, 6233761659728152375, 3619135859, 4062613270644122994, 18349342182736403758, 11835170660306962, 5085549437864210738, 2351858694, 11541622625166859555, 7109951273042317441, 11530372422196600235, 7113751349369210672, 2699763107, 10961796978449726549, 12139018716292592962, 16947063482431185926, 6977522438125240754, 801581809, 2378112468512001456, 1737683188286866352, 3515270788142337340, 13275588806041288119, 944292664, 658178681409131046, 5783503884758698510, 4873848272074254850, 6333796854692031406, 3554929358, 15594898323376051974, 1308880660758129585, 3948963837451704326, 6495771222749352970, 903211440, 4521391681323154624, 1829614290340549991, 2034674313745669254, 9224498149708533808, 2685411616, 308786915217607960, 13437286836070351504, 360332225599768584, 13025935939463435573, 3850576048, 9130821243018555565, 6374693252210461843, 2741718288264852251, 9584117753192833844, 1694599257, 6395100094383763164, 3498638097952592133, 5204565945787069605, 8370982627285240536, 1278923042, 12442281649181362481, 2594504738229196069, 4051892993207666744, 2630569406652039856, 2066896689, 9203847026217987493, 7399734849075813966, 9657560675829031635, 292635862126273279, 3294514321, 5044629795449607207, 9572650024676947, 14166053185686745671, 10425475723072340749, 4275043836, 16101601821141139161, 17777440418415857518, 20483373232580526, 10957899064398603922, 1011909894, 4889753844408624406, 542833360943244592, 4900128879563800576, 7205807856199765152, 1144257779, 10706295712834252605, 7474605393606109832, 13273327618913220389, 5420669304828494424, 138171660, 11530484157994484248, 17012300523414863992, 16731875378474618880, 593935323490639271, 3929265923, 15564664846179026643, 13621917803987618182, 9963169101700416646, 14711664069814443526, 2319729546, 5494105050885626845, 325570345328442218, 1189205594758752416, 8308033281560178736, 1342193729, 1015566257699824900, 1742954316189342723, 879051030295355397, 9094513187243385791, 70659717, 1803669630917730291, 5846437186988403417, 5481043900509500773, 587455874086641037, 142053521, 14652561171810631819, 14687646391166731340, 12117599505965914324, 1625227963574083641, 887828284, 6824876992592221813, 2423603436587603230, 7446157186507687216, 3784654098340302264, 3336480921, 7482563643109894589, 9784141155239159255, 14422307897063380733, 1513798111796412538, 3309176444],
          "filterMeans": [0.00223134, 0.000896477, 0.00124026, 0.00187818, 0.00206815, 0.00145406, 0.00141446, 0.00162256, 0.00196563, 0.000966445, 0.00185389, 0.00188836, 0.00142042, 0.00166167, 0.00171474, 0.00194019, 0.00130627, 0.00101281, 0.00242007, 0.00176594, 0.00091892, 0.00120246, 0.000962602, 0.0017834, 0.00252452, 0.00112249, 0.00120498, 0.00140981, 0.00167131, 0.00157251, 0.0012684, 0.0018967, 0.00214499, 0.00168431, 0.00159252, 0.00227978, 0.00120209, 0.00123228, 0.00189285, 0.00212581, 0.00140753, 0.00138645, 0.00144783, 0.0014055, 0.00213522, 0.0015265, 0.00227719, 0.00180947, 0.0017892, 0.00240322, 0.00113837, 0.00135869, 0.00138167, 0.00169035, 0.00130233, 0.00138768, 0.00185033, 0.00140652, 0.00156809, 0.00145812, 0.00230718, 0.00103729, 0.00196391, 0.00210634, 0.00152216, 0.00151068, 0.00161451, 0.00166192, 0.001566, 0.000890707, 0.00184159, 0.00146321, 0.00155446, 0.00158668, 0.0015381, 0.00122183, 0.00146709, 0.00191711, 0.00206378, 0.0016242, 0.00112813, 0.00112838, 0.000927781, 0.00168635, 0.000961842, 0.00169954, 0.00126395, 0.00153279, 0.00178736, 0.00147364, 0.00189785, 0.00157464, 0.00131156, 0.00151987, 0.00136153, 0.00113535, 0.00143076, 0.0017206, 0.0021587, 0.00125262, 0.00114439, 0.00167435, 0.00136525, 0.00184426, 0.00204752, 0.00128004, 0.00132633, 0.00203284, 0.000827039, 0.00243117, 0.00123732, 0.00139438, 0.00142079, 0.00180373, 0.00241868, 0.00147142, 0.001611, 0.00145147, 0.00136055, 0.00142478, 0.00174342, 0.00122798, 0.00118146, 0.00150567, 0.00142642, 0.00125177, 0.00135069, 0.000809023]
        }, 
        {
          "_type": "BiasLayer<float>",
          "_version": "0",
          "inputPaddingScheme": 0,
          "inputPaddingSize": 0,
          "outputShape": [15, 15, 128],
          "outputPaddingScheme": 0,
          "outputPaddingSize": 0,
          "bias": [-0.000540725, -0.00715254, 0.000526927, -0.00170255, 0.00134089, -0.00249283, -0.00074471, -0.00155637, 0.000884567, -0.00180552, -0.00189315, 0.00120377, -0.00219304, -0.00217168, -0.000972325, -0.000664251, 0.00126963, -0.00176813, -0.00216315, -0.00286198, -0.00274611, -0.00342041, -0.00194788, 0.000258639, -0.0060809, 0.00290315, -0.000297617, -0.00228919, -0.00830342, -0.00597747, 0.00131604, -0.00994209, -0.00631826, 0.000923217, -0.00128523, 0.000289173, 0.00254836, 0.00102649, -0.00323127, -0.00115546, 0.00150026, -0.010237, 0.000129524, -0.00162244, -0.00305475, -5.48512e-05, -0.00486228, -0.00146702, -0.00524029, -0.00529077, 0.00803948, 0.000636252, 0.000659685, 0.0160637, 0.004722, -0.000222692, -0.00426753, -0.00219118, -0.000754196, -0.000669436, 0.00263394, -8.98211e-05, 0.000532833, -0.00797252, 0.000888551, 0.000945622, 0.000206935, -1.72942e-05, -0.00177616, 0.0010066, -0.00149568, -0.00107147, -0.00164097, -0.000419984, 0.00361559, -0.000920055, -0.00134192, -0.00287892, -0.00366784, -0.00117195, -0.00830257, -0.00223231, -0.00106786, 0.000810809, -0.00120262, -0.00192864, -0.00313925, 0.00118865, -0.000600252, 0.00419548, 0.00180982, -0.00272921, 0.00255205, -0.000456269, -0.00263715, -4.63854e-05, -0.00300495, -0.000646644, -0.000104357, -0.00315896, 0.000393603, -0.000372289, -0.000181143, -0.00465916, -0.00257096, 0.00143181, -0.000424352, 0.00339707, -0.0038585, 0.00257069, 0.00404477, 0.000903395, -0.00485951, 0.00241824, 0.00122514, -0.00134558, -0.00284242, -0.00322331, 0.00123836, -0.000928706, -0.00154806, -0.00241209, 0.000345643, -0.000565491, -0.00327931, 0.000178274, -0.0031358, -0.00216032]
        }, 
        {
          "_type": "ActivationLayer<float,ParametricReLUActivation>",
          "_version": "0",
          "inputPaddingScheme": 0,
          "inputPaddingSize": 0,
          "outputShape": [15, 15, 128],
          "outputPaddingScheme": 4,
          "outputPaddingSize": 0,
          "alpha_rows": 15,
          "alpha_columns": 15,
          "alpha_channels": 128,
          "alpha_values": [0.00189514, 0.000306627, 0.000365463, 0.00137668, -0.0037329, 8.13583e-05, -0.0010777, -0.000117238, -0.000245716, 0.000561292, 0.000611794, 0.000352169, 0.000899958, 8.31336e-05, 0.00608325, -0.000587239, -0.000944684, 0.000278409, -0.000271264, 0.00125663, 0.0019781, 0.00121859, 0.000493006, 0.00108306, 0.000549881, -0.000333047, 0.000710321, 0.0018802, -0.0110252, -0.00014483, 0.000233023, 0.00144278, 0.00112362, 0.000152401, 0.000317176, 0.000195223, 0.000266688, 0.000618002, -0.000337202, 0.0016042, 0.00033579, -0.00117748, 0.0011555, 0.000396209, -0.000139687, 0.000316097, -0.00316959, 0.000295222, -0.001092, 0.000236304, -0.00050487, 0.000316155, 0.000387726, 0.00326959, 0.000406642, 0.00380961, 0.00035036, -7.36136e-05, 0.00158097, 0.00174522, 0.000865851, 2.94762e-05, 0.000606751, 0.00154911, -0.000216509, 0.000658137, 0.000398632, -0.00722767, -0.000351845, -0.000269063, 8.57476e-05, 1.15963e-06, 0.00185531, 0.000335809, 3.11406e-05, 3.82037e-05, 0.000559568, -0.000404401, 0.000854286, 2.84095e-05, 0.00617416, -0.000207094, 0.000821, 0.00200691, -9.8756e-05, 0.000980963, 0.000174365, 0.00034038, 0.00044214, 0.00438032, 5.22833e-05, 0.000710256, 0.000360169, -0.00074289, 0.000366852, -0.00038446, -0.00021654, 0.000640268, -0.000531836, 0.000618896, -0.00037381, 0.000543964, -0.00321339, -4.89238e-05, -0.00222842, 0.000351853, 0.000459011, 0.0018272, -0.000905364, 0.000500147, 4.38345e-05, 0.00164051, -0.000124656, 0.000141249, 0.00159746, 0.000677911, 0.000265166, -0.000170256, -0.000117123, 0.000390347, 0.000782698, 0.00109482, 0.00127936, -0.00055189, 0.000113911, -8.04232e-08, 0.000517978, 0.000226699, 0.00123588, 0.000121295, -0.000824958, 0.00119862, 0.000363356, -0.00026461, 0.000300138, 6.0286e-06, 0.000594135, -0.000413218, 0.00053737, 0.000496829, 0.000911841, 0.000445245, 0.00504177, 0.000365026, 0.000198776, 0.000451327, 0.000431401, -0.000127527, -0.00799031, -0.000556168, 0.000565953, 0.000684036, 0.000315496, 0.00047794, 0.00061235, 0.0014741, 0.000557585, -0.000291621, 0.000335765, 0.000761107, 0.000962606, 0.000407595, -0.0016627, 0.000423577, 0.000474999, 7.18151e-05, 0.000164398, 0.00141362, -0.00297493, 0.000761781, 0.00096043, 0.000582158, 0.000281796, 0.000575304, 0.00022666, 0.000197136, 0.000277037, 0.00143572, -0.00339867, 0.00014694, 0.000671883, 0.00299801, 0.000426878, 0.00323945, -0.000119236, 6.26662e-05, 0.0013315, 0.00130165, 0.000707673, 0.000469703, 0.000446196, 0.000752117, 4.61324e-05, 0.000589892, 0.000301497, 0.000224924, -0.000231085, 0.000586329, 6.72885e-07, 1.8038e-06, 0.000832529, 0.000253203, 3.36849e-05, 1.92272e-05, 0.000825465, -0.000370257, -0.00656796, -0.000269759, 0.00498994, -0.00132682, 0.000741335, 0.00117391, -0.000408945, 0.000999819, 0.000115837, -0.000143219, 0.000320252, 0.00314993, -7.59625e-05, 0.000447024, 0.000349262, 0.000362248, -0.00041455, 2.68223e-05, 1.19881e-06, 0.000586669, 0.000187405, 0.000630655, -0.000394023, 0.000483459, 3.45752e-06, 0.000377503, -0.000597149, -0.00110226, 0.000408801, 0.00169041, 0.000259286, 0.000587304, 0.00021346, 0.00185178, -0.000134428, 0.000134479, 0.000729738, 0.000638427, 0.000362624, 0.000629388, -0.000413691, 0.00033128, 0.000528459, 0.000792086, 0.000915135, 0.000112701, 6.88694e-05, -0.000396361, 0.000619121, 0.000265234, 0.00187538, -0.000383571, -0.000442747, 0.0013716, 0.000551709, -0.00163826, 9.92749e-05, 0.000595859, 0.00111375, 0.000595009, 0.00064702, 0.000498551, 0.00115618, 0.000281175, 0.00462796, 0.000751335, 0.000192013, 9.59706e-05, 0.000447063, 0.00098784, 0.00152153, 0.00119045, 0.00025918, 0.000930933, 0.000321443, 0.000338369, 0.000919577, 0.00146653, 0.000669648, -0.000210534, -0.0141079, 0.000922451, 0.00126252, 0.000131701, 0.000638627, -0.00239734, 0.000196566, 0.000202168, -0.00151239, 0.00246514, 6.24005e-05, 0.000842139, 0.00165935, -0.000844587, 0.000495649, 0.000569086, 0.0009198, 0.000337829, 0.000368262, 0.00193012, 2.46335e-05, 0.00035413, 0.000726802, 0.00520434, 0.000499978, 0.00421592, -9.98266e-05, 0.000149557, 0.00187285, 0.00481347, 0.00116241, 9.94481e-05, 0.00101508, 0.00112129, 0.00030745, 0.000706017, 0.000720161, 0.000271671, 9.42041e-05, -0.000675574, 0.000126094, 0.000265179, 0.00193651, 0.000451304, 5.71489e-05, 2.92259e-05, 0.00408777, -0.000328329, 0.000925997, 4.13147e-05, 0.0103019, 0.000494013, -0.00257711, 0.00266065, -0.00210927, 0.00138479, 0.000390957, 0.00199773, 0.00079721, 0.00482511, 0.000139054, 0.000808162, 0.00044224, 0.000339886, 6.28168e-05, 3.61227e-05, 0.000291657, 0.000830642, 9.52109e-05, 0.0007277, -0.000272546, 0.000329382, 0.00174016, 0.0004091, 0.00136953, 0.00117257, 0.000368324, 0.00274922, -0.00260415, 0.00020039, 1.01749e-05, 0.00297941, -0.000331094, 0.00038936, 0.00191361, 0.000609535, 7.8265e-05, -0.000333989, 0.000407743, 0.000167535, 0.00149293, 0.00277251, 0.00122394, 0.00102247, 7.13766e-05, 0.000283719, -5.29389e-05, 0.000126338, 0.00161159, -8.89437e-05, 0.000268516, 0.00101753, -0.00026996, 0.000414614, -0.000191991, 0.00035872, -0.00095712, 0.00042027, 0.000110924, 9.78024e-07, 0.000965398, -2.07605e-05, 0.000332947, 0.000611603, 0.000389515, 0.000227224, 0.000446298, 0.00033662, 0.000189824, 0.00100884, 0.000121206, 0.000447256, 1.48273e-05, 5.26129e-05, -4.59953e-06, -0.00041836, -0.000997085, 0.000332956, -0.000174872, 0.00112282, 0.00112579, 0.000187586, 0.000571043, 0.000333664, 8.10738e-05, 0.000294638, -0.000738984, 0.00232672, 7.4675e-05, -0.000426896, 0.00116925, 0.00067996, 0.000579405, 0.000351807, 0.00100223, 8.49895e-05, 0.000852846, 0.00153985, 0.000592581, 0.000386569, 0.000594354, 0.00522043, 4.82205e-06, 0.00362645, 0.000276975, 3.38576e-05, 0.00163532, 0.00451813, 0.000937549, 0.000333637, 0.000838495, 0.000793256, 0.000127437, 0.000359582, 0.000613035, 0.000421877, 0.000363546, -0.000576912, -5.46082e-06, 0.000107887, 0.000391726, 0.000565506, 0.00045072, -0.00037161, 0.0049871, 0.000609469, -0.0311945, 0.000179474, 0.00783961, 0.000278953, 0.000584274, 0.00210625, 0.000350388, 0.00125823, 0.000228489, 0.00167302, 0.000697201, 0.00495487, 0.000165434, 0.000364763, 0.000271215, -0.000532108, 0.000295536, -1.92658e-05, 0.000577189, 0.000584779, -0.00070528, -4.12104e-05, -0.000136273, -2.37908e-05, -0.0015531, -0.000186661, 0.00117645, 0.00146069, 0.000368893, 0.00235587, -0.000504785, 0.000213934, 0.000355526, 0.00265922, 0.000359871, 0.000153725, 0.00130187, 0.000514765, -0.000197088, 0.000600724, -0.000200648, 0.000581315, 0.00121902, 0.00296001, 0.00147878, 0.000808748, 0.000505979, 0.000544353, -1.59273e-05, 0.000130034, 0.00208972, -0.000777702, -0.000463297, 0.00120286, -0.00983543, 0.000365421, 0.000995804, 0.000376353, 0.00172664, -0.000193041, -0.000386574, 0.000485967, 0.000912672, 0.000577238, 0.0102019, -0.0117905, -0.000161171, 0.000442763, 0.000537966, 0.000667335, -0.0541185, 0.000989454, 0.000331108, 0.000379668, 0.000118974, 0.000344745, 0.000744148, 0.000522205, -0.000271944, 0.000212155, -4.44253e-05, 0.00191812, -0.000621104, 6.15427e-05, 0.000512134, 0.000334532, 0.000220663, 0.000285983, 0.000457387, 0.00239068, 0.000278635, 0.00128308, 0.00180627, 0.00073432, 0.000152681, 0.000855267, -0.00456836, -0.00697062, 0.000963841, 0.00317421, 0.00295636, 0.000510855, 0.000560881, 0.00732164, -0.00598317, 0.00344312, 0.000228929, -0.000112268, 0.00220527, 0.00568111, 0.00128878, 9.6737e-05, 0.00194441, 0.00105503, 0.000146982, 0.000379165, 0.00115782, 7.66077e-06, 0.000271138, 0.000106703, -1.39969e-07, 3.79218e-05, -0.00115852, 0.000602934, 0.00104177, 0.000516796, 0.00608642, 0.00103845, 0.000540241, -0.000230215, 0.0115526, 1.64144e-05, -0.0121457, 0.00201947, 0.000196203, 0.00146233, 0.000598335, 0.00231232, 0.000765602, 0.00693307, 0.000291055, 0.00172778, 0.00054392, -0.00102137, 0.000473531, 0.000560706, 0.00058462, 0.00110083, 0.000878145, 7.89463e-05, 0.000540554, 1.8081e-05, 0.00319214, -0.00593821, 0.000949655, 0.00173476, 7.10885e-05, 0.00342468, -0.000332201, 0.000904274, 0.000466181, 0.00350314, 1.4422e-05, 0.000395789, 0.00131854, 0.000741413, -8.43934e-06, 0.000377596, 0.00318947, 8.38019e-05, 0.00134079, 0.00426009, 0.00163979, 0.0014617, 0.000571979, 0.000501167, 0.00018524, -3.00733e-06, 0.000111646, 0.000581272, 1.07399e-05, 0.000917158, 9.78677e-05, 0.000369348, 0.00118204, 0.00042338, 0.00136222, -2.70329e-05, -2.66842e-05, 0.000525246, 0.00032033, -0.000126382, 0.014284, 0.000566592, 0.000423419, 0.000458614, 0.000609342, -0.000651547, 0.000281649, 0.000670376, -0.00495789, 0.000230515, 0.000134283, 0.000286208, -0.000637289, 0.000258019, -0.000124042, -0.000171824, -3.68348e-05, 0.0016702, 0.000767492, 5.99504e-05, 9.71473e-05, 0.000232148, 0.000244734, 0.000280773, 0.000216499, 0.00233798, 0.000619095, 0.00101754, 0.00131683, 0.000172217, 5.87816e-05, 0.000850381, 0.00071997, 0.000147594, 0.00110449, 0.00241503, 0.00291416, 0.000305797, 0.000287755, 0.00521185, 0.000601225, 0.00309129, -0.00192445, 0.000447657, 0.00145428, 0.006149, 0.00128768, 9.03352e-05, 0.00163359, -0.000869238, 0.00022677, 0.00024698, 0.00114697, 0.00029496, 0.0002451, -0.000278709, -2.21702e-06, -0.000288166, -4.52634e-05, 0.00058713, 0.000893901, -1.38557e-05, 0.0032039, 0.00124029, -0.0346709, 0.000225116, 0.00837516, -0.000136766, 0.00050045, -0.000478885, 0.000154798, 0.000811874, 0.000546603, 0.00195531, 0.000669092, 0.000456154, -4.98171e-05, 0.0012052, 0.000569585, 0.000360758, 0.000146058, 0.000215715, 0.000444466, 0.000968743, 0.000534858, 6.56119e-05, 0.0002162, 9.44943e-05, 0.0034898, -0.000225158, 0.00102617, 0.00107481, 0.000103282, 0.0019567, 0.000372171, 0.000924517, -2.54299e-06, 0.00288932, 0.000558027, 0.0002579, 0.000877875, 0.000568393, -0.00217116, 0.000625109, 0.00257188, 7.79533e-05, 0.000570764, 0.00320381, -0.00376293, 0.00113801, 0.000403678, 0.000705894, 0.000137759, -0.000472403, -0.00983467, -0.0002681, 7.78065e-05, 0.00102822, -3.80978e-05, 0.000580824, 0.00120848, -0.00307101, 0.00244129, -0.00201436, -0.000602887, 0.00105764, 0.000748247, -0.000132529, 0.0148353, 0.00107874, 0.000742527, 0.000127245, 0.000548797, 0.000415708, -8.84127e-05, 0.00061454, 0.000512087, 0.000572359, 0.00123184, -0.000648691, -0.00497283, 0.00137237, -0.000659957, -0.000165024, -0.00554635, 0.00188612, -0.00402294, 0.000172012, 0.000543606, -0.0155758, 0.000889688, 0.000378458, 0.000147596, 0.002445, 0.00026711, 0.000559088, 0.00211804, 0.000294243, -0.000182045, 0.000958723, 0.00072167, 0.00037643, 0.00196119, 0.0027628, 0.00355262, 0.000450836, 0.000384049, 0.00603266, -0.000628119, 0.00282274, -0.000203911, -0.000205867, 0.00115822, 0.00659961, 0.00113125, 0.000278308, 0.0017572, 0.00102214, 0.000478185, 0.00018372, 0.00144114, 0.000121732, 0.000798538, -0.000138416, 0.000484067, -0.000237175, 0.000343879, 0.000668439, 0.0011519, 0.000387822, 0.0053099, 0.00185578, 0.000372634, 0.000646533, 0.0119916, 0.000319141, 0.00136346, 0.00368185, 0.000198722, 0.0014347, -4.3664e-05, 0.00268676, 0.000632806, 0.00039042, 0.000411364, 0.00152971, 0.000673542, 0.000200952, 0.0004256, 0.000190168, 0.000186082, 0.00135022, 0.000566218, 0.000590286, -0.000486445, -0.000112261, 0.00394877, -0.00238264, 0.00118683, 0.0013307, 9.59766e-05, 0.00181562, 0.000229666, 0.000997385, 0.00195361, 0.0036969, 0.00018961, 0.000193031, 0.000880329, 0.00107208, 0.000399288, -0.00789873, 0.00234644, 0.00048562, 0.000789161, 0.00392618, 0.00239838, 0.00143043, 0.000577257, 0.000943001, 0.000161439, -0.000258848, 0.000100145, -0.000490046, -0.000422397, 0.000589283, -0.0297549, 0.000450928, 0.00107894, 0.000650469, 0.00151703, -0.000102418, 0.000127835, -0.000622801, 0.000400028, 7.40574e-06, 0.000218061, 0.000910592, 0.000881749, -0.000140457, 0.000271225, 9.84441e-06, -6.51255e-05, -0.000223782, 0.000397974, 0.000454078, 0.00106054, -0.000564269, 5.95736e-05, 0.00213754, 0.000196559, -1.90364e-05, -0.000403912, 0.00170448, 0.00141491, 0.00018536, 0.000276744, 0.000562484, 0.0006011, 0.000615321, 0.000208735, 0.00170168, 0.000544968, 0.000224669, 0.00115357, 0.000474611, -0.000308466, 0.00077903, 0.000578849, 0.000600471, 0.00163025, -0.00361049, 0.000351334, 0.00035803, 0.000241935, 0.00535724, 0.000611719, 0.000859627, 4.35476e-05, 0.000311299, 0.00126273, 0.00448205, 0.00120684, 0.000389414, 0.00144348, 0.000945701, 0.000209679, -0.000116751, 0.000943998, 0.000526745, 0.000652434, 0.000616329, -0.00243241, 0.000586855, -0.000225208, 0.000443881, -0.0129243, 0.000560348, 0.00455842, 0.00135946, 0.000500633, 0.000629568, 0.00610129, 1.69484e-06, 0.00106679, 0.00342818, -0.000199173, 0.000734081, 0.000358132, 0.00235871, 0.000234661, 0.000472394, -0.000303029, 0.000796256, 0.000154865, 9.04122e-05, 0.000304635, 0.000284925, 0.000359258, 0.000929107, 0.000603693, 0.000528461, -0.00010981, -0.000181408, -0.000429174, 0.000158591, 0.000456014, 0.00114728, -0.000254269, 0.00180474, -0.000100027, 9.17043e-06, -0.00237557, 0.0017992, 6.2889e-05, -0.00224631, 0.000122096, 0.000620958, 0.000393998, -0.000524381, 0.00278614, 6.06224e-05, 0.000124044, 0.00275123, 0.00192989, 0.00106282, 7.04721e-05, 0.000718539, 0.000414799, 2.43643e-05, 5.65367e-05, 0.000214146, -7.13328e-05, 0.000371313, 0.000235613, 0.000480109, 0.00166109, 0.000745372, 0.00159434, -0.00011982, -0.000621793, 0.000755858, 0.000391095, 0.000581203, 0.00873907, 0.000931174, 0.00064223, -0.00824926, 0.000534033, 0.000635528, -0.0182382, 0.00046786, -0.00511012, 0.0007234, 0.00139474, -0.00057543, 0.000540424, 0.00351389, -0.000544259, 0.000607963, 7.09149e-05, 0.00134782, 0.00166896, 0.00056831, 0.000334003, 0.00090288, 0.00098994, 0.000567908, 0.000226266, 0.0020334, -0.000417911, 1.03522e-05, 0.00207258, -0.000607426, -0.000210983, 0.000879174, 6.21095e-07, 0.000244501, 0.0014729, 0.00247364, 0.000213245, 0.000285655, 0.000475865, 0.00536819, 0.000883703, 0.00174259, 0.000330915, 0.000186002, 0.00158212, 0.00472292, 0.00161514, 0.000292862, 0.00154167, -0.00853198, 0.000200392, 0.000554943, 0.0012629, 0.000108663, 0.00117295, 0.000436626, 0.000660452, -0.0011685, 0.00132019, 0.000529573, 0.000417338, 0.000174601, 0.0045987, 0.00161895, 0.000214817, 0.00094803, 0.00279444, 0.000291981, 0.00270319, 0.000343004, -0.00235983, 0.00114662, 3.30128e-06, 0.00268511, 0.000788445, -0.00447679, 4.09874e-05, 0.00173523, 0.000207062, 0.000125751, 0.000259485, 0.000295637, 0.00011432, 0.00116343, 0.000331114, -0.00520486, 8.19268e-05, -5.76262e-05, 0.00317152, -0.00130926, 0.000902102, 0.00114293, -0.00802979, 0.00195869, 0.000449119, 1.64184e-06, 0.0018083, -0.00568494, 0.000291161, 0.000216822, -1.74935e-05, 0.00100377, -0.00162559, 0.00024671, 0.00285749, 1.04304e-05, -1.6133e-05, 0.00315456, 0.00197232, 0.0008276, 0.000435789, 0.000703116, 0.000110621, -0.000555396, 0.00023652, -0.000983709, 0.000497792, -0.000795244, 0.000460149, -0.00182108, 0.00140735, 0.000362375, 0.00115239, 2.57697e-05, 0.000429706, 0.00103463, 0.000396776, 2.1549e-05, 0.0050222, 0.000651698, 0.000765254, -0.000318284, 0.000403805, 0.000416978, 0.00298167, 0.000587111, -0.000191936, 0.000647027, 0.00066599, -0.000119056, -7.76823e-05, 0.00157438, -0.000460777, 0.000593495, 0.000582329, 0.00136868, 0.000631726, -0.0073624, 0.000468203, 0.000669788, 0.000447789, 0.00049528, 0.000190658, 0.000296721, 0.000509462, -0.000317542, 0.00137275, -0.0032454, -0.000469463, 0.000645207, 0.000213069, -0.00220018, -0.00152046, 0.00149021, 0.000439367, 0.000203295, 0.000462852, 0.00260189, -0.000339492, 0.000116633, 0.000333639, -0.00218651, 0.00142024, 0.00334283, 0.000995305, 0.000630447, 0.00155836, -0.000234483, 0.000509323, -0.000760682, 0.00141572, 0.000111034, -0.00158658, 0.000522293, 0.000116751, -0.00019667, -0.00250954, -0.000649903, 0.000175452, 0.000303012, -0.00021003, 0.00150507, 0.000580854, 0.000594857, 0.00342168, 0.000111216, -0.0128232, 0.00171454, 0.00043778, 0.00104026, 0.00051824, 0.00180038, 0.000328398, 0.000411693, 0.000329849, 0.000692824, -0.000331394, 0.000318996, -0.000228584, -0.00081667, -0.000136959, 0.000664438, -0.0042159, 0.000350252, 5.89588e-05, 0.000621014, 0.000543809, 0.000655366, 0.00071144, 0.000300315, 5.73474e-05, 0.00205457, 0.000366816, 0.0004292, -0.00035005, 0.00150182, 0.000181947, 0.000521387, -1.3012e-06, 0.000463983, 0.000282245, -0.000437524, 0.00213124, 0.000335487, -0.000113046, 0.00210485, 0.00198606, 0.000318987, 0.000601794, 0.000725141, 0.000522669, -0.000982185, 0.000196126, -3.85016e-05, -4.0969e-05, 0.000600343, -1.27804e-05, 0.000562962, 0.000279882, 9.83992e-06, 0.0026393, -1.38454e-05, 0.000474714, 0.00121241, 0.000813643, -2.56915e-06, 0.0101629, 0.00139043, -0.0072407, 0.000181257, 0.000661649, 0.00048477, 0.00699984, 2.03003e-06, 0.000180152, 0.000824588, 0.000775008, 0.000331645, -0.000348374, 0.0029611, -0.000644846, 0.000495193, 0.000426354, 0.00165877, 0.000659631, 0.000733088, -0.000636937, 0.000760299, 0.000851306, 0.000416945, 0.000195116, 0.00231221, 0.000518354, 0.000115552, 0.00109242, -4.37565e-05, 1.14696e-05, 0.00053216, -0.0167287, 0.000469288, 0.000967938, -0.000955636, 4.48504e-05, 0.00103391, 0.000579741, 0.00659536, -0.010952, 0.00167435, 0.000396891, 0.000407247, 0.00153541, 0.00312127, 0.00121197, 9.88503e-05, 0.00197859, 1.87825e-06, 0.000283644, 0.000126966, 0.00144863, 0.000732114, 0.000738219, 0.000519598, 0.000319593, 0.000551648, 0.000843192, 0.000639176, -0.0179165, 0.000433887, 0.00259958, 0.00196514, 0.00139338, 0.000943034, 0.00772731, -0.000387632, 0.00415251, -0.000964522, 8.19165e-05, 0.0014824, 0.000603016, 0.00238381, 0.00104258, 0.00526263, -0.000147895, 0.00101411, -0.000529886, 2.7807e-07, -0.000181512, 0.000288654, -0.000658163, 0.000954977, 0.0014859, 1.35784e-05, 0.000315949, 0.00038998, 0.00452368, 0.00114079, 0.000879001, -0.00165954, 0.000360603, 0.00178665, 0.00165295, 0.000769773, 0.000471757, 0.00247641, 0.000692055, 1.40934e-05, 0.00020256, 0.000645501, 0.000444211, -1.40722e-05, 0.000342654, 0.000464967, 0.000485249, 0.00214443, 0.00193989, 0.000945474, 0.000839702, 0.000975611, 0.000421398, -0.000472024, 0.000596154, 0.000508992, 0.000599734, -6.29369e-05, -8.57311e-05, 0.000426712, 0.00118126, -0.000147493, 0.00297851, -0.000146519, 0.000452182, 7.61002e-05, 0.000222851, -0.000424944, 0.00781212, 0.00120351, 0.000661351, -0.00268508, 0.000615023, 0.000349102, 0.00619143, -0.013048, 0.000185282, 0.000515786, -0.00352506, -0.000350663, 0.000311652, -0.000490748, 0.000104894, 0.000494281, -0.000225121, 0.00121021, 0.000804242, 0.000598573, 0.000162445, 0.000357223, 0.000694981, 7.7485e-05, 2.30547e-06, 0.002187, 0.000461526, 0.000513458, 0.000608122, -0.00380439, 4.37688e-05, 0.000529364, 0.000724503, 0.000565239, 0.000876871, -0.00476669, -0.000749249, 0.000815224, 0.000603641, 0.00512233, 0.000166987, 0.00272761, 0.000219404, 0.000557676, 0.00175075, 0.00198991, 0.00101924, -0.000322724, 0.00124846, 8.34365e-06, 0.000534226, 0.000463465, 0.000901807, 0.000589899, 0.000396963, 0.000212987, 0.000338923, -0.000105039, 0.00121066, 0.000581643, 0.000177289, -3.7313e-05, 0.00264466, -0.000577365, 0.000522051, 0.00075107, 0.00612006, 0.000243422, 0.00319639, 0.00122705, -0.00246246, 0.00149692, -0.00052493, 0.00199939, 0.000819516, 0.00368784, 0.000303513, 0.00081616, -0.000510912, 0.000157473, 0.000615054, 0.000534792, 0.000180368, 0.000506992, 0.00112565, -9.36999e-05, 0.000237192, -0.000429076, 0.00329982, 0.000738058, 0.000570804, -0.00123664, 0.000496847, 0.00143327, 0.00125175, 0.000898472, -5.60485e-05, 0.00213177, 0.000419265, -0.000464302, 0.000257865, 0.000424711, 0.000564951, 9.905e-05, 0.0017727, -0.000353842, -0.000835041, 0.0010213, 0.00172329, 0.000494676, -0.000457012, 0.000856377, -0.000670089, -0.000176501, 0.000428456, -0.000180805, -0.000536129, -0.000591632, -0.0251751, 0.00054535, 0.000583863, 0.000542109, 0.00314352, 0.000244693, 0.000552107, 0.000639975, 0.00057806, 0.000418477, 0.00638531, 0.000719176, 0.000825411, 0.000367293, 0.000767236, -0.00569719, 0.00539461, 0.000664796, 0.000204096, 0.00110858, 0.000677161, -4.26764e-06, -0.00280285, 0.00307436, 0.000242972, 0.00145933, 0.000532798, 0.00123068, 0.000959138, 0.000762153, -1.89395e-05, 0.000380257, 0.000861401, 0.000409711, 0.000220475, 0.0024334, 0.000403288, 0.000204389, 0.00185702, 0.000452698, -0.00591302, 0.000149526, 0.00080927, 0.000686513, 0.00088726, 0.00125284, 0.000580011, 0.00107273, 0.00044238, 0.00449099, 0.000836182, 0.0030541, 0.00017486, 0.000353604, 0.001681, 0.00296063, 0.000920138, 8.27008e-05, 0.00233923, 0.000671875, -0.00386177, 0.000225868, 0.000937685, 0.000582158, -7.42763e-06, 0.000164807, 0.000588968, 1.2725e-07, 0.00151067, 0.000762785, 0.00220844, -0.000426755, 0.00325315, 0.00115356, 0.00167384, 0.000881724, 0.00659958, 0.000601309, 0.0042283, 0.000840484, -3.71743e-05, 0.00152665, 0.00022371, 0.00221054, 0.000899435, 0.00209391, -7.62556e-06, 0.000997286, 0.000368434, 0.000220013, 0.000306235, 3.84668e-05, 0.000636114, 0.000643758, 0.00155709, 0.00104979, 0.000354624, -0.00857843, 0.0032589, 0.00110705, 0.000745657, 0.000567072, 0.000434619, 0.00109482, 0.00155695, 0.00104782, 0.000270892, 0.00165898, 0.000745147, 0.000591904, 0.000556749, 0.000347089, 0.000512797, -0.000525286, -0.00466374, -0.0013826, 0.000614432, 0.00119991, 0.00154061, 0.000582358, 0.000166704, 0.000944063, 1.25837e-05, 0.00014149, 0.000358918, 0.0004167, -0.000274341, 0.000608527, -4.9147e-05, 0.000168043, 0.000649958, 0.000596029, 0.00202314, -0.00059284, 0.000404762, 0.000511983, 0.000380782, 0.000431522, 0.00680454, 0.00112508, 0.000121773, 0.000195271, 0.000226341, 0.000432392, 0.00461855, 0.000561294, 0.000524567, 0.000596092, 0.000595222, 0.000337283, 0.000269832, 0.00276274, 0.000193281, 0.00115217, 0.000236676, 0.000689941, 0.000572812, 0.000557549, 6.85159e-06, 0.000165346, 0.000131182, 0.000145888, -0.000249771, 0.000276726, 0.000342416, 0.00024172, 0.00137645, 0.000598825, 0.000175119, -3.58513e-06, 0.000428949, 0.000501396, 0.000605467, 0.00106875, 0.000166947, 0.00072514, 0.000267691, 0.00348371, -0.00193452, 0.00291683, 0.000289207, 0.000276697, 0.00123319, 0.00265343, 0.000464166, 0.000610725, 0.00165364, 0.000615054, -0.000158725, 0.000187901, 0.000649231, 0.000371204, -0.00013999, 8.2715e-05, 0.000336421, 0.000487614, 0.000644774, 0.000739076, 0.0016744, -0.000351556, 0.00207595, 0.000535043, 0.000482872, -3.47741e-06, 0.00599699, 6.00782e-05, 0.00282281, 0.000554737, 7.97747e-06, 0.00042888, -0.000452848, 0.00140644, 0.000613706, 0.00287441, -4.37085e-05, -0.000221206, 0.000338516, -5.35945e-05, -0.000191189, 0.000528474, 0.000533531, 0.000317012, 0.000706313, 0.00095768, 0.000197105, -0.00021699, 0.000905935, 0.00045201, 0.000278023, 0.00016481, 0.000240611, 0.00067132, 0.00061742, 0.000657265, -8.12624e-05, 0.000552552, 0.000691212, 0.000126071, 0.000460187, 0.000332136, 0.000561098, -0.000396168, 0.0012942, -0.00018063, -0.000266028, 0.00116395, 0.000648893, 0.000457042, 0.000141965, 0.000284973, 0.000460386, -0.000512621, 0.000367758, 0.000121469, -0.000514002, 0.000401247, 0.000245681, 2.97839e-06, 0.00102125, 0.000562885, 0.00317373, 0.000139666, 1.49709e-06, 0.000564326, 0.000511784, 0.000496165, 0.0100413, 0.00118418, 0.000325706, 0.000302065, 0.000140916, 0.000588056, 0.00570043, -0.000316263, 0.00018688, 0.000892283, 0.000587669, -0.0003243, -0.000266889, 0.00423749, 0.000439728, 0.00127434, -0.000239325, 0.000984537, 0.000954795, 0.000698255, -0.000584689, -0.00264307, 0.000470487, 0.000318073, 9.86501e-05, -0.00290173, 0.000185363, -4.8608e-05, 0.00196647, 0.000626758, -0.000103843, 0.000603284, 0.000434779, 0.000723484, 0.000609963, 0.00142622, 0.000624572, 0.000764315, 0.000387056, 0.0055844, 0.0009259, 0.00392067, 0.000241685, 0.000497598, 0.0012369, 0.00270644, 0.000894481, 7.35073e-05, 0.00221735, 0.000544597, 0.000146481, 0.000171141, 0.000690253, 0.000244784, 0.000160543, -4.09204e-05, 0.00057304, 0.000423542, 0.000703814, 0.000624659, 0.0024416, 0.000446675, 0.00311079, -0.0012696, -0.00108092, -0.000645485, 0.00847095, 7.94567e-05, 0.00387581, 0.00066071, 8.61108e-06, 0.000571679, 0.000334761, 0.0016974, 0.000240345, 0.00508397, 0.00031772, 0.000472875, 0.00037742, -0.000559421, -0.000729685, 0.000362709, 0.000647585, 0.000289492, 0.00114623, 0.00119079, 0.000182507, 0.000565117, 0.00113321, 0.000815024, -0.00146819, 0.000234693, 0.000394734, 0.00109126, 0.00114771, 0.000767934, 0.0004462, 0.000511066, 0.000495094, 0.000449522, 0.0006391, 0.000431675, 0.000486931, -0.000370664, 0.00115369, 0.000308611, 0.000609255, 0.00115442, 0.00100601, 0.000187924, 0.000173904, 0.000830518, 0.000293297, -0.000490344, 0.00158772, -0.000180182, -0.000519095, 0.0007939, 0.000599243, -0.000100314, 3.13775e-05, -0.00408325, 0.000520498, 0.000523617, 0.000906502, 0.000447985, 0.000823482, 0.000475126, 0.00650701, 0.000277971, 0.00022709, 0.000344233, 0.000346535, 0.000929856, 0.00103169, 0.00108047, 0.000260565, 0.000392033, 0.000459371, -0.000415434, 0.000551917, 0.00142642, 0.000490234, 0.000324692, -0.000399927, 0.000779029, 0.000883095, -0.00046158, 0.000143633, -0.000145945, 0.000204789, 0.000511176, 0.000196878, 0.00110487, -0.000231328, 0.000635738, 0.000829079, 0.000214238, -0.00107772, 0.000188135, 0.000248114, 0.000283294, 0.000218659, 0.00138128, -0.000461257, 0.000226124, 0.00035788, 0.00315937, 0.000458444, 0.00353372, 0.000125949, -3.04903e-06, 0.000871886, 0.00158658, 0.00067292, 2.82981e-05, 0.000630477, 0.000755744, -0.000395239, 0.000501683, 0.000397905, 0.000423198, 0.000227864, 0.000280667, 0.00061507, 0.000157777, 0.00152146, 0.000271228, 0.000607097, 0.000221457, 0.00073623, 0.000314633, 0.000888534, 4.56005e-05, 0.0056512, 0.000339795, 0.000671897, 0.00213565, -0.000546261, 0.000636577, 0.000525789, -0.00235333, 0.000316133, 0.00268393, -8.27972e-05, 0.000483112, 0.000173935, 0.000318915, -0.00045791, 0.000476419, 0.000273886, 0.000348457, 0.000486928, 0.000733071, 0.000179349, 0.000215842, 1.95253e-07, -8.89274e-05, -0.000751603, 0.000520316, 0.000412504, 0.0011296, 0.000625366, 0.000269204, 0.000314756, 0.00109866, 5.21509e-05, 0.000218306, 0.00168516, 0.000598037, 9.55209e-05, -0.00010791, -0.000130721, 0.000486848, 0.000292735, 0.000770425, 0.00170793, 0.000133908, 0.000107681, -0.000134154, 0.000613772, -0.000395595, 0.00080402, -0.000960201, 0.000600236, 0.000919118, 0.000501336, 0.000302444, 1.63505e-06, 0.000558372, 0.000427512, -0.000441338, 0.000683307, 0.000351299, 0.000697733, 6.3255e-05, 0.00369462, 0.000253876, 0.000159437, 0.000377305, 0.000286025, 0.000554169, 0.000935283, 0.0010642, 0.000551593, 0.000515044, 0.000275258, -0.000912978, 0.000434699, 0.000793459, 0.000435916, -0.000165158, 0.000372945, 0.000517279, 0.00063696, 9.64597e-05, 0.000493398, 2.1348e-05, 0.000270837, 0.000184189, 0.000182162, 0.000919725, -0.000244279, 0.000633881, 0.00112947, 0.000205694, 0.000613808, 0.000207095, 0.000602238, 0.00026012, 0.000196556, 0.000914857, -0.000347872, 0.000251796, 0.000512563, 0.00356999, -0.00684136, 0.00289018, 6.78797e-05, -1.50055e-06, 0.000772272, 0.00105126, 0.000681948, 5.94191e-06, 0.000283601, 0.000764191, -1.56241e-05, 0.000444877, 0.000333293, 0.000275012, -0.00413903, 0.000544116, 0.000472002, 5.04776e-05, 0.000833019, 0.000536061, 6.93517e-05, 0.000213622, 0.000626081, -0.000463992, 0.000740047, 2.04112e-05, 0.00344831, 0.000218317, 0.000637652, 0.00116984, 0.000526815, 0.000736037, -4.92507e-05, -4.35406e-05, 0.000237366, 0.00226433, -2.12215e-05, -0.00522187, 0.000183804, 0.000186573, 0.00018189, 3.28844e-05, 0.000614695, 0.000305348, 0.000543499, 0.000642678, -0.000199278, 4.92447e-05, 0.000563937, -0.00011471, -5.52757e-05, 0.000165073, 0.000318577, 0.000877739, 7.53874e-05, 0.000326825, -0.00292441, 0.00105494, -0.00141652, 0.00033422, 0.000745298, 0.000466468, 7.32106e-05, -0.000158203, -0.000212621, -0.000442545, 0.000401441, 0.000513729, -0.00288639, 0.000486292, 0.000317488, -0.00013117, 3.89559e-05, 0.000412552, 0.00114022, 0.000442098, -0.00018161, 0.000832285, 0.000347602, 0.000130789, 1.38922e-05, 0.000530978, 0.00095696, -0.000324818, 0.000663997, 0.000418866, 0.000828277, 0.000134965, 0.00460274, 0.000575262, 0.00048662, 0.000312171, 0.000277307, 0.000716758, 0.00144052, 0.00108354, 0.00034231, 0.00102057, 0.000142803, -0.000287292, 0.000756136, 0.000901315, 0.000534335, 0.000318319, -1.35472e-05, 0.000820516, 0.00112965, 9.76229e-05, 0.000563423, 0.000269573, 0.000175294, 0.000227991, -0.000939931, 0.0014831, -0.00182424, 0.000902419, 0.00159577, 0.000416525, 0.000213033, 0.000362641, 0.00087416, 0.000544778, 0.000765332, 0.00186752, 3.32955e-05, 0.000373072, 0.000584023, 0.0049363, 0.000412872, 0.00338456, 0.000518681, 7.01651e-07, 0.00131558, 0.00342702, 0.000856212, 7.81486e-05, 0.00093806, 0.00118399, 0.00059002, 0.000570292, 0.000774852, 0.000339763, 0.000596006, -0.000101984, 0.000630713, 0.000223565, 0.00133708, 0.000449181, 6.54114e-05, 3.81132e-05, 0.00417344, -0.00026988, 0.00087298, 0.000198194, 0.00874675, 0.000111094, 0.000758773, 0.00201502, 0.000225901, 0.000901375, 0.00026869, 0.00117179, 0.000515495, 0.00367696, 0.000103016, 0.000727565, 0.000202134, -0.000174201, -0.00608421, 3.17545e-05, 0.000396236, 0.000558885, 0.000154296, 0.00075251, -0.00038854, -0.000283583, 0.000980644, -5.27395e-05, 0.00117253, 0.000834079, 0.000307309, 0.00145985, 0.000529031, 0.000311847, 0.000445974, 0.0020431, 3.77539e-05, 0.000371136, 0.00172332, 0.000677471, 9.33715e-05, -0.0182594, 9.37557e-05, 0.000122771, 0.00111325, 0.002225, 0.000915977, 0.000793265, 0.000621704, 0.000345086, 3.61534e-05, -0.000190981, 0.00122111, 0.000562817, 0.000239155, 0.000785005, 2.92724e-06, 0.00016502, -0.00201092, 0.000284808, 0.00074785, 0.000492299, 0.000594055, 0.000352529, 0.00085705, -7.85484e-06, 0.000286192, 0.000309288, 0.000353682, 0.000283668, 0.000337873, 0.000467139, 0.000164438, 0.00073456, 0.000460506, 0.000518683, 1.95836e-05, 0.000432663, 0.00054268, 4.9147e-05, 0.000560423, -0.0002033, -9.43333e-06, 0.000753014, 0.00120473, 0.000370401, 0.000412158, 0.000323135, 9.00921e-05, -0.000860472, 0.000355713, 0.00172228, 5.77046e-05, 0.00032921, 0.00150569, 0.000317925, 0.00019091, 0.000508804, 0.000682857, 0.000159361, 0.000822061, 0.00181225, -0.000124904, 0.000249492, 0.000510676, 0.0044067, 0.000601952, 0.00254892, 0.000174041, 0.000542863, 0.00102972, 0.00335724, 0.000743005, 0.000591701, 0.000701275, 0.000885921, 0.000579764, 0.000338842, 0.00076375, 0.000118693, -0.00409641, 0.000569145, -0.00325799, 2.47931e-05, 0.000315591, 0.00034821, 0.000447631, -1.69517e-05, 0.00321134, 0.000490352, 0.000305905, 0.000250781, 0.00739053, -0.000444683, 0.000494647, 0.00196067, -7.50769e-05, 0.000768895, -0.000326235, 0.00112507, 0.000609324, 0.00330016, -0.000196126, -0.00672738, 0.000155152, -6.16269e-05, -0.00144825, 0.000470334, 0.000472671, 0.000586208, 0.000294004, -0.000125134, 0.000323258, 0.000156539, 0.000822049, -0.00138556, 0.00103855, 0.000704087, 0.000503176, 0.00139319, 0.0004695, 0.000251335, -0.0131185, 0.00200189, 5.42528e-07, 0.00034316, 0.00106967, 0.00045709, -0.00039246, 0.0004836, -0.000352889, -3.90759e-06, 0.000892044, 0.00164571, 0.00156099, 0.000705124, -0.00554778, -0.00164525, 0.000474507, 0.000159629, 0.00159518, -0.00640094, -6.37317e-05, 0.000851818, 2.69487e-06, 0.000442578, 0.000873812, 0.00032934, -0.00280187, -0.00019638, -0.0238022, 0.000485851, 0.000802991, 6.79932e-05, 0.0125111, 0.00059892, 0.00043814, 0.000268772, 0.000509879, 0.00043628, 0.00036077, -0.00350085, 0.000290457, 0.000561415, -0.0242473, 0.000254174, 0.00066447, 0.00019508, 0.000518906, -0.000343847, 0.000101519, 0.00148214, 0.00139585, 0.000104508, 0.00050312, 0.000461883, 0.000215199, 0.000263468, -0.0040487, 0.0017812, 0.000248607, 0.000962722, 0.00192091, 0.000497051, -0.00129646, 0.000869691, 0.000441466, 0.000113285, 0.00109002, 0.00228316, 0.00215868, -0.00593589, 0.000783515, 0.00528216, 5.07758e-05, 0.00340441, 0.000239054, 0.000552945, 0.00135735, 0.00463065, 0.00132723, -0.000176517, 0.00153116, 0.00106521, 4.027e-05, 0.000416617, 0.000783221, 0.000439179, 0.000256639, -0.000462783, 0.000554937, 0.000299783, 0.000218651, 0.000641109, 0.000824436, 0.000384901, 0.0055591, 0.00133982, 0.000562825, 0.000507905, 0.00855499, 0.000213852, 0.000639589, 0.00195192, 0.000281566, 0.00130288, 0.000472216, 0.00130057, 0.000622798, 0.00410103, 0.000132909, 0.000160434, 0.000283269, 0.000484367, 0.000475793, 0.000409843, 0.000484664, 0.000824607, 0.000582973, 0.000250398, -3.22943e-05, 0.000313448, 0.00122487, -2.4424e-06, 0.00137548, 0.000865253, 0.000448073, 0.002221, -0.000434635, 0.00120488, 0.0001055, 0.00310527, 0.000143047, 0.00048878, 0.00163678, 0.000535807, 0.000254455, 1.85588e-05, 0.00250272, 5.4371e-05, 0.0011529, 0.00256824, 0.00206306, 0.00109312, -0.000561188, 0.00041093, 0.000141235, 0.000606494, 2.71879e-05, 4.07327e-05, -4.15575e-05, 0.000923782, -2.24475e-06, 0.000309696, 0.00099235, 0.000325348, 0.00109314, -3.84112e-05, -0.000300075, 0.000418495, 0.000574095, 0.000443869, 0.0114054, -0.000338102, 0.000402427, -0.000222319, 0.00061391, -2.46544e-05, 0.000421212, 0.000555779, 0.000297887, 0.000324143, 0.000215395, -0.000153123, 0.000393254, -0.0010718, -0.000250496, -0.000141977, 1.42322e-05, 0.00144232, 0.00099644, 0.000585481, 0.000490343, 0.000337074, 0.000193442, 0.000267844, -5.14184e-05, 0.00119905, 0.000424779, 0.000988936, 0.00145348, 0.000180095, 0.000383217, 0.000334331, 0.000665235, -0.00316116, 0.000915958, 0.000521128, 0.00209246, 0.000198674, 0.000253803, 0.00303137, 2.11062e-05, 0.00248984, -6.95568e-06, -0.00275365, 0.00100498, 0.00438916, 0.00107651, 7.06566e-05, 0.00152888, 0.000947756, 0.000147316, 0.000247711, 0.000869079, 0.000516233, 0.000512267, 0.00036392, -2.1745e-05, -0.000858217, 0.00050647, 0.000438619, 0.000867165, -0.00180749, 0.00409942, 0.000998332, 0.000616466, 0.000163326, 0.00578662, -0.000245066, 0.000546937, -0.000708234, 0.000323396, 0.000731544, 0.000410275, 0.00144695, 0.000449537, 0.000192517, 0.000279127, 0.000942821, 0.000613727, 0.000401477, -0.00253421, 0.000132104, 0.000354183, 0.000686713, 0.000609762, 6.9348e-05, -0.000990731, 0.000360426, 0.0017719, 0.000483433, 0.00108533, 0.000624288, -0.00225, 0.00193084, 0.000110059, 0.0010667, -0.000489435, 0.00222935, 5.43987e-05, 0.000306311, 0.000883562, 0.000496376, 3.12374e-07, 0.000243694, 0.00221058, 0.000123851, 0.000630054, 0.00252227, 0.000429533, 0.000924739, 0.000458183, 0.000517192, 8.14187e-05, 0.000229778, 0.000165894, 0.000316643, -1.64023e-05, 0.00084304, -0.000814519, 0.000320145, 0.00124845, 0.000352883, 0.00151476, -0.000211693, 0.000536044, 0.00105094, 0.000642638, -0.000135291, 0.011626, 0.000656142, 0.000323554, 0.000316766, 0.00054716, 1.98427e-05, 0.000463373, 0.000488866, 0.000585579, 0.000697167, 0.00116987, 0.000191524, 0.000214634, 0.00210714, -7.23944e-05, 0.000431098, 4.3118e-06, 0.00159678, 0.00112473, 0.000143944, 0.000531451, 0.000427161, 0.000584725, 0.000543896, 0.000639583, 0.00173642, 0.000342138, 0.000740503, 0.00191944, 0.000569702, -0.01649, 0.00100533, 0.000721628, 0.000601043, 0.00135475, 0.00224119, 0.00273301, 0.00024236, 0.000478182, 0.00563869, 0.00085807, 0.00163075, 3.69227e-05, 0.000556342, 0.00123877, 0.00513968, 0.00128018, 0.000579618, 0.00167571, 0.000874347, 0.000365523, 0.000297053, 0.000661289, -0.0117135, 0.00112699, 0.000109098, 0.000546169, 0.00046526, -0.000115497, 0.000553341, 0.000853145, 2.82885e-05, 0.00645865, 0.00146996, 0.000622174, 0.000596273, 0.00651913, 3.17994e-06, -0.0196629, 0.00276239, 0.00028209, 0.00131972, 0.0004482, 0.00196937, 0.000789169, 0.000447849, -0.000337886, 0.00138697, 0.00045861, -6.43132e-06, 0.000284819, 0.000254314, 0.000493934, 0.000842809, 0.000590165, 0.000586052, -0.00137369, 0.00063084, 0.00203206, 0.000179444, 0.00111285, 0.000677574, 6.50496e-05, 0.00214242, 0.000170726, 0.000949272, 0.00208847, 0.00185194, 0.000536403, 0.000511231, 0.000799764, 0.000654176, 0.000381917, 0.000557727, 0.00354549, 7.29932e-05, 0.000624244, 0.00337829, 0.00255718, 0.00109961, 0.000515811, 0.00058575, 0.000456428, 0.000338545, 5.37124e-05, 0.000332767, 0.000457049, 0.000336836, 0.000606314, 0.00027182, -4.55799e-05, 0.00045477, 0.00156763, -9.99065e-05, 0.000202293, 0.00114922, 0.000177957, 3.91011e-05, -5.79303e-05, -0.0075002, 0.000906596, 0.000172453, 0.000303171, 2.69162e-05, -0.00204356, -0.000200574, -0.000806663, 0.0006092, 0.000776387, 0.000152995, 0.000102128, 0.00193537, -0.00018151, -0.000363898, 0.000309265, 0.00136683, 0.000909507, 0.000111391, 0.000252476, 0.000317059, 0.000344438, 0.00043892, 0.000149467, 0.00107891, 0.000186527, -0.000269332, 0.00121079, 0.000617105, 0.000399367, 0.000587772, -0.0146425, 0.000574975, 0.00079172, 0.00152692, 0.000103357, 0.000314754, 0.000312497, 0.00457747, 0.000847014, -0.0337877, 3.15662e-05, 0.000217608, 0.000961328, 0.00355828, 0.000901875, 0.000262357, 0.00142984, 0.000826012, 0.000282195, 0.000106722, 0.000744836, 0.000352046, 0.00069777, 0.000427062, 0.000427101, 0.000301394, 0.000493127, 0.000555572, 0.000281777, -0.00258443, 0.00453779, 0.00129366, 0.000414734, 0.000530525, 0.00614373, 0.000429092, 0.000888481, 0.00219105, 0.000199105, -0.00541469, -0.000144151, 0.0016478, -0.000550065, 0.00041427, -0.00025372, 0.00141437, 0.000534241, 0.00011501, 0.000264499, 0.0003326, 9.77135e-05, 0.000636512, 0.000364884, 0.00057148, 0.000135791, -0.00499031, 0.00185129, 0.000133558, -0.00126039, 0.000701357, 1.65965e-05, 0.00153124, 0.000548878, 0.000521211, 0.00193492, -0.00558881, 0.000443519, 9.36311e-05, -0.000384451, 0.00064281, 0.0005235, 3.10043e-05, 0.00330842, 0.000530879, 5.7499e-05, 0.00226928, 0.00206351, 0.000842754, 0.000353526, 0.000613537, 9.27604e-05, 9.16645e-05, 5.21171e-05, 0.000274741, 4.00638e-05, 0.000242686, 0.000503261, 0.000422553, 0.0010949, 0.000625575, -0.000947646, 6.65035e-05, 0.000552465, 0.00129188, 0.000295445, 7.51025e-06, 0.00782766, 0.0006702, 0.000979845, -0.000292493, 0.000393824, 0.000435218, 0.00219571, -0.0542872, 3.61831e-05, 0.000767765, 0.0014182, 8.34193e-05, -0.0346653, 0.00252932, -0.144111, -7.16695e-05, -0.0286845, 0.00138586, 0.00118068, 0.000179538, 0.000264358, 0.00052198, 0.000599374, 0.00054652, 0.000289647, 0.001236, 0.0001858, 4.82895e-05, 0.00180638, 0.000278149, -0.000132644, 0.000796333, 7.38691e-05, 0.000620559, 0.000317818, 0.00192261, -0.010075, 0.000136731, 0.000442068, 0.00447067, 0.00024269, 0.00174049, 0.000247369, 0.000221623, 0.00114427, 0.00333299, 0.00131991, 0.000489378, 0.00200446, 0.000929057, 0.00024658, 0.000181011, 0.00112591, -0.0392171, 0.000381452, 1.33026e-05, 0.000490764, 0.000241678, 0.00101386, 0.000428172, 0.000567821, 0.000163506, 0.0051647, 0.00116119, 0.000223001, 0.000515384, 0.00500463, 0.000528824, 0.00207475, 0.00230943, 0.000384956, 0.00110158, 0.000115221, 0.00188972, 0.000685728, 0.000414675, 0.000511825, 0.00114899, 0.000101811, 0.000138436, 0.000378239, 0.000409081, 0.000100241, 0.000831151, 0.000367017, 0.000512212, 0.000132548, 0.000437471, 0.00252701, 0.000409121, 0.000813715, 0.000691983, 3.43701e-05, 0.00123219, 0.000248432, 0.000229538, 0.00175032, 0.00173337, 0.000129782, 0.00037466, -0.0343774, 0.000716062, 0.000341178, -0.0200954, 0.00296338, 0.000183896, -2.47097e-05, 0.0029727, 0.00221704, 0.000916425, 0.000797076, 0.000603151, 9.08042e-05, 0.000353982, 0.000352051, 0.000122015, -0.000299849, 0.000467123, -0.0245665, 9.09912e-07, 0.00101178, 1.05045e-05, -0.00630837, 0.000583789, -0.00692663, 0.00111763, 0.000307597, 6.77113e-07, 0.00765277, -0.0123277, -0.000211781, 0.000172872, -0.00329777, -0.0103421, 0.00176773, 0.000194579, 0.000126738, 0.000570279, -0.00133041, -6.08239e-07, 0.000225715, 0.00241658, -0.000164798, 0.000129828, -0.000228763, 0.00112507, 0.000570808, 0.000349342, 0.000198625, 0.000623524, 0.0004847, 0.000607283, 0.000193018, -0.0112027, 0.000153895, -0.000139772, 0.000941086, 5.91469e-06, -0.00354927, 0.000480905, 0.000218011, 9.27217e-05, 0.000391656, 0.00145062, 5.42051e-05, 0.000196408, 0.00030942, 0.00289464, -0.00621092, 0.00141785, 0.000228195, 3.62505e-05, 0.000860772, 0.00280383, 0.000874855, 0.000373324, 0.00125668, -0.00776781, 0.000193099, -0.000352579, 0.000929117, 0.000419567, 0.000613031, 0.0002471, -0.00335333, -0.00197265, 0.000841765, 0.000286599, 0.000377758, 0.000145971, 0.000630143, 0.00128401, 0.000233493, 0.000397022, -0.00480137, 0.000182546, 0.00221433, 0.0013795, 0.000557102, 0.000914664, 0.000211626, 0.00164206, 0.000677417, 0.000478012, 0.000343244, 0.000807375, -0.000385913, -9.69029e-05, -2.46472e-05, 0.000306891, 0.000331833, 0.000591314, 0.000479392, 0.000275664, 6.53124e-05, -0.0102817, 0.00195451, 0.000539278, 0.000860143, 0.000243311, 5.22829e-05, 0.00139899, 0.00026449, 0.000619724, -0.00265469, 0.00138347, 0.000126728, 1.71334e-05, 0.000280351, 0.000564511, 0.000282715, 0.000373268, 0.00238118, -0.000255859, -0.000140869, 0.00197631, 0.00247212, 0.000435582, 0.000726261, 0.000612728, -0.000498903, 0.000513581, -6.52749e-06, -7.24273e-05, -0.0003918, 0.000184003, -3.30157e-06, 0.000325993, 0.000956479, -0.0145274, 0.00221094, 0.000334332, 0.000416571, 0.00108197, 0.000718619, 0.000275057, 0.0081418, 0.00126898, 0.000790122, 0.000426684, 0.000678918, 0.000593073, 0.0058475, 0.000184025, 0.000188949, 0.000907782, 0.000498894, 0.000458606, 0.000535005, 0.00281779, -0.134359, 0.000399913, 0.000541298, 0.0011372, -0.00774972, 0.000145212, 0.000131842, 0.000621956, 0.000606601, 0.000579181, -0.000539194, 0.00159787, 0.000250593, 0.000523032, 0.00123243, 0.000245887, 1.09179e-06, -0.00201262, 0.000655385, 8.903e-05, 0.000691531, 0.00156642, 3.17404e-06, 0.000443733, 0.000574876, 0.00589071, 0.000177984, 0.00241766, 0.00022655, 0.000373531, 0.00125906, 0.00338599, 0.000922094, 0.000223249, 0.00167275, 0.00017629, -0.00178279, 0.00061107, 0.00103713, 0.000920611, 0.00059448, -0.000652283, 0.000236913, 3.76413e-05, 0.000948409, 0.000499728, 0.000136722, -0.00315536, -0.012877, 0.00112491, 0.00139792, 0.00050308, 0.00622791, -0.00644897, 0.0039344, 0.00138708, 0.000474452, 0.00125626, 0.000173062, 0.00164521, 0.000753118, 0.00332604, 0.000428978, 0.000776522, -0.00345961, -5.48168e-06, 0.000103789, 0.000224461, 0.000224353, 0.000706985, 0.00124684, 0.000251515, 0.000598039, -0.000147487, 0.00251661, 0.000566186, 0.000771656, 0.000272383, 0.000518113, 0.00148734, 0.000122153, 0.00074905, -0.000178077, 0.00106714, 0.000537302, 3.22093e-05, 5.04951e-05, 0.000540585, 0.000356503, 0.000430937, 0.00237994, 0.000252127, 0.000446984, 0.00138166, 0.00302377, 0.000609404, 0.000962913, 0.000803666, -0.000186332, -0.00215017, -8.00698e-05, 0.000627729, 0.000398986, 1.94246e-06, 0.000423131, 0.000246512, 0.000871332, -0.000123884, -0.00151633, 0.000211536, 0.000353491, 0.000247631, 0.000538229, 8.09871e-06, 0.00456089, -0.00451102, 0.00067635, 0.000123049, 0.00060046, 0.000241039, 0.00464814, 1.3166e-06, 0.000212824, 0.000958866, 0.000351026, -3.74233e-05, -0.0126118, 0.0019022, 0.000261994, 0.000308167, -0.0196908, 0.00101724, 0.000597642, 0.000447478, -8.50021e-05, 0.000480331, 0.000504707, 0.000446363, -9.75758e-06, 0.00126171, 0.000214206, 0.000385611, 0.000365387, 4.68007e-05, 2.8668e-06, 3.56857e-05, 0.000800632, -0.000186576, 0.000364593, 0.000925301, 0.000113083, 0.000613924, 0.000348504, 0.00495845, 0.000535046, 0.00200467, 0.000133799, 0.00027408, 0.00118058, 0.00209587, 0.000954638, -0.00038876, 0.00118562, -0.00613837, -0.0012642, 0.000179307, 0.000754816, 0.000749059, 9.25793e-06, -0.00017959, 0.000400751, 0.000372369, 0.000919067, 0.000297434, 0.000125714, -3.70586e-05, 0.00247858, 0.000874545, 0.00134923, 0.000564032, 0.00295111, -6.21014e-05, -0.00594191, 0.00122391, -2.28101e-05, 0.00148584, 0.000188598, 0.00119853, 0.000712432, 0.00262477, -0.000297285, -0.00168757, -9.97624e-05, 0.000635676, 0.000527258, 0.000501861, 4.5532e-05, 0.000417282, 0.00100515, 0.000584466, 0.00014404, 0.0005553, 0.00238787, 0.000656083, 0.000501982, 0.000211451, 0.000349628, 0.000963632, 0.000558998, 0.000704483, -4.09414e-05, 0.00149655, 0.000657207, 0.000275536, 0.000634213, 0.00029531, -0.000275985, -0.000104378, 0.00182767, 0.000383887, 0.000459798, 0.00127371, 0.00156637, 0.000422967, 0.000505531, 0.000639568, -0.000850447, 0.000128489, 0.00036233, 0.00059842, 0.000401681, 0.000512772, 0.000199828, 0.000294944, 0.000935805, -0.000133146, 0.00229347, 0.000141425, 0.000433501, 0.000489644, 0.000586346, 0.000439624, 0.00682246, 0.00115677, 0.00059972, 0.000211581, 0.000702075, 0.000166328, 0.00546393, 0.000502418, 0.000266587, -0.00529601, 0.000672325, -5.77094e-05, 1.49453e-05, 0.00256059, 0.000197937, 0.00108223, 0.000217436, 0.000981817, 0.000835192, 0.000646559, -7.17126e-05, -0.0094365, 0.000694098, 0.000589299, -0.000242095, 0.00155814, 0.000256273, 0.00038891, 0.00172439, 0.000527826, 0.00021348, 3.62834e-05, 0.000759322, 0.000595017, 0.000929858, 0.00114209, 0.000487716, 0.000856224, 0.000441369, 0.00417072, 0.000873073, 0.0027982, 0.000265369, 0.000293113, 0.00115379, 0.00230633, 0.000961752, 6.86054e-05, 0.00165594, 0.000618417, -0.000110919, 0.000167086, 0.00119161, -0.0236324, 0.000210498, -5.7742e-05, 0.000368547, -3.34763e-07, 0.00115051, 0.000652491, 0.00139411, 0.000458651, 0.00294384, 0.00112329, 0.00116731, 0.000546391, 0.00549488, 6.19233e-05, 0.00319669, 0.00100078, 8.57572e-05, 0.00131374, 0.000156666, 0.00119435, 0.000800762, 0.00297992, -0.00176407, 0.000844427, 0.000545312, -2.75153e-05, 0.000125205, -0.00390926, 0.000519003, 0.00043494, 0.00107841, 0.000846398, 0.000189388, 0.000606596, 0.00210046, 0.000732176, 0.000568071, 0.000228597, 0.000210717, 0.00121176, 0.000926762, 0.000899673, -0.0157964, 0.00166862, 0.000684036, 0.000158683, 0.000652404, 0.000474562, 0.000371094, -0.0178575, 0.00199429, 0.00029016, 0.000399331, 0.000986363, -0.00576511, 0.000506266, 0.000109978, 0.000745055, -0.00101863, 0.000390676, 0.000242717, -0.000414038, 0.000460272, 0.000285882, 3.64684e-05, -3.52728e-05, 0.000497863, -0.000179916, 0.00122606, -0.000134077, 0.000593182, 0.000407236, 0.000328659, 0.000398807, 0.00596412, 0.000818024, 0.00031934, 0.000263159, 0.000467556, -2.3431e-05, 0.00371105, 0.00054321, 0.000219734, 0.000593945, 0.000470186, -3.29155e-05, -1.04607e-05, 0.00199571, 0.000503365, 0.000962115, 0.00047875, 0.000501826, 0.000491275, 0.000423721, 0.000242825, 0.000210912, 0.000386817, 0.000531129, -0.000970139, 7.2921e-05, 0.00016593, -0.0144378, 0.00107302, 0.000198346, 0.00030899, 0.00062378, 0.000404432, 0.000650444, 0.000408669, 0.000639937, 0.000407897, 0.000588494, 0.000214878, 0.00289931, 0.000769386, 0.00255738, 0.000195899, 0.000269648, 0.000815988, 0.00190489, 0.000512347, 0.000282336, 0.00141045, 0.000484329, 0.000287724, 8.73215e-05, 0.000616491, 0.000365791, 0.000502997, 0.00060588, 0.000319595, 0.000185322, 0.000657926, 0.000598006, 0.00121556, 0.000480535, 0.00176746, 0.000485862, 0.000302877, 2.13036e-06, 0.00470936, 0.000395577, 0.00214924, 0.000595005, 0.000262636, 0.00036127, -5.67756e-05, 0.000952089, 0.000600436, 0.00129374, -0.000443056, -0.000159997, 0.000195886, 0.000523857, 0.000506823, -0.000545167, 0.000256727, 0.00024039, 0.000563493, 0.000918252, 0.000478415, -0.00273924, 0.000611454, 0.000472674, 0.000112509, 0.000151241, 0.000281833, 0.000647208, 0.000527228, 0.000843831, 3.29346e-05, 0.000367565, 0.000214346, 0.000625324, 0.000432026, 0.000324964, 0.000381897, 0.000306828, 0.0011753, -0.00026474, 6.7507e-05, 0.000892357, 0.00078769, 8.58695e-05, 0.000139382, 0.000439249, 9.47432e-05, 2.19086e-05, 0.000335469, 0.000146665, -0.000646273, 0.000377343, 0.000100611, 7.51674e-06, 0.00076048, -0.000805124, 0.00273606, -8.21209e-05, 0.000574231, 9.73793e-05, 0.000472664, 0.000420615, 0.00713394, 0.000862997, 0.000348274, 0.000172873, 0.000454043, -0.000502947, 0.00516669, 0.000558359, 0.000310449, 0.000693785, 0.00047767, -0.000415113, 0.000419867, 0.00285887, -0.0733095, 0.00117009, 0.00046236, 0.000657007, 0.000459638, 0.000483513, 0.000629171, 2.31853e-06, 0.000263487, 0.000356798, 0.000243392, 0.000347881, 0.000544355, 0.000308754, 0.00149206, 0.000275942, 0.000483501, -7.26485e-06, 0.000618076, 0.00058744, 0.000515449, 0.00096936, 0.000416006, 0.000700108, 0.000299305, 0.00468161, 0.000794826, 0.00344947, 0.000366503, 0.000198801, 0.00095314, 0.00201194, 0.000788872, 0.000133375, 0.00157514, 0.000617895, -0.000267036, 0.000149801, 0.00074941, 0.000659237, -0.00108898, 0.000199233, 0.00053727, -0.000143174, 0.000952328, 0.000539432, 0.00169049, -0.000284133, 0.00214838, 0.000548377, 0.000236365, 0.000339955, 0.0055382, 4.02849e-05, 0.00276591, 0.000627859, 0.00016932, 0.000435187, 0.000588985, 0.00120964, 0.000276118, 0.00345037, -0.000361321, 0.000585495, 0.000302136, 0.000541023, -0.000172022, -0.000465762, 0.00065947, 0.000245349, 0.000962171, 0.00103342, -0.000101037, 0.000494271, 0.000928161, 0.000679317, 0.000375465, 0.000202925, 0.00031952, 0.00102026, 0.000511278, 0.000659534, -0.000314449, 0.000557208, 0.000373585, 0.000162148, 0.000694781, 0.000513318, 0.000508878, 0.000273989, 0.00149059, -9.0544e-05, 4.8835e-05, 0.00116281, 0.000621066, -0.000559439, 0.000148813, 0.000569566, 0.000457771, -0.000240881, 0.00225817, 0.000507129, 0.000441168, 0.00272121, 0.00147966, -0.000205736, 0.000256125, -0.000478603, 0.000437166, -3.23023e-05, 0.00103094, 0.000685432, 0.00101928, -0.000140626, 0.0127998, 5.13732e-05, 0.000733424, 0.000370355, 0.000596463, 0.00185112, 0.00155387, 0.00164217, 0.000248643, 0.00076488, 0.00029692, 0.000259951, 0.000773239, 0.00145989, -0.0715725, 0.000261111, 0.000424482, 0.00227944, 0.00155896, 0.000438115, 0.00059267, 2.96268e-05, 0.000353105, 0.000485827, 0.000192373, 0.00111551, 0.000211145, 0.00140899, 0.00158267, -0.0202977, 2.2882e-06, 0.000512778, 0.00055383, 0.000249692, 0.00112238, 0.000900488, -0.0041321, 0.000995766, 0.000381236, 0.00357116, 0.000604018, 0.00371929, 0.000532086, 0.000675431, 0.0012316, 0.00268141, 0.0010305, 4.51846e-05, 0.000626331, 0.00146471, 0.000304322, 0.00054096, -0.00277995, 0.00229714, 0.000454562, -0.000127667, -0.00133361, 0.000508246, 0.00215395, 0.000309228, 0.000911128, -0.000185595, 0.00697636, 0.000434483, 0.000806726, 0.000437536, 0.0118344, -0.00283255, 0.000777025, 0.00320445, -0.00317024, 0.000977319, -0.000377426, 0.00105203, -0.00414571, 0.00503122, -0.00392573, 0.00074876, 0.000779969, -0.000358854, -0.000160425, 5.88172e-05, 0.000544253, 0.000407971, 0.000558493, 0.00106092, 0.000524792, -0.000489212, 0.000728972, 0.000549633, 7.16766e-05, 0.00143888, 0.00069909, 0.00140847, 0.000131437, 0.000359436, 0.00317721, 0.00195881, 0.000415861, 0.000604282, 0.00177847, 0.000608963, 0.000295699, 0.000630963, -0.000510116, 0.000477689, 0.00148059, 0.00066522, 0.00145784, 0.000149069, 0.000271371, 0.000100489, 0.000611136, 0.000619138, 0.00136029, -0.00345478, -0.000649721, 0.00192684, 0.00138667, 0.000406784, 6.47633e-06, -5.24819e-05, 0.000553796, 0.000457502, 0.000974908, 0.000640758, 0.00101693, -0.0095275, 0.00748429, -0.0262569, 0.000406428, 0.000309141, 0.000396777, 0.00131239, 0.00123421, 0.00135249, 0.000191635, 0.000692924, 0.000281908, 0.000304345, 0.000624015, 0.0014391, 0.000805587, 8.53898e-05, 0.0001485, 0.00182372, 0.00110413, 8.96929e-05, 9.4316e-05, -0.0267455, 0.000207928, 0.000571772, 0.00043717, 0.00123849, 0.000185155, 0.00165522, 0.00179873, 0.000506982, 2.69421e-06, -0.00194775, 0.000851209, 0.000189589, 0.00169054, 0.00188476, 0.000185486, 8.93933e-05, 0.000543895, 0.00270622, 0.000385345, 0.00249899, -0.00101448, 0.000621621, 0.00124579, 0.00177521, 0.000907261, 4.46033e-05, 0.000309052, 0.000979636, 0.000244225, 0.000449112, 0.000349728, 0.00178889, -4.03161e-05, -9.4792e-05, 0.000308008, -0.00194164, 0.00140578, 0.000261727, -0.0120619, 0.000217029, 0.00491442, 6.33731e-07, 0.00106544, 0.000464134, 0.00885425, 0.000208041, 0.000739839, 0.00225465, -0.000338779, 0.000742284, -0.000545565, 0.000752011, 0.000540928, 0.00342943, -2.0152e-05, 0.000780133, 0.000728869, 7.64622e-05, 0.000541959, 0.00014932, 1.43262e-05, 0.000503484, -0.00470081, 0.00101851, 0.000287574, 2.9795e-05, 0.000530473, 0.000463772, 0.000416431, 0.000656367, 0.000596589, 0.00139295, 2.00151e-05, 0.000330569, 0.00205687, 0.00173301, 0.000337742, 0.000453677, 0.00145507, 0.000617391, 0.000208518, 0.000128419, -0.000493893, 0.000559239, 0.00122063, 0.000880045, 0.00153906, 0.000158026, 0.000286489, 0.000399969, 4.04975e-05, -0.00087945, 0.00238599, 0.000109627, -0.000600736, 0.00216446, 0.00144217, 0.000232631, 0.000447219, 0.000609095, 0.000916876, -0.0128734, 0.00120098, 0.000490412, 0.00138843, 0.000134571, 0.00943743, 0.000687759, 0.000775918, -0.00392497, 0.000379255, 0.00123573, 0.00146018, 0.00141588, 0.000322059, 0.00107364, 0.000440723, 0.000350114, 0.00088315, 0.00181872, 0.000337706, -0.0243229, 0.00286061, 0.0028302, 0.00166926, 0.000144519, 0.00068907, 0.00105202, 0.000241511, 0.000290369, -0.00224409, 0.00226146, 0.000618364, 0.00164344, 0.00162369, 0.000868926, 0.000121098, 0.000568649, -0.000347419, 0.000324307, 0.00147575, 0.00267363, 0.000433045, 0.000835419, 0.000450118, 0.00461477, 0.000438992, 0.00395855, 0.00251757, 0.00103915, 0.00136695, 0.00393599, 0.00151556, 0.000124417, 0.00156677, 0.00139708, 0.000294401, 0.000741991, 0.00125158, 0.00280529, 0.000545153, -1.00069e-05, 0.000130247, 6.93973e-05, 0.00181858, 0.000827298, 0.000678559, 0.000321551, 0.00680637, -0.0213037, 0.000685967, 0.000769836, 0.0145894, -7.36805e-05, 0.0024868, 0.00297775, -4.6782e-06, 0.00121267, 0.000576251, 0.00119947, 0.000801253, 0.00583573, -0.00944308, 0.000698748, 0.000658453, 0.000307299, -0.000429082, 0.000477149, 0.000537872, 0.000724429, 0.000625894, 0.00101819, 5.51377e-05, -0.0377594, 0.0016541, 0.000688653, 0.00149752, 0.00134475, 0.000591277, 0.00122445, 0.000142271, 0.000354815, 0.00481638, 0.002335, 0.000562122, 0.000597152, 0.0022505, 0.000668408, 0.000251202, 0.000204048, -0.0468894, 2.04072e-07, 0.00233122, 0.00243141, 0.00216425, 0.00106669, 0.000437144, -0.0165539, 0.000304041, -0.000578328, 0.00167963, -2.94701e-06, 0.000609757, 0.00164277, 0.00130222, 0.00048537, -0.0175539, 0.000384496, 0.000770747, -0.000349678, 0.000157176, 0.000376501, 0.00118677, 0.000237521, -0.0717574, 0.000441143, -0.00482787, 0.000250048, -0.000772935, 0.000523015, 0.000273475, 0.00105828, 0.000442513, 0.000559404, 0.000159919, 0.000373452, 0.00063439, -0.0173497, -0.0808759, -0.000220636, 0.00217722, 0.00249653, 0.00140927, -0.0163055, 0.000544385, 0.00108273, -0.00593417, 0.000143105, 0.000435551, 0.001692, 0.000524073, -0.00163017, 0.0015253, 0.0010694, -0.000323732, 0.000622027, 0.00084593, 0.000503752, 0.000802369, 0.0022857, -0.017682, 0.000246556, 0.000488452, 0.00516422, 0.000178784, 0.00325658, 0.00104768, 0.000898674, 0.00114149, 0.00436039, 0.00107697, 5.64713e-05, 0.00112703, 0.000522343, -0.00181724, 0.000440587, 0.00137817, -0.00731547, 7.14828e-05, 0.000453731, 0.00015794, -0.0145834, 0.00116071, 0.000824524, -0.046694, -0.0055473, 0.00511562, -0.000210948, 0.00198379, 0.000714886, 0.0113706, -0.00869148, 0.00192111, 0.00255268, -2.30784e-05, 0.000523398, -0.00170605, 0.00149587, 0.00107171, 0.00468056, 0.000607684, 0.00073806, 0.000307719, 0.000574407, 0.000148304, 7.81157e-05, 0.000490206, 0.000700655, -0.0329615, 0.000288251, 0.000108928, -9.33772e-05, 0.00134456, 0.000396075, 0.00123286, 0.000762947, -0.0110079, 0.00196516, 0.000426733, -0.00720891, 0.00318024, 0.00321997, -0.00646982, 0.000427084, 0.00140354, 0.000591663, -0.0308721, 0.000229867, -0.000255739, -0.000435992, 0.00202581, 0.00255275, 0.0025481, 0.000907315, 0.000643089, 0.000619474, 0.000264823, 0.000497057, 0.00234143, -3.58057e-05, 0.000580485, 0.00103789, 0.00641598, 0.000461027, 0.00150776, -0.0321339, 0.000483393, 0.000494662, 0.000436844, -0.0110401, 0.000945295, -0.0147422, 0.0150372, 0.000522183, 0.00215767, 0.000322762, 0.000734917, 0.000547469, 0.000181625, 0.00103871, 0.000407323, 0.00101754, 0.00024661, -0.0107321, 0.000635129, 0.00135481, -6.47288e-05, -0.0619014, 0.00205302, 0.00234072, 0.00153538, -0.0137227, 0.000639323, 0.00292199, 0.000630374, 0.0001061, 0.000513059, 0.00229195, 0.000425794, 0.00161051, 0.00153755, 0.00108314, 0.000427643, 0.000780836, 0.000879759, 0.000237749, 0.000998867, 0.00286054, 0.00727035, -0.000782713, 0.000489144, 0.0069353, 8.61746e-06, 0.0035751, 0.00110273, 0.000938538, 0.00126432, 0.00562706, 0.00140547, 0.000575019, 0.00175405, 0.0039631, 0.000264889, 0.000577788, 0.00110888, 0.000974028, 0.000295204, -1.53572e-05, 0.000513807, 0.00024591, 0.000665177, 0.000571241, -0.00219114, 0.000326189, 0.00669368, 0.00120836, 0.00272174, 0.000999989, 0.0104922, 0.000273921, 0.00199617, 0.00275759, 1.32542e-05, 0.00108365, 0.000806825, 0.00139022, 0.00141415, 0.00553181, 0.000547215, 0.00138134, 0.000742442, -0.00152293, 0.000340021, -0.0315184, -0.00381636, 0.00123865, 0.000547449, -0.00596571, 0.00051937, -0.023823, 0.00288899, 0.00126384, 0.00166985, 0.00124687, 0.000132532, 0.00410067, -0.00687743, 0.00129535, 0.00465349, 0.00446064, 3.01893e-06, 0.000563986, 0.00180272, 0.000882113, 0.000529309, 0.000213201, 0.00269466, 7.94148e-05, 0.00254557, 0.00381368, 0.00185304, 0.00140643, 0.00105481, -0.00101564, 0.00050528, 8.66364e-05, 0.000111533, -8.90439e-05, -0.000141694, 0.00254092, 0.00397973, 0.000237687, 0.00162117, 0.000406637, 0.00174402, -0.00382939, -0.00182632, 0.000495519, 0.000789527, -0.000519559, 0.0148466, -0.0686418, 0.00176739, 0.000122738, 0.000681946, 0.000137535, -0.0318003, 0.000686284, 0.00023249, -0.00335456, 0.000224201, -0.000666122, 6.95287e-05, -0.0326453, -0.000335344, 8.56943e-05, 0.00285135, 0.0028639, 0.00117721, 0.000614552, 7.17042e-06, 0.00291154, 0.000529258, 0.000103014, 0.000821968, 0.00232339, 0.000335737, 0.00116649, 0.00165019, -0.00856179, -9.07424e-05, 0.00108484, -0.013524, 7.88211e-06, 0.000615663, 0.00208769, 0.00700625, 0.00132681, 0.000386092, 0.00506326, 0.000535637, 0.0026706, 0.00161612, 0.000621991, 0.0011401, 0.005174, 0.00122304, 0.000293927, 0.00198219, 0.00283617, 0.000426845, 0.000407508, 0.00115775, 0.000352554, 0.000284485, 3.71878e-05, -0.00258329, 0.000603374, -5.40237e-05, 0.000694319, 0.00102569, 0.000466139, 0.00586374, 0.00118177, 0.000355073, 0.00120178, 0.00805419, -0.000448296, -0.0418964, -0.0194351, 0.000527014, 0.000791775, 0.000784806, 0.00252879, 0.000837888, -0.00134715, -1.13001e-05, 0.00175225, 0.000477832, -0.000262622, 0.000272682, -0.000306, 0.000301804, 0.00154041, 0.000532152, 0.000617766, 0.000450977, -2.81856e-06, 0.00300511, 0.00101499, 0.0012069, 0.00105341, 8.76229e-05, 0.00293725, -0.000306765, 0.0010352, -0.0100149, 0.00365292, 0.000557827, 0.000475136, 0.000936051, 0.000542595, 0.000137412, 0.000192206, 0.00289083, 7.39979e-05, 0.00197534, 0.00375366, 0.00044825, 0.00166266, 0.00132495, 0.00057722, 0.000131939, -0.000484025, 0.000230215, -0.000164012, 0.000612516, 0.00359394, 0.00507506, 0.000447118, 0.00160311, 0.000688703, 0.00284428, 0.000242759, -0.0187645, 0.00106895, 0.000855631, -0.0103243, 0.0161662, 0.000873727, 0.00113964, -0.015219, 0.000699189, -0.0115686, 0.00845379, 0.000573951, 