{
  "_type": "DynamicMap",
  "_version": "2",
  "model": {
    "_type": "Model",
    "_version": "2",
    "nodes": [
    {
      "_type": "InputNode<float>",
      "_version": "2",
      "id":       "1006",
      "size": 3072,
      "shape": [32, 32, 3]
    }, 
    {
      "_type": "NeuralNetworkPredictorNode<float>",
      "_version": "0",
      "id":       "1007",
      "input": {
        "_type": "InputPort<float>",
        "_version": "0",
        "nodeId":         "1007",
        "name": "input",
        "type": 1,
        "input":         "1006.output[0:3072]"
      },
      "predictor": {
        "_type": "NeuralNetworkPredictor<float>",
        "_version": "1",
        "inputLayer": {
          "_type": "InputLayer<float>",
          "_version": "0",
          "inputPaddingScheme": 0,
          "inputPaddingSize": 0,
          "outputShape": [32, 32, 3],
          "outputPaddingScheme": 0,
          "outputPaddingSize": 0,
          "data_rows": 32,
          "data_columns": 32,
          "data_channels": 3,
          "data_values": [0, 0, 0, 0, 0, 0, 0, 0, 0, 0, 0, 0, 0, 0, 0, 0, 0, 0, 0, 0, 0, 0, 0, 0, 0, 0, 0, 0, 0, 0, 0, 0, 0, 0, 0, 0, 0, 0, 0, 0, 0, 0, 0, 0, 0, 0, 0, 0, 0, 0, 0, 0, 0, 0, 0, 0, 0, 0, 0, 0, 0, 0, 0, 0, 0, 0, 0, 0, 0, 0, 0, 0, 0, 0, 0, 0, 0, 0, 0, 0, 0, 0, 0, 0, 0, 0, 0, 0, 0, 0, 0, 0, 0, 0, 0, 0, 0, 0, 0, 0, 0, 0, 0, 0, 0, 0, 0, 0, 0, 0, 0, 0, 0, 0, 0, 0, 0, 0, 0, 0, 0, 0, 0, 0, 0, 0, 0, 0, 0, 0, 0, 0, 0, 0, 0, 0, 0, 0, 0, 0, 0, 0, 0, 0, 0, 0, 0, 0, 0, 0, 0, 0, 0, 0, 0, 0, 0, 0, 0, 0, 0, 0, 0, 0, 0, 0, 0, 0, 0, 0, 0, 0, 0, 0, 0, 0, 0, 0, 0, 0, 0, 0, 0, 0, 0, 0, 0, 0, 0, 0, 0, 0, 0, 0, 0, 0, 0, 0, 0, 0, 0, 0, 0, 0, 0, 0, 0, 0, 0, 0, 0, 0, 0, 0, 0, 0, 0, 0, 0, 0, 0, 0, 0, 0, 0, 0, 0, 0, 0, 0, 0, 0, 0, 0, 0, 0, 0, 0, 0, 0, 0, 0, 0, 0, 0, 0, 0, 0, 0, 0, 0, 0, 0, 0, 0, 0, 0, 0, 0, 0, 0, 0, 0, 0, 0, 0, 0, 0, 0, 0, 0, 0, 0, 0, 0, 0, 0, 0, 0, 0, 0, 0, 0, 0, 0, 0, 0, 0, 0, 0, 0, 0, 0, 0, 0, 0, 0, 0, 0, 0, 0, 0, 0, 0, 0, 0, 0, 0, 0, 0, 0, 0, 0, 0, 0, 0, 0, 0, 0, 0, 0, 0, 0, 0, 0, 0, 0, 0, 0, 0, 0, 0, 0, 0, 0, 0, 0, 0, 0, 0, 0, 0, 0, 0, 0, 0, 0, 0, 0, 0, 0, 0, 0, 0, 0, 0, 0, 0, 0, 0, 0, 0, 0, 0, 0, 0, 0, 0, 0, 0, 0, 0, 0, 0, 0, 0, 0, 0, 0, 0, 0, 0, 0, 0, 0, 0, 0, 0, 0, 0, 0, 0, 0, 0, 0, 0, 0, 0, 0, 0, 0, 0, 0, 0, 0, 0, 0, 0, 0, 0, 0, 0, 0, 0, 0, 0, 0, 0, 0, 0, 0, 0, 0, 0, 0, 0, 0, 0, 0, 0, 0, 0, 0, 0, 0, 0, 0, 0, 0, 0, 0, 0, 0, 0, 0, 0, 0, 0, 0, 0, 0, 0, 0, 0, 0, 0, 0, 0, 0, 0, 0, 0, 0, 0, 0, 0, 0, 0, 0, 0, 0, 0, 0, 0, 0, 0, 0, 0, 0, 0, 0, 0, 0, 0, 0, 0, 0, 0, 0, 0, 0, 0, 0, 0, 0, 0, 0, 0, 0, 0, 0, 0, 0, 0, 0, 0, 0, 0, 0, 0, 0, 0, 0, 0, 0, 0, 0, 0, 0, 0, 0, 0, 0, 0, 0, 0, 0, 0, 0, 0, 0, 0, 0, 0, 0, 0, 0, 0, 0, 0, 0, 0, 0, 0, 0, 0, 0, 0, 0, 0, 0, 0, 0, 0, 0, 0, 0, 0, 0, 0, 0, 0, 0, 0, 0, 0, 0, 0, 0, 0, 0, 0, 0, 0, 0, 0, 0, 0, 0, 0, 0, 0, 0, 0, 0, 0, 0, 0, 0, 0, 0, 0, 0, 0, 0, 0, 0, 0, 0, 0, 0, 0, 0, 0, 0, 0, 0, 0, 0, 0, 0, 0, 0, 0, 0, 0, 0, 0, 0, 0, 0, 0, 0, 0, 0, 0, 0, 0, 0, 0, 0, 0, 0, 0, 0, 0, 0, 0, 0, 0, 0, 0, 0, 0, 0, 0, 0, 0, 0, 0, 0, 0, 0, 0, 0, 0, 0, 0, 0, 0, 0, 0, 0, 0, 0, 0, 0, 0, 0, 0, 0, 0, 0, 0, 0, 0, 0, 0, 0, 0, 0, 0, 0, 0, 0, 0, 0, 0, 0, 0, 0, 0, 0, 0, 0, 0, 0, 0, 0, 0, 0, 0, 0, 0, 0, 0, 0, 0, 0, 0, 0, 0, 0, 0, 0, 0, 0, 0, 0, 0, 0, 0, 0, 0, 0, 0, 0, 0, 0, 0, 0, 0, 0, 0, 0, 0, 0, 0, 0, 0, 0, 0, 0, 0, 0, 0, 0, 0, 0, 0, 0, 0, 0, 0, 0, 0, 0, 0, 0, 0, 0, 0, 0, 0, 0, 0, 0, 0, 0, 0, 0, 0, 0, 0, 0, 0, 0, 0, 0, 0, 0, 0, 0, 0, 0, 0, 0, 0, 0, 0, 0, 0, 0, 0, 0, 0, 0, 0, 0, 0, 0, 0, 0, 0, 0, 0, 0, 0, 0, 0, 0, 0, 0, 0, 0, 0, 0, 0, 0, 0, 0, 0, 0, 0, 0, 0, 0, 0, 0, 0, 0, 0, 0, 0, 0, 0, 0, 0, 0, 0, 0, 0, 0, 0, 0, 0, 0, 0, 0, 0, 0, 0, 0, 0, 0, 0, 0, 0, 0, 0, 0, 0, 0, 0, 0, 0, 0, 0, 0, 0, 0, 0, 0, 0, 0, 0, 0, 0, 0, 0, 0, 0, 0, 0, 0, 0, 0, 0, 0, 0, 0, 0, 0, 0, 0, 0, 0, 0, 0, 0, 0, 0, 0, 0, 0, 0, 0, 0, 0, 0, 0, 0, 0, 0, 0, 0, 0, 0, 0, 0, 0, 0, 0, 0, 0, 0, 0, 0, 0, 0, 0, 0, 0, 0, 0, 0, 0, 0, 0, 0, 0, 0, 0, 0, 0, 0, 0, 0, 0, 0, 0, 0, 0, 0, 0, 0, 0, 0, 0, 0, 0, 0, 0, 0, 0, 0, 0, 0, 0, 0, 0, 0, 0, 0, 0, 0, 0, 0, 0, 0, 0, 0, 0, 0, 0, 0, 0, 0, 0, 0, 0, 0, 0, 0, 0, 0, 0, 0, 0, 0, 0, 0, 0, 0, 0, 0, 0, 0, 0, 0, 0, 0, 0, 0, 0, 0, 0, 0, 0, 0, 0, 0, 0, 0, 0, 0, 0, 0, 0, 0, 0, 0, 0, 0, 0, 0, 0, 0, 0, 0, 0, 0, 0, 0, 0, 0, 0, 0, 0, 0, 0, 0, 0, 0, 0, 0, 0, 0, 0, 0, 0, 0, 0, 0, 0, 0, 0, 0, 0, 0, 0, 0, 0, 0, 0, 0, 0, 0, 0, 0, 0, 0, 0, 0, 0, 0, 0, 0, 0, 0, 0, 0, 0, 0, 0, 0, 0, 0, 0, 0, 0, 0, 0, 0, 0, 0, 0, 0, 0, 0, 0, 0, 0, 0, 0, 0, 0, 0, 0, 0, 0, 0, 0, 0, 0, 0, 0, 0, 0, 0, 0, 0, 0, 0, 0, 0, 0, 0, 0, 0, 0, 0, 0, 0, 0, 0, 0, 0, 0, 0, 0, 0, 0, 0, 0, 0, 0, 0, 0, 0, 0, 0, 0, 0, 0, 0, 0, 0, 0, 0, 0, 0, 0, 0, 0, 0, 0, 0, 0, 0, 0, 0, 0, 0, 0, 0, 0, 0, 0, 0, 0, 0, 0, 0, 0, 0, 0, 0, 0, 0, 0, 0, 0, 0, 0, 0, 0, 0, 0, 0, 0, 0, 0, 0, 0, 0, 0, 0, 0, 0, 0, 0, 0, 0, 0, 0, 0, 0, 0, 0, 0, 0, 0, 0, 0, 0, 0, 0, 0, 0, 0, 0, 0, 0, 0, 0, 0, 0, 0, 0, 0, 0, 0, 0, 0, 0, 0, 0, 0, 0, 0, 0, 0, 0, 0, 0, 0, 0, 0, 0, 0, 0, 0, 0, 0, 0, 0, 0, 0, 0, 0, 0, 0, 0, 0, 0, 0, 0, 0, 0, 0, 0, 0, 0, 0, 0, 0, 0, 0, 0, 0, 0, 0, 0, 0, 0, 0, 0, 0, 0, 0, 0, 0, 0, 0, 0, 0, 0, 0, 0, 0, 0, 0, 0, 0, 0, 0, 0, 0, 0, 0, 0, 0, 0, 0, 0, 0, 0, 0, 0, 0, 0, 0, 0, 0, 0, 0, 0, 0, 0, 0, 0, 0, 0, 0, 0, 0, 0, 0, 0, 0, 0, 0, 0, 0, 0, 0, 0, 0, 0, 0, 0, 0, 0, 0, 0, 0, 0, 0, 0, 0, 0, 0, 0, 0, 0, 0, 0, 0, 0, 0, 0, 0, 0, 0, 0, 0, 0, 0, 0, 0, 0, 0, 0, 0, 0, 0, 0, 0, 0, 0, 0, 0, 0, 0, 0, 0, 0, 0, 0, 0, 0, 0, 0, 0, 0, 0, 0, 0, 0, 0, 0, 0, 0, 0, 0, 0, 0, 0, 0, 0, 0, 0, 0, 0, 0, 0, 0, 0, 0, 0, 0, 0, 0, 0, 0, 0, 0, 0, 0, 0, 0, 0, 0, 0, 0, 0, 0, 0, 0, 0, 0, 0, 0, 0, 0, 0, 0, 0, 0, 0, 0, 0, 0, 0, 0, 0, 0, 0, 0, 0, 0, 0, 0, 0, 0, 0, 0, 0, 0, 0, 0, 0, 0, 0, 0, 0, 0, 0, 0, 0, 0, 0, 0, 0, 0, 0, 0, 0, 0, 0, 0, 0, 0, 0, 0, 0, 0, 0, 0, 0, 0, 0, 0, 0, 0, 0, 0, 0, 0, 0, 0, 0, 0, 0, 0, 0, 0, 0, 0, 0, 0, 0, 0, 0, 0, 0, 0, 0, 0, 0, 0, 0, 0, 0, 0, 0, 0, 0, 0, 0, 0, 0, 0, 0, 0, 0, 0, 0, 0, 0, 0, 0, 0, 0, 0, 0, 0, 0, 0, 0, 0, 0, 0, 0, 0, 0, 0, 0, 0, 0, 0, 0, 0, 0, 0, 0, 0, 0, 0, 0, 0, 0, 0, 0, 0, 0, 0, 0, 0, 0, 0, 0, 0, 0, 0, 0, 0, 0, 0, 0, 0, 0, 0, 0, 0, 0, 0, 0, 0, 0, 0, 0, 0, 0, 0, 0, 0, 0, 0, 0, 0, 0, 0, 0, 0, 0, 0, 0, 0, 0, 0, 0, 0, 0, 0, 0, 0, 0, 0, 0, 0, 0, 0, 0, 0, 0, 0, 0, 0, 0, 0, 0, 0, 0, 0, 0, 0, 0, 0, 0, 0, 0, 0, 0, 0, 0, 0, 0, 0, 0, 0, 0, 0, 0, 0, 0, 0, 0, 0, 0, 0, 0, 0, 0, 0, 0, 0, 0, 0, 0, 0, 0, 0, 0, 0, 0, 0, 0, 0, 0, 0, 0, 0, 0, 0, 0, 0, 0, 0, 0, 0, 0, 0, 0, 0, 0, 0, 0, 0, 0, 0, 0, 0, 0, 0, 0, 0, 0, 0, 0, 0, 0, 0, 0, 0, 0, 0, 0, 0, 0, 0, 0, 0, 0, 0, 0, 0, 0, 0, 0, 0, 0, 0, 0, 0, 0, 0, 0, 0, 0, 0, 0, 0, 0, 0, 0, 0, 0, 0, 0, 0, 0, 0, 0, 0, 0, 0, 0, 0, 0, 0, 0, 0, 0, 0, 0, 0, 0, 0, 0, 0, 0, 0, 0, 0, 0, 0, 0, 0, 0, 0, 0, 0, 0, 0, 0, 0, 0, 0, 0, 0, 0, 0, 0, 0, 0, 0, 0, 0, 0, 0, 0, 0, 0, 0, 0, 0, 0, 0, 0, 0, 0, 0, 0, 0, 0, 0, 0, 0, 0, 0, 0, 0, 0, 0, 0, 0, 0, 0, 0, 0, 0, 0, 0, 0, 0, 0, 0, 0, 0, 0, 0, 0, 0, 0, 0, 0, 0, 0, 0, 0, 0, 0, 0, 0, 0, 0, 0, 0, 0, 0, 0, 0, 0, 0, 0, 0, 0, 0, 0, 0, 0, 0, 0, 0, 0, 0, 0, 0, 0, 0, 0, 0, 0, 0, 0, 0, 0, 0, 0, 0, 0, 0, 0, 0, 0, 0, 0, 0, 0, 0, 0, 0, 0, 0, 0, 0, 0, 0, 0, 0, 0, 0, 0, 0, 0, 0, 0, 0, 0, 0, 0, 0, 0, 0, 0, 0, 0, 0, 0, 0, 0, 0, 0, 0, 0, 0, 0, 0, 0, 0, 0, 0, 0, 0, 0, 0, 0, 0, 0, 0, 0, 0, 0, 0, 0, 0, 0, 0, 0, 0, 0, 0, 0, 0, 0, 0, 0, 0, 0, 0, 0, 0, 0, 0, 0, 0, 0, 0, 0, 0, 0, 0, 0, 0, 0, 0, 0, 0, 0, 0, 0, 0, 0, 0, 0, 0, 0, 0, 0, 0, 0, 0, 0, 0, 0, 0, 0, 0, 0, 0, 0, 0, 0, 0, 0, 0, 0, 0, 0, 0, 0, 0, 0, 0, 0, 0, 0, 0, 0, 0, 0, 0, 0, 0, 0, 0, 0, 0, 0, 0, 0, 0, 0, 0, 0, 0, 0, 0, 0, 0, 0, 0, 0, 0, 0, 0, 0, 0, 0, 0, 0, 0, 0, 0, 0, 0, 0, 0, 0, 0, 0, 0, 0, 0, 0, 0, 0, 0, 0, 0, 0, 0, 0, 0, 0, 0, 0, 0, 0, 0, 0, 0, 0, 0, 0, 0, 0, 0, 0, 0, 0, 0, 0, 0, 0, 0, 0, 0, 0, 0, 0, 0, 0, 0, 0, 0, 0, 0, 0, 0, 0, 0, 0, 0, 0, 0, 0, 0, 0, 0, 0, 0, 0, 0, 0, 0, 0, 0, 0, 0, 0, 0, 0, 0, 0, 0, 0, 0, 0, 0, 0, 0, 0, 0, 0, 0, 0, 0, 0, 0, 0, 0, 0, 0, 0, 0, 0, 0, 0, 0, 0, 0, 0, 0, 0, 0, 0, 0, 0, 0, 0, 0, 0, 0, 0, 0, 0, 0, 0, 0, 0, 0, 0, 0, 0, 0, 0, 0, 0, 0, 0, 0, 0, 0, 0, 0, 0, 0, 0, 0, 0, 0, 0, 0, 0, 0, 0, 0, 0, 0, 0, 0, 0, 0, 0, 0, 0, 0, 0, 0, 0, 0, 0, 0, 0, 0, 0, 0, 0, 0, 0, 0, 0, 0, 0, 0, 0, 0, 0, 0, 0, 0, 0, 0, 0, 0, 0, 0, 0, 0, 0, 0, 0, 0, 0, 0, 0, 0, 0, 0, 0, 0, 0, 0, 0, 0, 0, 0, 0, 0, 0, 0, 0, 0, 0, 0, 0, 0, 0, 0, 0, 0, 0, 0, 0, 0, 0, 0, 0, 0, 0, 0, 0, 0, 0, 0, 0, 0, 0, 0, 0, 0, 0, 0, 0, 0, 0, 0, 0, 0, 0, 0, 0, 0, 0, 0, 0, 0, 0, 0, 0, 0, 0, 0, 0, 0, 0, 0, 0, 0, 0, 0, 0, 0, 0, 0, 0, 0, 0, 0, 0, 0, 0, 0, 0, 0, 0, 0, 0, 0, 0, 0, 0, 0, 0, 0, 0, 0, 0, 0, 0, 0, 0, 0, 0, 0, 0, 0, 0, 0, 0, 0, 0, 0, 0, 0, 0, 0, 0, 0, 0, 0, 0, 0, 0, 0, 0, 0, 0, 0, 0, 0, 0, 0, 0, 0, 0, 0, 0, 0, 0, 0, 0, 0, 0, 0, 0, 0, 0, 0, 0, 0, 0, 0, 0, 0, 0, 0, 0, 0, 0, 0, 0, 0, 0, 0, 0, 0, 0, 0, 0, 0, 0, 0, 0, 0, 0, 0, 0, 0, 0, 0, 0, 0, 0, 0, 0, 0, 0, 0, 0, 0, 0, 0, 0, 0, 0, 0, 0, 0, 0, 0, 0, 0, 0, 0, 0, 0, 0, 0, 0, 0, 0, 0, 0, 0, 0, 0, 0, 0, 0, 0, 0, 0, 0, 0, 0, 0, 0, 0, 0, 0, 0, 0, 0, 0, 0, 0, 0, 0, 0, 0, 0, 0, 0, 0, 0, 0, 0, 0, 0, 0, 0, 0, 0, 0, 0, 0, 0, 0, 0, 0, 0, 0, 0, 0, 0, 0, 0, 0, 0, 0, 0, 0, 0, 0, 0, 0, 0, 0, 0, 0, 0, 0, 0, 0, 0, 0, 0, 0, 0, 0, 0, 0, 0, 0, 0, 0, 0, 0, 0, 0, 0, 0, 0, 0, 0, 0, 0, 0, 0, 0, 0, 0, 0, 0, 0, 0, 0, 0, 0, 0, 0, 0, 0, 0, 0, 0, 0, 0, 0, 0, 0, 0, 0, 0, 0, 0, 0, 0, 0, 0, 0, 0, 0, 0, 0, 0, 0, 0, 0, 0, 0, 0, 0, 0, 0, 0, 0, 0, 0, 0, 0, 0, 0, 0, 0, 0, 0, 0, 0, 0, 0, 0, 0, 0, 0, 0, 0, 0, 0, 0, 0, 0, 0, 0, 0, 0, 0, 0, 0, 0, 0, 0, 0, 0, 0, 0, 0, 0, 0, 0, 0, 0, 0, 0, 0, 0, 0, 0, 0, 0, 0, 0, 0, 0, 0, 0, 0, 0, 0, 0, 0, 0, 0, 0, 0, 0, 0, 0, 0, 0, 0, 0, 0, 0, 0, 0, 0, 0, 0, 0, 0, 0, 0, 0, 0, 0, 0, 0, 0, 0, 0, 0, 0, 0, 0, 0, 0, 0, 0, 0, 0, 0, 0, 0, 0, 0, 0, 0, 0, 0, 0, 0, 0, 0, 0, 0, 0, 0, 0, 0, 0, 0, 0, 0, 0, 0, 0, 0, 0, 0, 0, 0, 0, 0, 0, 0, 0, 0, 0, 0, 0, 0, 0, 0, 0, 0, 0, 0, 0, 0, 0, 0, 0, 0, 0, 0, 0, 0, 0, 0, 0, 0, 0, 0, 0, 0, 0, 0, 0, 0, 0, 0, 0, 0, 0, 0, 0, 0, 0, 0, 0, 0, 0, 0, 0, 0, 0, 0, 0, 0, 0, 0, 0, 0, 0, 0, 0, 0, 0, 0, 0, 0, 0, 0, 0, 0, 0, 0, 0, 0, 0, 0, 0, 0, 0, 0, 0, 0, 0, 0, 0, 0, 0, 0, 0, 0, 0, 0, 0, 0, 0, 0, 0, 0, 0, 0, 0, 0, 0, 0, 0, 0, 0, 0, 0, 0, 0, 0, 0, 0, 0, 0, 0, 0, 0, 0, 0, 0, 0, 0, 0, 0, 0, 0, 0, 0, 0, 0, 0, 0, 0, 0, 0, 0, 0, 0, 0, 0, 0, 0, 0, 0, 0, 0, 0, 0, 0, 0, 0, 0, 0, 0, 0, 0, 0, 0, 0, 0, 0, 0, 0, 0, 0, 0, 0, 0, 0, 0, 0, 0, 0, 0, 0, 0, 0, 0, 0, 0, 0, 0, 0, 0, 0, 0, 0, 0, 0, 0, 0, 0, 0, 0, 0, 0, 0, 0, 0, 0, 0, 0, 0, 0, 0, 0, 0, 0, 0, 0, 0, 0, 0, 0, 0, 0, 0, 0, 0, 0, 0, 0, 0, 0, 0, 0, 0, 0, 0, 0, 0, 0, 0, 0, 0, 0, 0, 0, 0, 0, 0, 0, 0, 0, 0, 0, 0, 0, 0, 0],
          "scale": 1
        },
        "layers": [
        {
          "_type": "ScalingLayer<float>",
          "_version": "0",
          "inputPaddingScheme": 0,
          "inputPaddingSize": 0,
          "outputShape": [34, 34, 3],
          "outputPaddingScheme": 0,
          "outputPaddingSize": 1,
          "scales": [0.00390625, 0.00390625, 0.00390625]
        }, 
        {
          "_type": "ConvolutionalLayer<float>",
          "_version": "0",
          "inputPaddingScheme": 0,
          "inputPaddingSize": 1,
          "outputShape": [32, 32, 32],
          "outputPaddingScheme": 0,
          "outputPaddingSize": 0,
          "receptiveField": 3,
          "stride": 1,
          "method": 0,
          "numFiltersAtATime": 32,
          "weights_rows": 96,
          "weights_columns": 3,
          "weights_channels": 3,
          "weights_values": [-0.192374, -0.131324, -0.254419, 0.270642, 0.266402, 0.349829, -0.135953, -0.127946, -0.0841017, 0.210581, 0.268173, 0.31871, -0.199404, -0.305608, -0.167517, -0.00938883, -0.0172056, -0.0870503, -0.0558177, -0.0717545, -0.0107698, -0.070931, -0.102375, -0.0992276, 0.170853, 0.203487, 0.0443699, 0.0505719, 0.0567076, 0.0577446, 0.0883707, 0.142415, 0.175576, 0.0669791, 0.128541, 0.150682, -0.0633817, -0.114579, -0.0438742, -0.201192, -0.319553, -0.25998, -0.102779, -0.190291, -0.125521, 0.0444855, 0.0630793, 0.00497447, 0.0750709, 0.138481, 0.0900615, 0.0325245, 0.0830218, 0.0518684, -0.0127811, -0.0129294, -0.0331317, 0.0460993, 0.0674319, 0.0952515, -0.0489032, -0.0625046, -0.0237015, -0.0738054, -0.0551577, -0.167908, -0.151797, -0.0970304, -0.158143, -0.0617988, -0.0268254, -0.0433435, 0.170546, 0.202226, 0.00797372, 0.115357, 0.199149, 0.0425076, -0.0149082, 0.0584927, 0.0115403, -0.00347016, 0.0199243, 0.043146, -0.0345931, 0.035479, 0.0283375, 0.0293238, -0.00231075, 0.0157516, 0.0385438, 0.00948901, 0.002466, -0.271981, -0.241064, -0.297833, 0.181934, 0.137153, 0.118257, 0.00557353, -0.0311875, 0.0182429, -0.0603019, -0.031152, -0.0238522, 0.0886058, 0.109747, 0.0992049, 0.170471, 0.0820943, -0.242697, 0.0156083, 0.04229, -0.0340726, -0.176, -0.0444653, 0.21401, 0.209241, 0.129372, -0.330665, -0.00659362, 0.012228, 0.0150076, -0.235429, -0.126932, 0.294704, 0.18272, 0.0857577, -0.243262, 0.00183297, -0.0403681, 0.0539386, -0.140854, -0.108008, 0.232856, -0.149105, -0.127165, -0.0695482, -0.0158467, -0.0616082, 0.178006, 0.0839531, 0.0587346, 0.136055, 0.144948, 0.193139, 0.0063782, -0.254528, -0.308792, -0.255913, 0.0516321, -0.0256395, 0.203376, 0.0572141, 0.16108, -0.0928844, 0.14999, 0.168573, -0.00528975, -0.0967999, -0.20363, -0.128456, -0.24792, -0.107149, 0.0297421, 0.0287337, 0.00636445, 0.01062, 0.186195, 0.148146, -0.0114898, -0.235543, -0.0944835, 0.0300939, 0.0320217, -0.0088466, 0.0149578, 0.191607, 0.10378, -0.0546409, -0.191681, -0.114771, 0.0116151, 0.0194073, -0.0634823, -0.0224422, 0.220446, 0.116456, -0.00404779, 0.108005, 0.128649, 0.161562, 0.00387109, -0.0225345, 0.0612881, -0.145354, -0.13832, -0.10488, 0.127161, 0.110206, 0.0879107, 0.0480614, 0.00623502, 0.0276877, -0.154835, -0.11807, -0.128348, 0.135803, 0.118722, 0.0738815, 0.0505698, -0.00764884, -0.0080462, -0.158702, -0.141731, -0.141219, 0.100696, 0.0617002, 0.0385754, 0.133426, 0.0343217, -0.0141871, 0.0696531, -0.0262078, -0.0650969, -0.134017, -0.0891347, -0.0491537, 0.128483, 0.084635, 0.0195857, 0.119205, 0.0543559, -0.0282285, -0.182452, -0.0565484, 0.0523965, -0.0684648, -0.044663, -0.0316792, 0.0489346, 0.0200458, -0.0378816, 0.0699388, -0.197362, 0.125934, 0.0341562, -0.294899, 0.263878, 0.039292, -0.0233461, -0.0409013, -0.0137258, -0.165697, 0.0971467, -0.049155, -0.283755, 0.209976, -0.00773217, 0.00931896, -0.0213665, 0.0621582, 0.130213, -0.132033, 0.0353306, 0.0805532, -0.0561235, 0.00189383, 0.180076, -0.140031, -0.0729255, 0.0215778, 0.0468011, -0.132203, -0.126507, -0.125613, 0.146755, 0.0677093, 0.00983849, 0.0589288, 0.166898, 0.17641, -0.12034, -0.00909682, 0.0103069, -0.154102, -0.118888, -0.18542, -0.0580753, -0.00469359, -0.0573322, 0.0964068, 0.20428, 0.225715, -0.132937, 0.00285684, -0.045886, 0.0283984, 0.0333384, 0.00449583, 0.0305986, -0.0610636, -0.0802958, 0.0312851, -0.0235635, 0.0456257, 0.0780702, 0.105078, 0.0368996, 0.174334, 0.126305, 0.0829861, -0.1964, -0.244795, -0.175304, -0.0764626, -0.00727438, -0.0738452, 0.0649473, 0.102861, 0.137471, -0.0639241, -0.117138, 0.0352132, 0.095556, 0.0297912, -0.109384, 0.12277, 0.0248083, -0.13107, 0.0172222, 0.0231612, -0.0318009, 0.125162, 0.0288228, -0.154504, 0.103712, -0.0224474, -0.22233, 0.0856304, 0.0739649, -0.0557583, 0.13328, -0.00736623, -0.124126, 0.125192, -0.0492861, -0.179431, 0.0969275, 0.0297766, -0.0758653, -0.255706, 0.0206891, 0.13697, -0.353532, -0.0484081, 0.14221, -0.120212, 0.00609559, 0.120029, -0.0843243, 0.02635, 0.100529, 0.153467, 0.163072, 0.123521, 0.268467, 0.0297126, -0.0913551, 0.126888, -0.0362575, -0.0648508, 0.171736, -0.0826296, -0.262556, 0.163218, -0.114561, -0.218651, -0.0103838, -0.0336781, -0.0205561, -0.0117897, 0.0407064, 0.146099, -0.016507, 0.075095, 0.131204, -0.0417707, 0.0253304, 0.139633, -0.00714383, 0.0890764, 0.175674, -0.161221, -0.111786, -0.139165, 0.012134, 0.0496119, 0.0916046, -0.0973329, -0.0675951, -0.133838, 0.0347382, -0.00473104, -0.207711, 0.0384418, 0.0952719, 0.0861561, 0.0863758, 0.170454, 0.149973, 0.0112219, 0.089237, 0.112862, -0.036575, -0.0464016, 0.00612969, 0.0145261, 0.00185727, 0.0209928, 0.0104782, 0.0023248, 0.0567112, -0.0627496, -0.127496, -0.0865016, -0.0817006, -0.164852, -0.150611, -0.0546458, -0.143789, -0.110906, -0.0511798, 0.0313689, 0.096082, -0.0869934, 0.107512, -0.0227721, -0.0571892, 0.162826, 0.0475608, 0.0281369, 0.111153, 0.0510814, -0.117572, -0.00456106, -0.260652, -0.0638612, 0.0168289, -0.220196, 0.0244977, 0.111451, 0.0387757, -0.0352877, 0.0128019, -0.179606, 0.119254, 0.0824312, -0.110337, -0.0970848, -0.00365737, -0.0620471, 0.0101328, 0.0747755, 0.214909, 0.0774938, -0.0748084, -0.0933156, -0.199134, -0.0739691, -0.144677, 0.200101, 0.238464, 0.325104, -0.027742, -0.173053, -0.279962, -0.120634, -0.0156256, 0.00435091, 0.155184, 0.104304, 0.227285, 0.0098716, -0.149652, -0.214183, 0.0472583, 0.0348005, -0.0275906, -0.103438, -0.126525, -0.183848, -0.0141951, -0.00927816, 0.00576399, -0.103974, -0.143337, -0.223254, 0.054054, 0.0165077, 0.0023764, 0.112881, 0.112694, 0.206216, 0.0306827, 0.0245573, 0.0421998, 0.0870328, 0.111907, 0.199973, -0.132853, -0.0711007, 0.0121391, 0.0690636, 0.0186159, -0.0518654, -0.0299769, -0.137083, -0.30655, 0.0843668, -0.0586082, -0.184985, 0.0266768, 0.037766, 0.0750178, 0.0143853, 0.0267297, -0.0349361, 0.0385716, -0.00320436, -0.0349431, -0.0664885, 0.0481822, 0.133253, -0.104965, 0.104514, 0.118527, -0.0473063, 0.131202, 0.172601, 0.124346, 0.16641, -0.243967, 0.198185, 0.137527, -0.356895, 0.0899496, 0.101996, -0.197783, 0.0156955, -0.0539192, -0.0116469, 0.0213907, -0.0413803, 0.0305143, 0.000477299, -0.0440114, 0.0713596, -0.118755, -0.10936, 0.256069, -0.225064, -0.113275, 0.304082, -0.130044, -0.0990604, 0.201288, -0.159105, -0.0914108, -0.140777, -0.0125968, 0.00529725, -0.0578063, 0.167905, 0.182297, 0.132983, -0.0325484, 0.0261347, -0.0449028, 0.0888591, 0.0869661, 0.0374839, -0.0188472, -0.0391975, -0.0333035, 0.148977, 0.174329, 0.106819, 0.0111804, 0.0343482, 0.000763163, -0.164292, -0.148073, -0.132262, -0.0221677, 0.0162711, -0.02394, -0.0586438, 0.021745, 0.0109532, -0.230559, 0.0348928, 0.0734865, 0.155512, -0.00166376, -0.0900242, 0.201652, 0.0211428, -0.0673651, 0.0434433, 0.0192002, -0.0281177, 0.161228, -0.0488451, -0.120078, 0.17359, -0.0315079, -0.0992114, 0.0544968, -0.040905, -0.0774877, 0.0324803, 0.0713736, 0.164566, -0.167156, -0.188489, -0.106, 0.169351, 0.0625835, -0.112866, 0.053943, 0.123178, 0.178127, -0.163388, -0.150012, -0.103052, 0.20809, 0.177121, -0.0380347, -0.0534363, 0.0525901, 0.143582, -0.172224, -0.107471, -0.0528758, 0.0855141, 0.0697382, -0.0939515, -0.033739, -0.0370205, 0.0281921, 0.0485694, -0.0240966, 0.00802776, 0.0072151, -0.0364054, 0.00869864, 0.0398093, -0.0232423, 0.0344613, 0.185842, 0.0799022, 0.0840937, 0.0884875, -0.0139121, 0.0207216, -0.0338059, -0.0375521, 0.0586226, 0.017907, 0.00381258, 0.0675695, -0.0317907, -0.0577942, 0.0359867, -0.00027251, 0.000751809, -0.00101834, 0.00107703, 0.000405633, -0.00132775, 0.000734118, -0.000902479, 0.000278521, 0.000431434, -0.000880847, -0.0014741, 0.00117753, 0.000333365, 0.000863299, 0.000597047, -0.000746335, 0.000803264, -0.00104097, 0.000751997, -0.000259508, -0.000475775, -0.000284855, 0.0001529, -0.00123695, 0.000635408, -0.00024558, 0.078397, 0.107818, 0.128422, 0.0832924, -0.0658838, 0.0674498, -0.085731, -0.184758, -0.0692697, 0.13006, -0.021598, 0.0703754, -0.224052, -0.356925, -0.279464, 0.100261, 0.150679, 0.139964, -0.0740459, -0.199735, -0.108796, 0.0559613, 0.0914446, 0.120486, 0.00368339, 0.16007, 0.0382836, -0.0601203, -0.0415819, -0.0506352, 0.0424075, -0.0325292, 0.0563047, -0.00759744, 0.00950847, 0.0366772, 0.0868835, 0.113346, 0.025809, -0.206715, -0.291429, -0.240631, 0.154166, 0.202124, 0.185241, 0.105884, 0.126578, 0.0539577, -0.19217, -0.241829, -0.201925, 0.113388, 0.141396, 0.144855, 0.128424, 0.0706639, 0.0773504, -0.173248, 0.00631994, 0.0906405, -0.268993, -0.00263019, -0.0322457, -0.00220373, -0.200715, -0.272636, 0.313133, 0.255589, 0.229574, -0.19124, 0.0659922, 0.0795112, 0.0450241, -0.0343414, -0.0709482, 0.0779705, -0.197894, -0.276092, 0.110371, 0.0882403, 0.0828206, -0.0605042, 0.112624, -0.0706118, -0.130428, 0.26181, -0.121972, -0.0445912, 0.0990579, -0.0640642, -0.146049, 0.241758, -0.113594, -0.261385, 0.42686, -0.162012, -0.108541, 0.19714, -0.101392, -0.0308131, 0.0657608, -0.040487, -0.129062, 0.188574, -0.0945351, -0.00333754, 0.0315048, -0.028981, 0.02928, -0.0666992, 0.2198, 0.0224744, -0.258026, -0.184342, 0.204836, 0.0603407, -0.134911, -0.0337585, -0.0504307, 0.193098, 0.156685, -0.051124, 0.271418, 0.0159587, -0.185959, -0.203341, -0.0826911, -0.0452108, -0.101465, -0.012091, -0.10692, 0.189393, 0.0960684, -0.0450771, 0.116896, -0.0225035, -0.0630277, 0.032193, 0.0189087, -0.0501008, 0.0818404, -0.0188797, -0.103607, -0.00656577, 0.0172091, 0.0131211, 0.0814532, 0.0646613, -0.0242182, 0.0249446, -0.0149768, -0.136914, -0.129156, -0.0135837, -0.0170587, 0.0476128, -0.00684818, -0.0824398, -0.0585402, -0.037549, -0.134656, -0.151081]
        }, 
        {
          "_type": "BiasLayer<float>",
          "_version": "0",
          "inputPaddingScheme": 0,
          "inputPaddingSize": 0,
          "outputShape": [32, 32, 32],
          "outputPaddingScheme": 0,
          "outputPaddingSize": 0,
          "bias": [-0.00257325, 0.0316096, 0.0190528, -0.11872, 0.00146091, -0.0113374, -0.00774967, -0.0072144, -0.101713, -0.053986, -0.00233014, -0.113413, 0.0878482, 0.00167276, -0.0818443, -0.00333013, -0.079271, 0.0194835, -0.0166074, -0.0635085, 4.42376e-05, 0.0460303, -0.0701453, 0.0361452, -0.00349376, -0.00318423, 0.00492363, 0.0144467, 0.0278025, 0.00781658, 0.0230699, -0.0997771]
        }, 
        {
          "_type": "ActivationLayer<float,ReLUActivation>",
          "_version": "0",
          "inputPaddingScheme": 0,
          "inputPaddingSize": 0,
          "outputShape": [32, 32, 32],
          "outputPaddingScheme": 4,
          "outputPaddingSize": 0
        }, 
        {
          "_type": "PoolingLayer<float,MaxPoolingFunction>",
          "_version": "0",
          "inputPaddingScheme": 4,
          "inputPaddingSize": 0,
          "outputShape": [15, 15, 32],
          "outputPaddingScheme": 0,
          "outputPaddingSize": 0,
          "poolingSize": 3,
          "stride": 2
        }, 
        {
          "_type": "BatchNormalizationLayer<float>",
          "_version": "0",
          "inputPaddingScheme": 0,
          "inputPaddingSize": 0,
          "outputShape": [15, 15, 32],
          "outputPaddingScheme": 0,
          "outputPaddingSize": 0,
          "multiplicationValues": [16.0376, 11.339, 12.8461, 22.411, 19.0606, 15.2522, 8.70935, 7.04003, 29.0076, 34.0805, 12.9048, 23.5662, 8.99246, 16.1467, 19.2702, 8.00514, 22.7514, 10.8656, 13.8583, 14.4845, 18.318, 13.8344, 29.9175, 13.7169, 13.0047, 316.228, 13.7759, 11.0576, 16.4027, 10.8831, 19.0282, 14.8722],
          "additionValues": [-1.05878, -1.35426, -1.12306, -0.355702, -0.717077, -0.974141, -0.783446, -0.807267, -0.360917, -0.288154, -1.1139, -0.349823, -0.97372, -0.957197, -0.569744, -0.901947, -0.554181, -1.1548, -0.878691, -0.596059, -0.714043, -1.62631, -0.318122, -1.48155, -0.885137, -1.72822e-41, -1.09369, -1.08017, -1.50106, -0.693371, -1.22232, -0.655887],
          "epsilon": 1e-05,
          "epsilonSummand": 0
        }, 
        {
          "_type": "ScalingLayer<float>",
          "_version": "0",
          "inputPaddingScheme": 0,
          "inputPaddingSize": 0,
          "outputShape": [15, 15, 32],
          "outputPaddingScheme": 0,
          "outputPaddingSize": 0,
          "scales": [0.18191, 0.19015, 0.170227, 0.214468, 0.203029, 0.18117, 0.201939, 0.210444, 0.161995, 0.172828, 0.165291, 0.193489, 0.175044, 0.197528, 0.166921, 0.170307, 0.173801, 0.209387, 0.180202, 0.185844, 0.201173, 0.149892, 0.162936, 0.179636, 0.169176, 0.010864, 0.194481, 0.199721, 0.182811, 0.226717, 0.171979, 0.171623]
        }, 
        {
          "_type": "BiasLayer<float>",
          "_version": "0",
          "inputPaddingScheme": 0,
          "inputPaddingSize": 0,
          "outputShape": [17, 17, 32],
          "outputPaddingScheme": 0,
          "outputPaddingSize": 1,
          "bias": [0.0689706, 0.0183014, -0.178585, -0.14922, 0.0290783, -0.0756492, 0.120087, 0.0723495, 0.0251334, 0.0437951, 0.392288, 0.00925009, 0.0653185, 0.100457, -0.0700702, 0.275595, -0.019573, -0.0622006, -0.0592364, 0.0471499, 0.0416149, 0.26453, -0.14339, -0.169768, -0.121164, -0.158819, 0.117364, 0.100096, -0.0484958, -0.0332201, -0.00241804, 0.00585774]
        }, 
        {
          "_type": "ConvolutionalLayer<float>",
          "_version": "0",
          "inputPaddingScheme": 0,
          "inputPaddingSize": 1,
          "outputShape": [15, 15, 128],
          "outputPaddingScheme": 0,
          "outputPaddingSize": 0,
          "receptiveField": 3,
          "stride": 1,
          "method": 0,
          "numFiltersAtATime": 128,
          "weights_rows": 384,
          "weights_columns": 3,
          "weights_channels": 32,
          "weights_values": [0.0126577, 0.0603549, 0.0157655, -0.0405, 0.013238, -0.0691572, -0.036752, 0.00283911, -0.0282167, 0.0110555, -0.0400589, -0.0141775, 0.0230771, 0.0620223, 0.0341673, 0.0214552, -0.0023155, -0.0145471, 0.0183197, -0.0243906, 0.020703, 0.0101762, 0.0249868, -0.0307055, -0.0474089, -0.00981602, 0.0397647, -0.028856, -0.0270694, 0.0187837, -0.0695477, -0.0229021, -0.0376293, 0.00809375, 0.0250188, -0.0256561, 0.00373183, 0.0802666, -0.00422045, 0.000501911, -0.0189549, 0.00222449, 0.0228908, -0.0287546, 0.00545875, -0.0321186, -0.0521899, 0.00255905, -0.0319833, -0.0250866, -0.0429986, 0.0265034, 0.002309, -0.00497279, 0.0326387, -0.00634205, -0.0174241, -0.00130179, -0.039136, 0.00558884, 0.0114431, 0.017516, 0.01545, 0.00815907, -0.018629, -0.0145924, 0.000513836, -0.0139652, 0.000804406, 0.0948287, 0.0375456, 0.0332586, 0.0221501, 0.00760861, 0.0627488, -0.0424142, 0.00683749, -0.0397346, -0.0680671, 0.0519378, -0.0194423, -0.0296691, -0.0930914, 0.07028, -0.00924644, -0.0242172, -0.0121735, -0.0149947, 0.00839187, -0.00356529, -0.0862916, 0.0352217, 0.0777125, 0.0079298, 0.0682966, 0.030783, -0.0158396, 0.0260612, 0.0143431, -0.00488929, 0.00149172, -0.0523585, -0.0497756, 0.00952807, -0.0146994, -0.00942444, 0.00243936, 0.00617554, -0.0209955, 0.0109104, -0.00974213, 0.0181073, -0.0146178, -0.013315, 0.0446975, -0.0279609, 0.00310073, 0.0377033, 0.00185852, -0.0315029, -0.0107911, -0.00767663, 0.0235198, -0.0115636, 0.0316164, 0.0189099, -0.0386096, -0.046693, -0.00399172, 0.00557079, -0.00249548, 0.00746356, -0.0257871, 0.0302176, -0.0132642, 0.0238273, -0.0205243, -0.0174546, 0.0231933, -0.00426521, -0.0386097, -0.0106072, -0.0217692, 0.0181224, -0.012723, -0.0278372, -0.0276821, 0.00241544, -0.0197476, -0.00377667, 0.0367711, -0.0108893, -0.015585, -0.000339514, -0.0431341, 0.00952934, 0.00702554, 0.0152219, -0.00804388, -0.029605, -0.00196626, -0.0176425, 0.0010899, 0.0187811, 0.0245379, 0.0908642, 0.021928, 0.0390252, -0.00621648, -0.0139115, 0.0287903, -0.00999144, -0.0111055, -0.0494327, -0.0500536, 0.00845463, -0.00460166, 0.0244865, -0.0431811, 0.0248017, 0.0102529, -0.025956, -0.00451884, -0.0177042, -0.00461184, -0.00155288, -0.0408926, 0.0391974, 0.0235509, 0.015609, 0.0314345, 0.0591496, -0.0318654, 0.000582769, 0.00942158, 0.000250094, -0.0194124, -0.0354526, -0.0699666, 0.00759701, -0.0357644, -0.0068613, -0.0191907, -0.00477676, -0.0327487, -0.0289509, -0.0197259, -0.0015409, -0.0224544, -0.0113625, 0.00299212, -0.0361206, -0.0337136, 0.0219201, -0.0214702, -0.0450328, 0.0167681, -0.00894038, 0.0130432, -0.0417783, -0.00673613, -0.0307059, -0.00782294, -0.0298029, 0.0128233, -0.0072881, -0.0307381, 0.0253762, -0.0380861, -0.0250987, -0.0585317, 0.00915737, -0.0232226, -0.00457764, -0.0138535, 0.011622, -0.0286798, -0.0010433, 0.0467673, -0.00583853, 0.0016325, -0.0104828, 0.010047, -0.0306747, -0.0531221, 0.0208626, 0.0165735, 0.0101522, 4.15128e-05, -0.0020868, 0.0223031, 0.00442802, -0.00631229, -0.038154, 0.00986675, -0.00296237, 0.0597425, 0.00163498, 0.0045915, -0.0177597, 0.0387892, -0.0109742, -0.0134133, -0.0140888, -0.00822125, 0.0125416, -0.0257379, -0.00418087, -0.00629895, 0.0437275, 0.0346254, 0.0079296, 0.000601584, 0.0328481, 0.0379621, 0.0259161, 0.0463809, 0.0287891, 0.0371931, -0.0159112, -0.0133068, -0.00354834, 0.0796559, -0.00161553, -0.0358164, -0.032017, -0.00645226, 0.0318051, -0.00201556, 0.0518169, 0.0130452, -0.00346671, 0.0020998, 0.0225924, -0.0107629, -0.00489326, -0.0388513, -0.00530524, 0.0167316, 0.0350554, -0.000975489, 0.0529043, 0.0318339, 0.0361434, 0.00525885, -0.0104263, -0.00590753, 0.011727, 0.0658281, 0.0345468, -0.0227084, -0.00597001, 0.0152176, -0.00402135, 0.0270413, 0.00638189, 0.0520143, -0.00873146, 0.06213, 0.0319034, -0.00973386, 0.0052548, -0.00267031, 0.00881847, -0.000968989, 0.00748623, -0.0341842, -0.016496, -0.0555281, 0.00562496, 0.0113542, 0.0103091, 0.00245491, -0.00554207, -0.0399221, -0.0115398, -0.00495666, -0.0299093, -0.0349818, -0.0268599, 0.00544608, -0.0172238, -0.0100477, 0.0141481, -0.0153074, 0.00023296, -0.0344989, 0.0156722, 0.0803588, 0.00417596, 0.0569492, 0.0187897, -0.0186844, -0.00334569, -0.0208931, -0.0252828, -0.0578343, -0.00880262, -0.0327577, -0.01623, 0.00492349, -0.00542889, 0.0196598, 0.0101012, 0.0108388, -0.0223559, -0.0717525, -0.0178463, -0.0175576, 0.00384882, -0.0767596, -0.0195275, -0.0112419, -0.0265439, -0.00562919, -0.00802567, -0.0131261, -0.00445131, -0.0598854, 0.0116501, 0.0231583, -0.00165005, 0.0147352, -0.0301847, 0.00481325, 0.0531284, 0.0259221, -0.0105167, -0.0086341, 0.0341079, -0.00752218, -0.00603689, -0.0078275, -0.00069799, 0.0337434, -0.00120336, 0.0322015, 0.00153035, -0.0276827, 0.00829538, 0.00656991, 0.00597904, 0.027686, 0.0839341, 0.0273773, 0.0171902, -0.028188, 0.00255244, -0.00889188, -0.00397039, -0.00172837, 0.010008, 0.0370293, -0.00268089, 0.0700242, 0.0197875, 0.00111387, -0.0242839, 0.000112955, -0.0298521, 0.0232084, -0.00850881, -0.0210604, -0.040222, -0.0567485, 0.00798544, -0.0217381, -5.56377e-05, -0.00405829, -0.00182558, -0.0458505, -0.0734817, 0.00792055, 0.00266974, -0.00726759, -0.0577228, -0.0160258, 0.0144326, -0.00921755, 0.0160926, -0.0205125, -0.000363286, -0.0169703, 0.0207167, 0.0194566, 0.00774934, 0.000139104, 0.00886479, -0.0399521, -0.0237411, -0.0172474, -0.0029901, -0.00544965, 0.0120822, 0.0050087, -0.0231196, -0.0439323, 0.00470458, 0.0130931, 0.00860316, -0.021416, -0.0223056, -0.0369501, -0.0524696, -0.0213159, -0.000894851, -0.0708971, -0.0780086, -0.0414623, 0.018164, -0.0222725, -0.00514769, -0.00907189, -0.00493641, -0.0232998, 0.0385955, 0.00796105, -0.00285095, -0.00490365, -0.0331945, 0.0565073, -0.0211225, -0.00042423, 0.0104345, 0.0499158, 0.0123107, 0.0155571, -0.0211584, 0.00842676, -0.0314715, -0.00276167, -0.0202278, 0.0325457, 0.0239796, 0.0116148, 0.0194893, -0.0310815, -0.00166645, -0.00104048, 0.0130161, 0.000437162, 0.0263945, -0.00981523, -0.0077575, -0.0112987, -0.000564122, 0.00240216, -0.0277537, 0.0173154, -0.0150199, 0.00707146, 0.0157031, 0.0251528, -0.0263482, 0.0157834, -0.0181098, 0.0098856, -0.00901171, -0.0217192, -0.0177737, 0.0100821, 0.00856189, -0.0174807, 0.011427, -0.00188075, -0.029972, 0.0118252, -0.0422319, 0.0128734, 0.0240773, -0.0211651, -0.0562354, 0.00563576, -0.00433892, -0.00765986, 0.0185406, -0.0254834, 0.00277224, -0.00682601, -0.00745894, -0.0454215, -0.00818307, -0.0219188, 0.00448904, 0.00279994, -0.0135175, -0.00403703, -0.00216753, 0.0167096, -0.00995274, 0.00476773, 0.00874643, -0.0244349, -0.00502309, 0.0118325, 0.0174583, -0.0265526, -0.050446, 0.0527873, 0.0110562, 0.0178014, 0.0134566, -0.0122697, -0.0278336, -0.0110464, 0.0400011, -0.011741, 0.0105248, -0.00532444, -0.00255194, -0.0105586, 0.0261059, 0.00318363, -0.000750589, -0.0415289, 0.000657806, -0.0206655, -0.00224044, 0.0149739, -0.00473205, -0.014228, -0.0456798, 0.00322441, -0.0345473, -0.00894738, 0.0361021, -0.0643073, 0.0141469, 0.00556366, 0.00772033, -0.00577341, 0.00804419, 0.0270393, -0.0434061, 0.0264635, 0.0503738, 0.00105173, -0.00230808, 0.0247753, -0.0152755, 0.0215668, 0.0143676, -0.0117134, -0.043123, -0.0647961, -0.0149702, -0.0333156, -0.0186786, -0.0555933, 0.013063, 0.0178685, 0.00334282, -0.0163575, -0.0195209, -0.0648044, 0.0092586, 0.00928091, 0.0342848, 0.00281643, -0.0341702, 0.00641076, -0.0283177, 0.012527, 0.00239549, 0.0229542, -0.0473132, -0.0153834, 0.0297322, 0.0288531, -0.0274773, 0.005415, -0.0225847, -0.0103767, 0.0101468, -0.0374008, -0.0357191, -0.0224108, -0.023325, -0.0130725, -0.0388642, -0.0289121, 0.0158636, 0.0090243, 0.0185914, -0.000422537, 0.0527532, -0.0115038, 0.0182732, -0.0179775, 0.0246178, 0.00887396, -0.0306862, 0.000224667, -0.0289963, -0.0303446, -0.0115397, 0.024889, -0.0277514, 0.00515807, -0.00289962, 0.00888018, -0.0078939, 0.0228238, -0.00760944, -0.000770144, 0.0114082, -0.0474291, -0.0182079, 0.019609, 0.00363926, 0.0352122, -0.010379, 0.00778888, -0.0306142, -0.0198166, 0.00695287, 0.00334621, -0.0054601, 0.0458605, 0.0125256, -0.0256819, -0.00387863, -0.0158834, 0.0253918, -0.0095824, 0.0140701, 0.00270867, 0.0392989, 0.0127136, -0.00364769, -0.00850089, 0.0181192, 0.0375563, -0.0204226, 0.017871, -0.0113603, 0.0110452, 0.00339899, 0.0251164, -0.000464006, -0.0404225, -0.0132942, -0.0535181, -0.00634929, -0.0578062, -0.0307689, -0.0375147, -0.0151687, -0.0168343, -0.0132553, -0.00214548, 0.0317631, -0.0226329, -0.0196785, 0.0382143, -0.00257463, -0.00494037, -0.0195496, -0.0136887, 0.0313651, 0.00488998, -0.00901538, -0.0177487, 0.0166974, 0.027267, -0.0450009, -0.0108951, -0.00283152, -0.0109633, -0.000333063, -0.0368991, 0.0295845, -0.00489677, -0.0364851, -0.0370148, -0.0353084, -0.0435244, -0.0477835, -0.0289429, 0.0102497, -0.0211372, 0.0176002, 0.0253788, 0.0485216, -0.0218142, -0.0150782, 0.054774, -0.0604452, -0.0139873, -0.0153987, -0.0284829, 0.00616917, -0.00223122, 0.00585726, -0.0259908, -0.0266009, -0.0131536, -0.0149889, 0.000982144, 0.0108851, -0.0044317, 0.0013083, -0.0370933, 0.00564665, -0.00656607, 0.0114132, -0.00257833, -0.0317724, 0.0528388, 0.0518997, 0.0289985, -0.0103202, -0.00667254, 0.0671121, 0.0321199, -0.0303995, 0.0101953, -0.0177077, 0.014316, -0.0293085, 0.00477797, 0.0326627, 0.00135401, 0.0570892, -0.00815418, 0.0340463, 0.0337347, 0.0128368, -0.0139283, 0.0190088, 0.0150718, -0.0146645, -0.0309489, 0.00371792, 0.0349874, 0.0180417, 0.000283171, 0.0163023, 0.005502, 0.021235, 0.039096, 0.0317895, -0.00459982, -0.0345752, 0.00206505, 0.0369954, -0.0163576, -0.0131119, -0.0322526, -0.0318765, -0.00502955, 0.0187509, 0.00574286, -0.0111572, 0.0077196, 0.031013, -0.0384716, 0.0335708, 0.0129488, 0.0116823, -0.0124038, -0.0338033, 0.00486235, -0.0132795, -0.0402499, 0.000497888, 0.0241534, 0.0289916, 0.0245705, -0.0202491, 0.0263763, 0.0139083, 0.030206, -0.0260029, -0.0270917, -0.0391532, 0.0228272, 0.0294565, 0.032585, 0.0330593, -0.0477247, -0.035799, 0.0171474, -0.0477738, -0.0117645, -0.0297466, 0.0139097, 0.000512768, -0.00597197, 0.0451584, 0.0152784, -0.0271204, -0.0357077, 0.0113726, -0.0103426, 0.0349576, -0.0165986, 0.001948, 0.0657117, 0.0382474, 0.00459485, 0.0341919, 0.0120924, 0.00602133, -0.0211658, -0.0104047, 0.021114, 0.0256325, -0.0414009, -0.0311834, -0.0400517, -0.0334842, -0.00917766, 0.00612734, -0.0757104, 0.0474809, 0.0142989, 0.0214078, 0.0124866, -0.0194113, 0.00904149, 0.00721652, 0.0188386, -0.00450578, -0.0271869, -0.0345237, -0.0111028, -0.00191849, 0.0170077, 0.0212166, -0.0372399, -0.0301978, 0.0122588, 0.0849464, -0.0473066, -0.0218979, -0.0296525, 0.0196512, 0.0276124, 0.0189366, -0.0790221, -0.01652, -0.093177, -0.0761796, -0.0114767, 0.0482513, -0.03894, 0.0297948, 0.0190481, 0.0350276, 0.0120302, 0.00216046, 0.00550073, -0.0241494, 0.0293694, 0.0143589, 0.0115887, -0.0127816, -0.00996453, -0.00730072, -0.0101762, 0.00989651, -0.0127904, -0.0150561, -0.0100589, 0.0799852, -0.0220109, -0.00764081, -0.0150808, 0.0060712, 0.0162536, 0.0253968, -0.0435602, 0.00133389, -0.0323992, -0.0469712, 0.00414799, 0.00730722, -0.0160068, 0.00698462, -0.0257285, 0.0159309, -0.025319, -0.0108884, 0.0183338, 0.0222623, 0.0191798, 0.0164417, -0.0190891, -0.0239458, -0.0237942, -0.0049821, -0.00972943, 0.0117851, -0.0242752, -0.026593, -0.00336563, 0.129311, -0.012944, -0.0187185, 0.0277632, -0.0179563, 0.00632771, -0.00298408, 0.0334662, -0.0335366, 0.00530768, 0.0321104, 0.00240093, -0.0257924, -0.032462, 0.012036, 0.00246645, -0.018201, 0.0127719, 0.034793, -0.0193113, 0.00811136, 0.0456783, -0.00325846, 0.0366024, 0.0181485, -0.00515705, -0.0378693, 0.0348366, 0.00968754, 0.0184938, -0.015806, 0.00543139, 0.0219993, 0.00498504, -0.00112949, -0.021426, 0.0176449, -0.00554791, 1.73739e-05, 0.0217553, -0.0378551, 0.00181352, 0.0212537, -0.0234182, -0.000867073, 0.0241, 0.0128679, -0.0149947, -0.0346319, 0.0384487, 0.0547276, -0.037776, -0.0232161, 0.0183777, 0.0314223, 0.105085, 0.0122561, 0.0165587, -0.0139159, 0.00861765, -0.000111607, 0.0139919, 0.00199222, -0.0243578, -0.0243017, 0.0352948, 0.0106625, -0.018173, 0.00261224, -0.00687897, -0.0216937, -0.00255144, 0.0188655, 0.0792227, -0.00281175, 0.00943431, -0.0230819, 0.0268892, 0.00444366, -0.0393009, -0.0572643, -0.00157995, 0.0394421, -0.0192331, 0.00871112, -0.00248497, 0.0246946, 0.0497835, 0.0181969, 0.00266656, 0.00688567, -0.00566183, 0.000546978, -0.00723627, -0.00882443, 0.00484127, 0.0435456, 0.0174318, 0.0136537, 0.000708995, 0.0186576, -0.010468, -0.016553, 0.0191403, -0.0175087, -0.00520881, 0.0390166, -0.0136567, -0.0486064, -0.037964, 0.0167977, 0.00223158, -0.00102253, 0.0202339, 0.0251346, -0.00936643, 0.0119031, 0.0133227, -0.037704, -0.0135748, -0.0264364, 0.0352304, -0.00483809, -0.00789115, 0.0131225, -0.00229695, 0.020469, -0.0343501, -0.11158, 0.00888766, 0.000918782, -0.0174589, 0.0188527, -0.0406138, -0.0193446, 0.024717, 0.0111476, 0.0237743, 0.041356, -0.0215771, -0.107627, 0.00369395, -0.0263476, -0.0285054, -0.0166437, -0.0096235, 0.00375061, -0.0624346, 0.0249383, -0.0147565, 0.00430804, 0.00286445, -0.0228911, 0.0255887, -0.00426238, -0.0227208, 0.00272448, 0.0136986, 0.0466677, -0.0267956, -0.176275, 0.0343076, 0.0032158, -0.0150038, 0.0113356, -0.0375567, -0.0109522, 0.0196117, 0.0136723, 0.0603673, 0.0115019, 0.022772, -0.105595, 0.0210151, -0.0349032, -0.0551671, -0.0469703, -0.0132506, 0.0428914, -0.0197738, 0.010549, -0.0260719, 0.00540248, -0.01023, -0.00397014, 0.0185489, 0.0189151, -0.00651881, 0.00470754, 8.77203e-05, 0.0222793, -0.00227788, -0.114769, 0.0344015, 0.02002, -0.0313339, -0.0347995, -0.0126793, 0.00420923, 0.0152138, 0.0256645, -0.0680784, 0.0107759, 0.0220177, 0.0220598, 0.00881805, 0.0440807, 0.0379606, -0.0661699, 0.0185192, -0.00928007, 0.0304713, -0.0267424, -0.0566125, 0.0114083, -0.0402033, 0.00721285, 0.0224419, -0.00428069, 0.0435558, 0.00834655, -0.0569099, -0.0538368, -0.00875818, 0.0278524, 0.0161196, 0.000430434, -0.000498493, -0.0616374, -0.0466827, -0.0432305, 0.00626402, -0.0206274, -0.078558, -0.0237198, -0.0156855, 0.00734296, -0.00603882, -0.0543498, 0.0156921, -0.0111, 0.0206516, 0.0103864, 0.00259518, -0.0103737, -0.0207924, 0.00817943, 0.00280256, -0.00905531, 0.00649728, -0.022634, 0.0272383, 0.00702461, 0.00351746, -0.05114, -0.0473352, 0.00388243, -0.0330239, 0.0136964, 0.0132048, 0.0474599, 0.0337892, -0.0809398, 0.00750693, 0.0563991, -0.0411399, -0.0227106, 0.0228716, 0.0173496, 0.0204289, -0.0447442, -0.00718582, 0.0572372, 0.0251672, 0.0369433, -0.0507009, 0.0238777, 0.011809, -0.00937436, -0.00256805, -0.0232965, 0.00654949, 0.00307474, 0.0206573, 0.0122998, 0.0297235, 0.0425807, 0.0234725, 0.0116578, 0.0278923, -0.0131375, -0.0346825, -0.0375681, -0.0177535, 0.0474117, 0.00133059, 0.0162615, -0.0768415, -0.0225952, 0.0239764, 0.0210339, 0.0100469, -0.0452138, 0.0291922, -0.02409, -0.0238054, -0.0155238, 0.0392872, -0.01986, -0.0521527, 0.0074838, -0.0531755, -0.0217685, 0.0112538, -0.00661822, 0.000410331, -6.94889e-05, -0.0417823, -0.0141426, 0.00385797, -0.0038561, -0.00724076, 0.0156404, 0.0527597, -0.0109035, -0.0248767, -0.0763902, -0.0145781, -0.0253899, 0.0311444, 0.00253697, -0.0236631, 0.00903817, 0.00113844, -0.0615623, 0.00689344, 0.00241348, 0.000217981, -0.0135824, -0.0331314, 0.0564908, 0.0255631, -0.0165743, -0.00753024, 0.0158335, -0.0275074, 0.0473742, 0.00738544, -0.000714452, 0.0617397, 0.0693078, -0.0165151, -0.0193346, -0.0195646, 0.0183195, 0.00190769, 0.0213439, 0.0385231, -0.0568236, -0.0122999, 0.0215092, 0.0537203, 0.0316211, -0.0245576, -0.0277094, 0.0341385, -0.0456935, -0.0107618, 0.0281873, -0.0181548, -0.0234212, -0.0429354, 0.0403334, 0.0251998, 0.00217267, 0.0139356, -0.0169547, -0.0462631, 0.0322254, -0.0343632, 0.00580211, 0.0574127, 0.0876562, 0.022975, -0.00156454, 0.0171395, -0.0377639, -0.0270705, -0.0281843, -0.00197417, 0.0550217, 0.00158603, 0.0312311, -0.0495782, -0.0269629, 0.0253923, -0.0196877, 0.0144179, -0.0375865, 0.0367051, 0.00412696, 0.0102936, -0.000421496, 0.0125229, 0.000131857, -0.00699728, 0.0147001, -0.00167954, 0.00983553, 0.0340862, 0.0196152, 0.0144989, 0.00201275, -0.0516344, 0.00162778, -0.0222333, -0.0154456, -0.0243527, -0.0130339, 0.0432428, 0.0123797, -0.00224712, -0.0395914, -0.0089598, 1.27173e-05, 0.0977984, 0.000335606, -0.0353108, -0.0216932, 0.0157506, -0.0406145, 0.0104685, -0.0182632, 0.0386511, 0.00959349, -0.0619775, 0.0352927, -0.0114885, 0.0047907, 0.0125649, 0.00829907, -0.0155139, 0.0237012, 0.0105726, 0.00217793, 0.0343587, 0.0387438, 0.0418571, -0.0267243, -0.00118232, 0.00176349, -0.00969342, -0.00691896, 0.0343471, -0.00520069, -0.0165031, -0.0201178, 0.0506039, 0.0392254, -0.0400653, -0.049195, -0.0114881, -0.0251311, -0.0397028, -0.00625539, -0.0239824, -0.00592729, -0.0264668, -0.035488, -0.00555693, 0.0171257, 0.0254793, -0.0162794, -0.0407609, 0.0125548, -0.0372, 0.00866092, -0.0586224, -0.00902844, 0.0113693, 0.00292492, -0.0287686, -0.0244135, 0.0106356, 0.0340549, -0.00267018, 0.00272929, 0.00361181, -0.00956648, -0.0259429, -0.0350052, 0.00114436, 0.00607676, -0.00745179, -0.0292575, -0.0719438, 0.00260605, 0.00580665, 0.0225126, -0.0264449, -0.0334501, 0.0162119, -0.0284423, 0.0263771, -0.0212722, -0.0138445, 0.021415, 0.0421486, 0.00404246, 0.0103786, -0.012327, -0.0132155, -0.03833, -0.0307687, -0.0153765, -0.0182218, 0.0225859, -0.0104012, -0.00670068, -0.0299372, 0.0106752, -0.012732, -0.0354246, 0.0265794, 0.0166236, 0.026839, -0.00389816, -0.0497393, -0.00902128, 0.0188208, 0.0339217, -0.00935993, -0.023038, -0.00994025, -0.00708622, 0.0318527, -0.0482121, -0.000980442, 0.00823241, 0.0328924, 0.00287575, 0.00399231, -0.000155843, 0.019923, 0.0106706, 0.0144738, 0.0164197, -0.0217562, 0.00376297, -0.00686797, 0.00343039, -0.000983164, 0.00814626, 0.0268397, -0.0159617, 0.0183741, 0.0183729, -0.000710377, -0.0178406, -0.0356554, -0.0216153, 0.0475487, 0.0116693, 0.000593073, 0.0580742, 0.0225989, -0.0143275, 0.034952, 0.013514, -0.0205533, 0.0466199, -0.00679461, 0.00920124, -0.00779121, 0.0451792, -0.0180972, 0.0623293, 0.0275211, -0.00010648, -0.0168481, -0.00876782, 0.0122947, 0.00561048, -0.0127296, -0.00799839, -0.0402165, 0.00351782, -0.00948982, -0.014729, 0.0031971, -1.51517e-05, -0.00605203, 0.00696278, 0.00721928, -0.0120131, -0.0138132, -0.0422091, 0.00327678, 0.00525027, -0.0520819, -0.0340949, -0.000709465, 0.0159918, 0.0123509, -0.000408746, 0.00604505, -0.00501202, -0.0220737, -0.021337, -0.023343, -0.0324096, -0.0214385, -0.000651069, 0.0199087, -0.0143058, -0.0188645, 0.0147078, -0.00242162, 0.00764991, 0.0205349, -0.0152597, -0.00143755, 0.00750846, 0.0188989, 0.0383103, 0.0187498, -0.00463844, -0.00978628, 0.02996, 0.018303, -0.00810071, -0.0566632, -0.0149309, 0.0220089, -0.0157857, 0.000550171, 1.83351e-05, -0.000161443, 0.0106937, -0.00929089, 0.0111225, -0.0558641, -0.00493932, 0.00615118, -0.0254574, 0.0152138, -0.0150985, 0.0386501, -0.0082164, 0.00702787, 0.0129901, 0.008668, -0.0136236, -0.0179391, -0.0374928, 0.00630123, 0.00932525, 0.0403971, -0.0329461, -0.00612507, 0.0521455, 0.035643, -0.0127133, -0.0337967, 0.00149937, 0.00784324, 0.0273332, -0.0394914, 0.00735872, 0.0186621, 0.0220422, -0.0365824, 0.034503, -0.0437892, -0.0189194, -0.000313392, -0.054422, -0.0300758, 0.00608376, -0.00347796, 0.0118059, -0.00634039, 0.0163977, -0.0225843, 0.0173285, -0.00393048, -0.0134318, 0.0596797, -0.0166353, -0.0155567, -0.0305715, 0.0057329, -0.0260867, 0.00649783, 0.010852, -0.0369823, 0.00771795, -0.0388394, -0.0175262, -0.0150899, -0.00939627, 0.0102216, 0.00824995, 0.0115599, -0.0279114, 0.021126, -0.0390608, 0.0184195, -0.0653798, -0.0238352, -0.0192715, 0.0062411, -0.00841572, -0.00200235, 0.0306319, -0.0314956, 0.0178108, -0.0274518, -0.00543916, 0.0881948, 0.00469803, 0.0256171, -0.0345305, -0.0027607, -0.00515188, 6.71495e-05, 0.0148823, -0.0304165, 0.0233033, -0.0104044, -0.0292112, -0.0172196, -0.0102656, 0.0144766, 0.00423321, -0.0180233, -0.015631, -0.017833, -0.012696, -0.00199926, -0.0617397, -0.00740415, -0.00230309, 0.0596284, -0.0363886, -0.00703018, 0.0114478, -0.035647, 0.0182869, -0.0465152, -0.0333399, 0.057063, 0.00362279, 0.0160123, -0.0384292, 0.00499941, 0.0265297, 6.08589e-06, 0.00922493, -0.0360266, -0.00468215, -0.0124208, 0.00316351, -0.0346865, -0.00210995, 0.0174928, 0.0227187, -0.0218617, -0.0256912, -0.00913678, 0.000472198, -0.0266814, -0.00516694, -0.0255146, -0.0156625, -0.0202486, 0.00637757, 0.0125159, -0.00885757, -0.0113896, 0.00320374, 0.0233631, -0.017774, -0.0691101, -0.0194956, 0.00786116, -0.000286646, 0.0225483, 0.0297266, -0.0308131, -0.0489461, -0.0536016, -0.0241159, -0.0270944, 0.0221657, -0.00587562, 0.000978355, -0.0145634, 0.00894662, -0.0313662, -0.00356178, -0.00959485, 0.040323, 0.0109117, -0.0183954, -0.0327797, -0.0165992, 0.0302737, -0.00271566, 0.0454374, 0.0123692, -0.0200185, -0.00985275, -0.00122319, -0.0237367, -0.0230785, -0.0330915, 0.0106268, -0.0207987, 0.00774131, 0.0392298, -0.0203604, -0.0340474, -0.0550869, -0.0468679, -0.0104589, 0.0243437, -0.00559479, 0.000943114, -0.00755752, 0.0340615, -0.00792514, 0.0017103, 0.00860471, -0.0127227, 0.025571, -0.00675733, 0.0163073, -0.00282971, 0.00709493, -0.0138391, 0.00872117, -0.0175031, -0.00876321, -0.0015703, -0.0193498, 0.0137164, 0.0100201, 0.0107781, 0.00220483, -0.0293222, -0.00520739, -0.00649187, 0.0287277, 0.0173507, -0.00245057, 0.00504492, 0.0513343, 0.00244725, 0.0265346, 0.00144953, -0.021404, 0.00429567, -0.00311934, -0.00345565, 0.0281573, -0.0263297, -0.0217852, -0.0283466, -0.00681002, 0.00389714, -0.0360227, 0.0159966, 0.0341202, 0.00823786, -0.0292791, 0.00524772, 0.0208614, -0.0174805, -0.0246356, -0.0388413, 0.0160341, -0.0325331, 0.0387188, 0.0333694, -0.006117, 0.00659995, -0.0704262, -0.0556979, -0.0231288, 0.0290473, -0.00495867, 7.36292e-05, 0.0100954, 0.00444915, -0.0148778, 0.0152483, -0.0276024, 0.0481409, 0.000447974, -0.0328139, -0.0217569, -0.0131195, 0.00465121, -0.0136465, 0.00465179, 0.00998966, -0.0130895, -0.00104285, -0.0271216, -0.0120061, 0.0145877, -0.0170369, 0.011207, -0.0551831, -0.0134279, 0.0509711, 0.0120885, -0.0119034, -0.0343549, -0.0271737, -0.012652, 0.0185954, 0.00907479, 0.000455349, 0.00324855, 0.00404789, 0.00712963, 0.021693, -0.00986167, -0.0287726, 0.0285203, -0.0111621, 0.000998105, 0.01611, 0.00907841, -0.0172494, 0.00579396, -0.0252214, -0.00739466, 0.0216302, -0.0203442, 0.0238129, 0.0608114, -0.0310646, 0.00548949, -0.0527304, -0.0103079, 0.0125088, 0.0207683, 0.0173096, 0.027743, 0.0123121, 0.0497559, -0.00298084, 0.0265419, 0.00243983, 0.000786636, 0.0195529, 0.0113946, 0.0272737, 0.0255709, -0.0232182, -0.0619145, 0.0324738, 0.0394987, -0.0143275, -0.000348796, 0.0136959, 0.0168774, -0.00818366, 0.00750521, -0.00804583, 0.030648, 0.0130103, 0.0161377, 0.0604681, -0.0193234, -0.00981428, 0.0150053, -0.0149692, 0.0243109, 0.00825347, -0.00472318, -0.0335549, -0.0465047, -0.0316539, 0.000268723, -0.0114448, 0.0195363, -0.00832949, -0.0180814, 0.00562691, -0.0294164, 0.0569628, -0.047058, 0.0232576, 0.0121372, -0.00818446, 0.0210896, -0.0189504, 0.0253897, -0.0166262, 0.0211192, 0.00642164, -0.0169518, 0.0138326, 0.0294086, 0.0294506, 0.014515, -0.0525522, -0.0172394, -0.0201828, 0.0146718, 0.0185013, 0.00863993, -0.00816781, -0.0600607, -0.0178136, -0.0118234, -0.0132771, 0.0157745, 0.00151965, -0.0694327, 0.00509062, 0.0140535, -0.043462, -0.0231081, 0.0968111, 0.0162067, -0.0105759, 0.0124464, -0.0786013, -0.0209102, -0.0700983, 0.037346, 0.0317038, -0.0225418, 0.00936732, 0.0433075, 0.0737815, -0.00953579, -0.0432479, -0.0332259, -0.026548, 0.0192834, -0.00418651, 0.0583923, -0.0251943, -0.0365094, -0.0118361, 0.00395112, -0.0117517, -0.00910798, -0.0206899, -0.00825667, 0.0180704, 0.0378576, -0.0246256, -0.00856022, -0.0313298, -0.0145099, -0.00736184, -0.0235018, 0.00409346, -0.0349956, 0.00912003, -0.00240031, -0.0302213, 0.00658889, -0.0116025, 0.0329689, 0.064025, 0.00663642, 0.00776691, -0.00695939, -0.00788088, 0.0399729, -0.00975052, 0.0139721, 0.0151078, 0.0310228, -0.0267277, 0.00463034, -0.00131218, -0.0192199, -0.0194312, -0.0609806, 0.0501052, -0.0101121, -0.0610795, 0.0316098, 0.0104973, -0.0034463, -0.031393, -0.0581692, 0.00684802, -0.0399413, -0.000243813, -0.00863197, -0.0295724, -0.0106901, -0.0139937, 0.0406288, 0.0479947, -0.0367614, 0.0100366, -0.0508646, -0.0234382, 0.0273106, -0.0370219, -0.0172259, 0.0170085, -0.0132583, -0.0353782, -0.0233513, -0.00251766, 0.00404544, -0.0358766, -0.027998, 0.019107, 0.00341284, -0.111346, 0.020511, 0.0522484, 0.0138758, -0.0441467, -0.0330392, -0.0188265, -0.0100292, -0.0353236, 0.00178172, -0.00835228, -0.0235949, -0.00664621, 0.0112867, 0.0601685, -0.00388064, 0.0132464, -0.0455133, -0.0396413, 0.0182164, -0.0158073, 0.00903075, 0.0154616, -0.0209647, -0.00270309, 0.0059797, 0.00101395, -0.0246701, -0.00875723, 0.00618643, 0.0127935, -0.00335706, -0.0893738, 0.0756299, 0.00252827, 0.0029152, 0.0119631, -0.0488286, -0.0130791, 0.00177497, 0.0147217, 0.00515286, 0.010695, -0.00053928, -0.0609572, 0.024893, 0.0440729, 0.01149, 0.00050827, -0.0550913, -0.00942794, 0.00558059, -0.0254793, -0.0259103, 0.0308878, -0.013412, -7.57423e-06, 0.00823747, 0.00109547, 0.0366193, -0.0239944, 0.00177271, -0.00984591, 0.0315404, -0.0810535, 0.0505197, 0.0117893, -0.00686813, -0.0389832, -0.0459608, 0.0255159, 0.00151325, 0.0180459, -0.0271225, 0.005252, -0.00116122, -0.0195636, 0.0378272, 0.00272689, -0.0511901, 0.0316062, -0.0734098, -0.0190721, -0.010082, 0.000636649, -0.0152019, 0.00781179, -0.035747, -0.0340663, -0.0283011, 0.000436327, -0.000224473, -0.0321765, -0.0179948, -0.0499603, 0.0221768, -0.0998197, 0.0178895, 0.00178121, 0.00115494, -0.038252, -0.0184605, 0.0259079, -0.00436173, 0.0146927, -0.029681, 0.0237546, -0.00678859, 0.0172532, 0.0084015, -0.00279694, -0.0355654, 0.00248359, -0.0224818, 0.0199612, -0.0200892, 0.0159088, -0.00662515, -0.012149, -0.0398879, -0.0107767, -0.047611, 0.00293344, 0.0121242, 0.0139666, 0.0396371, -0.0467304, 0.0158644, -0.0322861, 0.0324747, 0.025178, 0.0275533, 0.00961595, -0.019762, -0.0111351, -0.0347581, -0.00338628, 0.0121924, -0.0109734, -0.0230566, -0.0522272, -0.0110003, -0.0159915, -0.0133725, 0.0232471, -0.0438854, 0.0208908, -0.0188327, -0.000955789, -0.027496, 0.00221417, -0.0192483, 0.0175366, 0.0282787, 0.00688016, 0.0121524, -0.0147881, 0.0489694, 0.0107528, 0.0301657, -0.000462158, 0.0183985, -0.00354123, 0.00961798, -0.0345278, -0.00263464, -0.00479074, -0.0321314, -0.00902276, -0.0346006, -0.0229201, 0.00174328, -0.00891644, 0.00331986, -0.069793, -0.024688, -0.0128676, -0.0348099, 0.00520086, -0.0295331, 0.00467315, -0.00248985, -0.0418307, -0.0189825, 0.00884696, 0.0062232, 0.00606217, -0.00379595, 0.0159482, 0.0254998, 0.0229982, 0.0282966, -0.00183606, 0.0256936, 0.00605248, 0.0075631, -0.0284486, 0.00643709, 0.033031, -0.0139706, 0.0229305, -0.0233902, 0.00918691, 6.4959e-05, 0.0219842, -0.0261466, -0.0166429, 0.0239411, -0.00948671, 0.0135137, 0.0651219, 0.00619133, 0.0159634, 0.0276611, -0.0101394, -0.001558, 0.0260653, -0.00574239, 0.00902572, 0.0114166, -0.00452219, 0.0163809, 0.0222762, 0.00358207, 0.0510828, -0.0288528, -0.0188423, -0.0338159, 0.037004, -0.00359896, -0.0349918, 0.0114751, -0.0233232, 0.0148277, 0.0251041, -0.0208846, 0.00881324, -0.015371, -0.0113855, -0.0175743, 0.0213377, 0.00693411, 0.0189863, 0.0021413, -0.0532467, -0.0342385, 0.00418915, 0.00866471, -0.0108828, 0.0137603, 0.00366097, -0.0144523, -0.0292645, -0.0333396, -0.0336301, -0.0292991, -0.0348096, -0.0201811, -0.029499, -0.00256384, 0.0239553, 0.0169917, 0.0343196, -0.00764045, 0.0901273, 0.00865989, -0.00277504, 0.069908, -0.0293285, -0.0241333, -0.0588469, -0.029871, -0.0271547, -0.0199766, 0.0016865, -0.0354104, 0.0167544, -0.00744769, -0.0219872, 0.00647302, 0.0190597, 0.0176892, 0.00420518, -0.0393184, -0.00427849, 0.0195379, 0.0106023, 0.0711059, -0.00263795, 0.00781309, 0.0815535, 0.0370636, -0.00496349, -0.00948136, 0.0408446, -0.0487092, 0.00389397, 0.0269689, 0.0156016, 0.0196017, -0.0409154, 0.0440035, 0.0239998, -0.00232814, 0.00859846, -0.00344267, -0.000888211, -0.00264627, 0.0331396, 0.0519036, 0.0321069, 0.00499801, -0.00801609, -0.0310092, 0.00498415, -0.00150703, -0.0146174, -0.0220515, 0.0215901, 0.0192909, 0.0452552, -0.00257551, 0.0222606, 0.00177866, -0.00709815, 0.0072524, -0.026938, 0.00581132, -0.0333535, -0.0235401, 0.0164832, -0.0335514, 0.0108807, 0.00342474, 0.0487344, 0.0250587, 0.0574086, 0.00651042, 0.00279158, 0.0261456, -0.0419046, -0.0243757, 0.0256113, 0.00701367, -0.00608365, -0.0209681, 0.000121605, 0.0244153, 0.00324426, -0.0366417, -0.00945998, -0.0926839, 0.00334457, -0.0177783, -0.0936929, -0.039269, 0.0254218, 0.00156223, -0.0154071, 0.0661029, 0.000999545, 0.00692484, -0.0309977, 0.0266776, 0.0176398, -0.0201926, -0.0861971, -0.0386614, -0.00126244, -0.0165582, -0.00266077, -0.0334973, -0.0353881, -0.0222855, -0.0162912, 0.00210549, 0.0142003, 0.0154267, -0.00061656, -0.00982515, 0.00954025, -0.0172049, -0.0133079, -0.00769068, -0.0573744, -0.018985, 0.0160896, 0.0370289, 0.012388, -0.00694455, 0.0331556, -0.0144729, 0.050293, 0.00257791, -0.00906115, 0.0546853, -0.0624357, -0.0119656, -0.0238966, -0.00819135, -0.0435624, -0.00452514, 0.002031, -0.00965372, 0.0743108, 0.031307, 0.0231871, -0.00177004, -0.00512399, -0.00574663, -0.00107119, -0.0311194, -0.042012, -0.0393294, -0.0180161, 0.0237585, 0.00892648, -0.00630332, 0.0356652, 0.0278804, -0.032561, 0.0170741, 0.0239135, -0.0288882, 0.00798046, -0.0481804, 0.0291742, -0.0139704, 0.0316382, 0.0116805, 0.0683623, 0.00901847, -0.000391735, 0.0163557, -0.0192715, 0.0282344, 0.0148019, 0.00318558, 0.0222213, 0.0223, -0.027659, -0.012439, 0.000388222, 0.0242087, -0.0131045, -0.0247522, 0.0247505, -0.0278429, 0.0412445, 0.000626862, -0.0135418, -0.0379315, -0.0198771, 0.00195172, 0.0202951, 0.0777504, -0.0526324, -0.0153671, -0.0181985, -0.0533793, -0.0147161, 0.00437941, -0.0410677, 0.0149823, 0.00531019, 0.00293132, -0.016763, -0.0129649, -0.0391461, -0.0222577, 0.0198816, 0.0207951, 0.0101499, -0.0257637, 0.00129987, 0.0412872, -0.000365673, -0.0175894, 0.013253, -0.0627937, -0.0344201, -0.00505158, -0.0361892, -0.00402101, -0.0117758, -0.00698156, -0.0202173, 0.0137156, 0.00386198, 0.00508581, -0.0268304, 0.00685884, -0.0423323, -0.0181917, -0.0324302, 0.00375675, -0.0415674, -0.035834, -0.00513053, -0.0193967, 0.0134523, -0.0398532, 0.0171318, 0.00740592, -0.0260806, -0.00888775, -0.000188219, 0.0321871, -0.0357021, -0.0194263, -0.0130517, 0.00556432, -0.0197175, 0.0151928, -0.0569388, -0.021039, -0.00471526, -0.0434643, 0.00443843, 0.0182548, -0.00700042, -0.0277676, -0.0232562, 0.00302613, -0.0116039, 0.0329876, -0.0525947, 0.0296724, 0.018286, 0.00859284, -0.0459069, -0.0361218, -0.0316978, 0.00599707, 0.00729931, 0.028843, -0.0360921, -0.0300319, 0.000109944, -0.0336516, -0.00807461, 0.0100681, 0.0283932, 0.0485632, -0.0526114, -0.010868, -0.0456939, -0.0129472, -0.0290653, -0.00184292, -0.0274214, 0.00487582, 0.0147508, -0.0031101, -0.010146, 0.00844654, -0.00210144, 0.0708736, -0.0744456, 0.016649, 0.0174093, 0.011362, -0.0522349, -0.0299844, -0.0298176, 0.0322109, 0.0136889, 0.0217395, 0.000457667, -0.0454169, -0.00279232, -0.0264548, -0.00157479, -0.0474147, 0.0612106, -0.00467519, -0.0477997, -0.00885196, -0.0307528, -0.0266908, -0.0223115, 0.0170746, 0.00207656, -0.00736524, 0.0118353, 0.0140693, 0.000740599, 0.00078333, -0.0138756, 0.0627346, -0.0432567, 0.0244856, 0.02235, 0.0160139, -0.00613531, -0.00340414, 0.0224224, -0.00914626, 0.0373345, 0.0419269, -0.0110185, -0.00333164, -0.00186956, -0.0134904, -0.00252014, 0.0140232, 0.0296363, -0.000733459, -0.021278, 0.0030736, -0.0245128, 0.0158802, -0.00607081, 0.0351112, 0.0436643, 0.0121907, -0.00754963, -0.00311261, -0.00191553, 0.0153972, 0.00165198, -0.0137553, -0.0402781, 0.0147506, -0.00791431, 0.0287851, -0.0381241, -0.00922281, -0.0335954, -0.013941, 0.0189601, 0.00649897, -0.0200453, 0.0216758, 0.00228834, -0.00356912, -0.00151721, 0.0510172, 0.00956797, 0.0445479, 0.0328156, 0.0366522, -0.0176403, 0.0162322, 0.0263361, 0.0167747, 0.0171537, 0.020836, -0.0027768, 0.0227387, 0.00722892, 0.0121144, -0.00128419, -0.00880079, -0.0547872, 0.0437933, 0.0273508, 0.0385881, 0.00593976, -0.0251863, -0.0511127, 0.00745484, 0.0243823, -0.01806, 0.0425324, 0.0313435, -0.000269745, 0.0121639, 0.0426758, -0.0145235, 0.0672339, 0.0262064, 0.0245184, 0.00122572, -0.0168639, 0.00353311, 0.0138213, 0.00638814, -0.0148536, -0.00377048, 0.004359, 0.00669755, -0.00995454, -0.00133381, 0.00103922, 0.00188473, -0.0301418, 0.0458723, 0.000513868, 0.00777714, -0.0235083, -0.0112949, -0.0180784, -0.0206254, 0.0405219, 0.0125812, 0.00721617, 0.0351888, 0.000366055, -0.0018665, -0.0444929, -0.0526258, 0.0202319, 0.00809414, 0.0150038, 0.0344037, 0.0364414, 0.00495936, -0.0143787, 0.0455794, -0.0080931, -0.0122067, 0.00180888, -0.00436631, -0.0024548, -0.0239423, -0.0288713, -0.038073, 0.0483469, 0.00027175, 0.0588191, -0.022172, -0.0124106, -0.0249332, -0.027987, -0.0464624, 0.00587526, 0.00521879, -0.0368139, 0.0236552, -0.00188665, 0.00694483, -0.018985, 0.00424958, -0.0364502, -0.0518383, 0.0295255, 0.0227113, 0.0161915, -0.0290897, -0.00631587, 0.00921579, 0.0271621, 0.000472262, -0.0162903, 0.023598, 0.00317987, -0.00916241, 0.00942092, -0.0710697, 0.0306829, 0.0130619, 0.0466266, -0.0217194, 0.071986, -0.0578315, -0.0544242, -0.0302714, 0.00588425, -0.0285863, 0.0221358, 0.0414176, -0.00320618, -0.00246745, 0.0241348, 0.0517324, -0.0260094, 0.00373264, 0.0524823, -0.00320775, 0.0345464, -0.00239719, -0.0194154, -0.0445982, -0.00647256, 0.0412561, 0.00105053, 0.0125, -0.0125615, 0.00276406, -0.00331708, -0.0341335, 0.0397577, -0.00910564, 0.0508037, -0.0327526, -0.0346282, -0.038255, -0.0405823, -0.020066, -0.0194331, -0.034341, 0.00266541, 0.0146978, -0.00190964, 0.00326667, -0.0107712, 0.0192818, -0.0540233, 0.0258158, 0.0214539, -0.000833941, -0.026183, 0.00187944, 0.022951, -0.00472636, -0.0474342, -0.0761981, 0.00575973, 0.00678013, -0.00581113, -0.0647305, -0.00307462, 0.0197076, 0.00161233, 0.0553459, -0.0261319, 0.0355234, 0.00645767, 0.066317, 0.0193802, 0.00599176, -0.00126179, 0.0157728, -0.00311251, 0.0399365, 0.00877207, -0.00785634, -0.0384768, -0.0702984, -0.0116098, -0.0332779, 0.0114168, 0.0168937, 0.0260305, -0.00615563, 0.0329408, 0.0118677, 0.0598801, -0.0338155, -0.0122542, 0.0194394, 0.0108641, 0.00400496, 0.0346493, 0.0262611, 0.00506164, 0.0419576, 0.0263572, 0.0697807, -0.00422612, 0.00406158, -0.0404899, 0.0131897, 0.00526747, -0.00482008, 0.0260126, 0.00387165, 0.00340444, 0.0421579, 0.0123793, 0.0124436, 0.0320292, 0.0248504, 0.0110959, 0.00688521, -0.0176271, -0.0110544, -0.00873464, -0.0336809, 0.0372375, -0.0122826, -0.0576008, -0.00494693, -0.0185388, 0.0355892, -0.00378503, 0.00172824, -0.0343365, -0.016711, -0.000193838, -0.0153611, -0.00326056, -0.0525619, 0.00670324, 0.0459229, -0.0496705, 0.0295977, -0.0161657, -0.0237651, 0.00400106, -0.0200711, 0.00515247, 0.0579172, 0.0284312, 0.0580023, -0.00896571, 0.0417717, -0.0171989, -0.00386949, -0.0109948, 0.0166041, -0.0516282, -0.0132803, 0.0251843, -0.00752595, 0.00374255, -0.020226, -0.000383405, 0.0172203, -0.0301044, 0.021036, -0.041532, 9.14171e-05, -0.00917987, 0.00517329, -0.0507567, -0.0371149, -0.00985642, 0.0159301, 0.0199887, 0.00481202, 0.00538595, 0.0321705, 0.00976555, -0.0334773, 0.00396004, -0.0223656, -0.0204051, 0.0383353, 0.0173524, -0.0245648, -0.0171659, 0.0353105, 0.0447002, 0.0344556, 0.0130312, 0.0135605, 0.00433422, 0.0379113, -0.0274783, 0.0261771, -0.00569994, -0.00263141, 0.00149454, -0.000785291, -0.0155358, 0.00938337, -0.0662249, -0.00893395, 0.00176967, -0.0272189, -0.0260871, -0.0275146, -0.000748075, 0.0164374, 0.00499196, 0.00330449, -0.0147056, 0.0294672, -0.0434376, -0.0169921, -0.0104941, -0.0145229, -0.0516931, -0.0122789, 0.0722489, 0.00562466, -0.0357236, -0.0110863, -0.0304004, 0.0357682, -0.0152081, 0.00810785, -0.0270379, -0.0636857, -0.0231608, -0.0295872, -0.0179123, -0.03039, -0.0296554, 0.000167879, -0.0163449, 0.00840792, -0.0175222, -0.0233365, 0.000581587, -0.0240656, 0.0404683, 0.0328571, 0.0263831, 0.00824076, -0.0135938, -0.0186556, -0.0119853, 0.0186383, -0.00463421, -0.0232687, -0.00856208, 0.0555119, -0.057649, -0.0389859, 0.0235213, -0.00819527, 0.000482865, 0.0128785, 0.00958853, 0.00796247, -0.0264196, -0.0290019, 0.0086075, -0.0211864, -0.0226827, -0.0185038, -0.0332271, 0.00816377, 0.0471777, 0.000836299, 0.00571084, 0.00307033, 0.0499476, 0.0229999, 0.00954627, 0.0194258, -0.0365404, 0.00608651, -0.0701417, 0.0229277, -0.0122418, -0.0204337, 0.00116103, 0.0474407, 0.0135442, -0.0168491, -0.00366984, 0.00443583, -0.0584361, -0.0201513, -0.0179504, -0.0350416, -0.0546183, -0.0473991, 0.0126165, -0.00849989, -0.0585292, -0.0700049, 0.00397876, -0.0437726, -0.0287146, -0.00922461, 0.000678782, -0.00949083, -0.005764, 0.00087919, -0.0726961, -0.00405326, -0.0455347, 0.00351989, -0.0311013, 0.0320639, 0.00197317, -0.00739862, 0.00643858, -0.00644554, 0.0605824, 0.0238611, -0.0155249, 0.00480144, 0.0129793, -0.0248237, 0.0114702, -0.028131, -0.0315982, 0.0458914, -2.0246e-05, 0.009321, -0.0280651, -0.0409079, 0.000787071, -0.0289594, 0.0303354, 0.0179163, 0.000727365, 0.0158263, 0.0224167, -0.012563, 0.00470821, -0.0460674, 0.00907484, 0.0439612, -0.0190426, 0.017747, 0.0180383, -0.0385598, -0.00445381, -0.0388173, 0.00307027, 0.0390506, -0.00383379, 0.00815942, 0.0189809, 0.00666165, -0.0188898, -0.00144076, 0.0248646, -0.0107636, -0.111765, -0.00466821, 0.0199883, 0.0289194, 0.0436443, 0.027776, -0.0631927, -0.00683393, -0.00630079, 0.034085, -0.0413531, 0.0156416, 0.0429412, -0.0309602, -0.0280032, 0.0863962, 0.00726812, -0.0178925, -0.050458, -0.00515759, -0.0383639, 0.0217129, -0.0252171, -0.0121183, -0.00593617, -0.0239706, -0.0375952, 0.00282229, 0.0202371, -0.00112399, 0.00242112, -0.0547867, 0.0036519, 0.0617886, -0.0285158, 0.0669982, 0.0593272, -0.0100364, -0.0249109, -0.0068134, -0.00111703, 0.0897432, -0.00922176, -0.0566056, -0.00435019, -0.00137601, -0.0136087, 0.00913664, 0.030852, -0.0165228, -0.0250893, 0.0210865, 0.0132584, 0.0123582, -0.0118598, 0.00822656, -0.00272855, -0.0157937, -0.0229062, 0.0460416, 0.00176899, -0.0129409, -0.0230333, 0.00856633, 0.0442823, 0.00670014, -0.00221495, 0.0368455, 0.0334406, -0.0417264, 0.00205618, 0.0293433, 0.000363099, 0.0116043, 0.014198, -0.00185352, -0.0137761, 0.0138409, 0.0526433, 0.0022874, 0.0470359, 0.0038048, 0.0224146, -0.0363127, 0.014938, -0.0307725, -0.0140542, 0.00826549, -0.0222711, 0.00949408, 0.0244928, -0.0251203, -0.0077422, -0.00379616, -0.000944136, -0.00979543, -0.0762225, -0.00429333, 0.0177003, 0.00478718, 0.00976152, 0.0288861, -0.0266557, -0.0422492, -0.0052109, -0.0215074, -0.0354915, 0.0162164, 0.00167663, -0.0175873, -0.0570412, 0.0166383, 0.0170934, -0.0355761, -0.0183602, 0.00422797, -0.0222572, 0.0424946, -0.00703117, -0.0367151, -0.00534039, -0.0406896, 0.00393916, -0.014714, -0.000230232, 0.0199904, -0.0159047, -0.013311, 0.0355121, -0.00439423, -0.0302459, -0.0337154, -0.016226, 0.00286335, -0.0246462, -0.0109052, 0.000109362, 0.0125104, 0.00928524, -0.0458576, -0.0377354, 9.57142e-05, -0.00359129, -0.0437334, 0.00072289, -0.0336724, -0.0209777, 0.0359813, -0.0251792, 0.0329653, 0.0225202, -0.0355407, -0.00247157, -0.0158055, 0.0148448, 0.0379155, 0.011635, -0.0340404, -0.0418555, 0.0469112, 0.0465596, -0.027236, 0.0148441, -0.0767391, -0.0277576, -0.0379966, 0.0210993, 0.048318, 0.00206424, -0.0221238, 0.0145716, 0.00630087, 0.0141517, 0.00851741, 0.0379613, 0.031922, 0.052331, 0.0290903, 0.0255784, -0.0462435, -0.00655258, -0.0333217, -0.0133822, 0.0018788, -0.0162168, 0.0173835, 0.0350537, -0.0400175, -0.00580798, -0.0323258, -0.000915548, -0.00829743, -0.0290272, -0.0113344, -0.0334852, -0.0220641, -0.027969, 0.019723, 0.00192606, -0.0634412, -0.00339373, -0.0126695, -0.00221482, 0.00944957, -0.00554699, -0.022905, -0.0697286, 0.00952812, 0.0191425, 0.0164438, -0.0163595, -0.0244985, -0.0168254, 0.0501218, 0.00686399, -0.0104662, 0.0215797, -0.014261, 0.0436891, -0.0087841, -0.00853463, -0.0130588, -0.0268723, -0.00232485, 0.0303798, 0.00923996, -0.0412496, -0.00916178, -0.0194319, 0.00397022, 0.00850824, -0.0296533, 0.00152491, -0.00783438, 0.0502965, -0.030698, -0.0300177, 0.0387968, 0.0255374, -0.0578471, 0.00786553, -0.00599854, 0.00162396, 0.0419405, -0.00238554, 0.0542467, 0.0186045, -0.023666, 0.0138468, 0.00491005, -0.00357563, 0.0462569, -0.0162121, -0.0266311, -0.0428522, 0.0540605, 0.0146961, -0.0124618, 0.0137038, -0.0443018, -0.0122174, -0.0063614, 0.0110756, 0.0266076, 0.00251148, -0.0472006, 0.0274671, 0.0261779, 0.0388807, 0.0469203, 0.0550608, 0.00837991, -0.0290928, 0.0134409, 0.0276761, 0.00446776, 0.00438683, -0.00194135, 0.0302701, 0.00925234, -0.0171253, -0.0219285, -0.00875971, -0.00548005, 0.0257667, -0.00453129, -0.0150414, 0.0260958, 0.0281345, 0.00252755, 0.0031665, 0.00472643, 0.00236408, -0.00700697, -0.0066055, 0.011608, 1.76365e-05, 0.0356231, -0.0103136, 0.0356986, 0.023392, -0.0108378, 0.013444, 0.00508406, 0.00810544, 0.0299994, 0.0157047, 0.0421123, 0.0585171, -0.030333, 0.043804, 0.02324, 0.00141567, 0.000344733, -0.00293341, -0.00155834, 0.0397323, -0.0444414, -0.000741789, -0.0286635, 0.014216, -0.00419618, 0.000983209, -0.00995998, 0.0193888, 0.00347698, -0.0236436, 0.0172155, 0.00685905, -0.0313963, -0.0566782, 0.0159256, 0.0666651, 0.00391081, 0.0151704, 0.0226522, -0.0276641, -0.0213554, -0.0551256, 0.00395771, 0.0165427, -0.00280628, 0.0206456, -0.0148108, -0.0182813, -0.00512574, -0.00466189, 0.004553, -0.0281913, -0.0157467, -0.0258352, -0.0190863, 0.00663788, 0.0207327, -0.0514027, -0.0292175, 0.0113243, -0.00257897, 0.0163552, -0.00711536, 0.00770484, 0.0289448, 0.0186403, 0.00859603, -0.0188826, 0.00220062, 0.0087827, -0.0272894, 0.0173037, 0.01995, -0.00742025, -0.0302156, -0.0289786, -0.044817, -0.00532194, -0.0141575, 0.0169136, -0.0254001, -0.00668925, 0.00592988, 0.0441554, 0.00202242, 0.0192583, -0.000843368, -0.0280319, -0.00440579, 0.0427084, 0.0341435, 0.0182985, 0.00252833, -0.0161266, 0.000345065, -0.00653283, -0.013628, -0.0620299, 0.00567404, -0.0155878, -0.0442552, -0.0015757, 0.00503855, 0.0324377, 0.0229831, 0.0233277, 0.0130806, -0.0123453, -0.0254234, 0.0589194, 0.016494, 0.0327295, 0.00507073, -0.00502475, 0.00281803, 0.0429952, -0.050087, 0.0211474, -0.0221757, 0.0214103, 0.0025016, 0.0106015, 0.0490206, -0.0026242, 0.0116742, 0.00385863, 0.00681442, 0.000445105, -0.0229699, -0.0227245, -0.0300938, 0.040361, 0.0265176, 0.0065621, 0.00329807, -0.0212633, -0.0444231, -0.0620362, 0.0148472, -0.0219853, 0.0379529, 0.0200711, -0.00443739, -0.00148508, -0.0179985, -0.0134985, 0.00273627, -0.0095475, -0.0328694, -0.0214057, -0.0534038, 0.0223422, -0.00161909, -0.0388623, -0.0116243, -0.00314249, -0.0289933, 0.0414049, -0.0153455, 0.00169756, 0.0337906, 0.0863113, 0.00366919, -0.047367, 0.00361242, -0.00493004, -0.0533587, 0.0258383, 0.0211871, -0.0433103, -0.044999, -0.049535, -0.067563, -0.0306388, 0.00464345, 0.018592, -0.00549222, 0.00633186, 0.00948295, 0.0210671, -0.00144303, 0.0542952, -0.00364656, -0.0424687, -0.0159175, 0.0275405, -0.000694601, -0.00815467, -0.02094, -0.0390953, -0.0151821, -0.00798653, -0.05353, -0.0624178, 0.00356693, 0.0100471, -0.0331636, -0.0103524, -0.0307779, -0.00157449, 0.0247653, 0.00826506, -0.0155343, -0.028996, 0.00846359, 0.0658074, -0.00234791, 0.0463925, -0.00362815, -0.024867, -0.00159688, 0.0164834, -0.0353161, 0.0261038, -0.0234995, 0.0575006, -0.0174611, -0.00446602, -0.00382448, -0.0293567, 0.00186282, 0.0309984, -0.0200032, -0.00172821, -0.0248237, 0.0181366, -0.0427666, 0.0343675, 0.0183416, -0.00342847, -0.0167834, -0.0390022, -0.0368456, -0.0359132, -0.00403578, -0.0414286, 0.0405816, 0.0210415, -0.0168173, 0.0116903, -0.031933, -0.0243957, -0.017909, -0.0425079, 0.0190558, -0.0187837, -0.0584319, 0.0421159, -0.0102997, -0.0477176, -0.0302219, -0.0401603, -0.0342911, 0.0507769, -0.0174912, -0.000567084, 0.0227689, 0.0856497, 0.00741894, -0.0619208, 0.00878686, -0.0125377, -0.0144757, 0.0200664, -0.0194816, 0.0420169, 0.0112042, 0.0463292, 0.0318891, 0.0217107, -0.0056572, -0.00824413, 0.00917795, -0.0252795, -0.010788, -0.00790794, 0.0359352, -0.0189283, -0.0660453, 0.00739709, 0.00941801, 0.00616177, 0.0713277, 0.00857961, 0.0215314, 0.0037355, -0.016495, 0.00914756, -0.00432128, -0.00765573, 0.000315851, -0.07881, 0.0232849, -0.00431158, -0.0361668, 0.0209875, -0.0139563, 0.00924918, -0.0340769, 0.0302132, 0.0448144, -0.0238354, 0.0047128, 0.00410786, 0.0216832, -0.0176481, 0.0173555, -0.0212416, -0.00443495, 0.0358898, -0.0189178, 0.00979682, -0.0446079, -0.0013149, 0.0556488, -0.0168404, 0.0312155, -0.00375845, -0.0167109, 0.0077113, 0.0168644, -0.00530558, 0.00794862, -0.0346117, 0.0520181, 0.0322083, -0.0188767, -0.0183268, -0.00224892, -0.0203512, -0.0208597, 0.045093, 0.0768218, -0.000427328, 0.00994478, 0.0477343, -0.00975091, 0.0417824, 0.0565075, 0.0471505, -0.039038, -0.0132028, 0.0356317, 0.00205632, -0.020268, 0.0161149, -0.0598657, -0.0290167, -0.0123442, 0.00455334, 0.0497176, 0.0035027, -0.0164297, 0.0146231, 0.0367167, 0.0923221, 0.0248908, 0.027843, -0.0309753, -0.000647088, -0.0116645, -0.00433509, -0.0243625, 0.000865073, -0.012374, 0.0390763, 0.0139247, -0.0588596, 0.0272902, -0.051433, -0.0297135, -0.0123121, 0.0176791, 0.0185074, -0.0603015, -0.00542708, -0.014323, -0.0160897, -0.0365054, -0.0110044, -0.0128326, 0.00632335, -0.0405563, 0.00126548, 0.0163809, 0.0139668, 0.0267381, -0.0824395, -0.023835, -0.0502984, -0.0123143, -0.00935442, -0.0450883, -0.047399, -0.0354598, 0.00584849, 0.014986, 0.00729934, -0.0221432, -0.0467266, 0.0125854, -0.0224262, -0.0112451, -0.0114162, 0.0204426, -0.0136281, -0.0113306, -0.0206982, 0.00308566, -0.0313528, -0.0252246, 0.0127176, 0.00408562, -0.0130647, -0.0612579, -0.000300053, 0.0415286, 0.0148215, -0.036606, -0.0651636, -0.00251345, -0.00434085, -0.0154991, 0.0234927, -0.0145105, -0.0468647, -0.0374584, -0.0594385, 0.0789801, -0.0283069, -0.00542167, -0.028004, -0.0102802, -0.00180989, 0.0595106, 0.0322425, -0.00364872, -0.0123298, 0.0654388, -0.00754004, -0.0198523, 0.000496482, -0.012378, 0.000931372, -0.00537719, -0.0141318, 0.0128911, -0.0039684, -0.0155384, 0.0221273, -0.0134914, 0.0468324, -0.0131755, 0.00227285, -0.00538667, 0.0171051, 0.0242695, -0.0312763, 0.0237648, 0.0116153, -0.023519, -0.0181987, 0.0416609, -0.0427821, 0.00429214, 0.00181511, -0.0420133, -0.0111602, 0.0406903, 0.0213569, -0.0174205, -0.0236829, -0.00771164, -0.00660381, -0.0349701, -0.0065044, 0.0141612, 0.0237064, -0.0260423, 0.00217884, 0.00774808, 0.0037463, 0.0491884, -0.00507007, -0.0380897, -0.0206083, 0.0154484, -0.0295658, -0.0188171, -0.0534416, 0.0051121, -0.0340185, -0.00936279, -0.0194223, -0.0259325, -0.0231751, -0.00354429, -0.0145388, -0.0438764, 0.00511011, 0.0462351, -0.0287435, 0.0013602, 0.00533698, 0.00500604, -0.0407891, -0.0814223, 0.00455621, 0.00199972, 0.015414, -0.0388234, 0.00241871, 0.0325635, 0.0140184, -0.0298152, -0.0286004, -0.00822132, 0.0122904, 0.00476863, 0.0138967, 0.00126025, -0.0458333, -0.0359696, -0.059376, 0.029713, 0.000519271, -0.0334784, 4.65326e-05, -0.00190543, 0.00886001, 0.0293216, 0.0547172, 0.0327264, -0.041154, 0.0477908, 0.0148555, 0.0108235, 0.00735921, -0.063419, 0.0390044, 0.0133191, 0.00164211, 0.0277477, -0.00239808, 0.011441, 0.0104786, -0.00482419, 0.0746222, -0.0206878, 0.0130005, -0.0149803, 0.0189569, 0.0116427, -0.0187954, -0.0191606, -0.0307029, 0.0582995, 0.0320799, 0.0327157, -0.0123662, 0.0504252, -0.00335548, 0.0289651, 0.0139291, -0.0292969, 0.0359972, -0.0178744, 0.000362678, -0.00343015, 0.010134, 0.0369352, 0.022595, -0.0286027, -0.0107023, 0.00562786, -0.00455722, 0.00280884, 0.027994, -0.0151631, 0.0223852, 0.0415062, -0.00758551, 0.00516673, -0.00173274, 0.017463, -0.0152373, 0.0276294, -0.0042234, 0.0452764, 0.0180394, 0.00518133, -0.0765544, 0.0343722, -4.9191e-05, 0.0516853, 0.0245948, -0.020385, 0.0301883, 0.0323438, 0.00031268, 0.0130983, -0.0014295, 0.000262993, 0.0380775, -0.0214776, -0.00631225, -0.0123063, -0.00408668, 0.0303522, 0.035358, 0.0422506, 0.0844327, -0.0512883, 0.0141577, 0.0150958, -0.0204339, 0.00606291, -0.0320139, -0.0278335, -0.0156431, 0.0154263, -0.0248411, 0.00282767, -0.0852017, 0.0349057, -0.0253058, -0.0031977, -0.00343523, -0.0252787, 0.0400212, 0.0250879, -0.0157333, -0.0022664, 0.0100513, -0.0700009, 0.0209373, -0.0315627, -0.0235071, -0.0250194, -0.00927489, -0.0107933, -0.0200703, -0.0157248, 0.081332, -0.119257, 0.0279342, 0.0203462, 0.0154042, -0.0306438, -0.0233875, 0.00857579, -0.0108302, 0.0230843, 0.000283759, -0.0213095, 0.0978445, 0.0106233, -0.0122846, 0.0101402, 0.0367105, -0.01185, -0.0412155, -0.029078, 0.00706108, -0.021079, -0.0417739, 0.0342568, -0.0234404, 0.00295323, 0.0140927, -0.0315343, -0.000784306, -0.0289532, 0.0126964, -0.0469246, -0.0509363, 0.0849361, -0.0449441, -0.00426874, -0.00555338, -0.0197123, -0.0237721, -0.00692385, -0.0652059, 0.00991761, -0.00561611, -0.0317059, -0.0224753, -0.0238248, -0.0208138, 0.0343716, 0.0137695, -0.0460097, -0.020647, -0.016743, 0.00496803, -0.00535895, -0.0352892, 0.0351821, 0.0024379, -0.0174426, 0.00925186, -0.0502445, 0.000102411, -0.0200354, 0.00341593, 0.00210655, -0.0214752, -0.0194259, -0.00689661, 0.015936, 0.0061236, 0.0325969, -0.00453213, 0.000183629, -0.0162214, 0.00198497, -0.00662998, -0.00204033, -0.0799611, 0.0217563, -0.00164041, 0.0137361, 0.00502372, -0.0119594, 0.00969208, -0.00738038, -0.0196738, 0.0232193, 0.018967, -0.0320071, 0.030286, -0.0165413, -0.020337, -0.045093, -0.00539625, 0.0265801, -0.00175149, 0.0389889, 0.0180793, -0.0536144, 0.015227, 0.000191975, -0.0107221, -0.0191278, 0.0120931, 0.0214911, 0.0421305, 0.00656881, 0.00622628, -0.0356501, 0.141542, 0.0133231, 0.0104158, 0.0127952, 0.0633418, 0.00712591, 0.0195489, -0.0296362, -0.0205638, -0.0205409, -0.0244829, 0.00856703, 0.00475489, 0.00655439, 0.0129517, -0.021421, -0.00464732, 0.014631, -0.010917, -0.0128662, -0.0494342, 0.0664444, -0.0214436, 0.0305008, -0.00896079, -0.00875556, 0.00211622, -0.00112761, -0.0191932, 0.0100087, 0.00817737, -0.0311428, 0.0283124, 0.00423899, -0.00388578, 0.0097784, -0.0266705, -0.0312599, 0.00290936, -0.042188, -0.0168651, -0.0136929, 0.00254308, -0.00614511, -0.0156601, -0.0182138, -0.0238529, -0.0140104, -0.00419194, 0.0102717, 0.00449081, 0.00699414, -0.109412, 0.0214953, -0.00107274, 0.00551756, 0.0188972, -0.0120837, -0.0240954, -0.0234423, 0.00834582, 0.030429, 0.021346, -0.00673711, -0.0835139, 0.0277236, 0.011632, -0.00360591, -0.0510227, -0.0298597, 0.0248238, -0.00614826, -0.0146256, 0.00435553, 0.0171637, -0.0539478, 0.0455591, -0.0201945, -0.0258673, 0.0101816, -0.00950863, 0.00512247, 0.0182647, 0.0679865, -0.0840761, -0.00419683, 0.0157987, -0.0129302, -0.0117959, -0.0199775, -0.0100231, 0.013972, -0.0229442, -0.0348554, -0.0406183, 0.0184305, -0.00291588, -0.023699, 0.0327551, -0.00308528, -0.0152328, -0.00118462, 0.00246821, -0.024147, -0.0226694, -0.0150607, -0.0229611, 0.00953259, -0.0155517, 0.0341952, -0.021798, 0.00272001, 0.00546864, -0.0211028, -0.00432598, -0.0132696, -0.0193049, -0.0307358, 0.0103343, 0.0209662, -0.00552705, 0.00796917, -0.0618908, 0.00657332, 0.000875389, -0.0238219, 0.0396491, 0.00310111, -0.00556206, 0.0095901, 0.026798, 0.0102974, -0.00288542, -0.0014533, 0.0125626, 0.0159701, 0.0334395, 0.00563273, 0.0359672, 0.0136225, 0.0229127, 0.00202433, 0.0118981, -0.000335531, -0.000235577, 0.0433476, 0.010308, -0.0255123, 0.0172558, 0.0026244, -0.00223702, 0.010116, -0.0424783, 0.0367403, -0.00471668, 0.0373856, -0.00448256, -0.00892516, 0.0245962, -0.0202646, 0.0214154, -0.0281227, -0.00167781, 0.0867692, -0.0303254, 0.0109927, -0.0373551, 0.00676836, 0.0190936, -0.017693, 0.0154667, -0.0676893, 0.020897, 0.0401307, 0.0113951, -0.00591524, 0.00249452, 0.0082619, -0.00537914, 0.00358542, 0.0637177, -0.00902205, 0.0248336, -0.017323, 0.00151504, -0.036638, -0.0085603, -0.000715871, 0.00278404, -0.0220339, -0.0240812, 0.000243447, -0.0281302, -0.00774038, -0.0348061, -0.0563739, 0.0120648, 0.0139032, -0.00548174, -0.0675891, -0.00383097, 0.0392246, -0.0548486, -0.0109366, 0.000513169, 0.010155, 0.00106595, 0.00864195, 0.00529626, 0.0367338, -0.00942058, 0.0144265, -0.112819, -0.00390268, -0.00849643, 0.00372033, 0.0161874, -0.00011651, -0.0189236, -0.0196161, 0.0303473, -0.0114029, -0.0186768, -0.00669367, -0.0288584, 0.0404653, -0.00661688, -0.0480701, 0.00486981, -0.00880277, -0.000237547, -0.012644, -0.0258408, 0.0246012, 0.0153495, 2.40863e-05, -0.0043979, -0.0290872, -0.013976, -0.00165947, 0.000326789, 0.0091288, 0.00835056, 0.00694143, -0.0332456, 0.0377201, 0.0191231, 0.0162289, -0.02386, 0.0284168, 0.0342602, 0.0209664, -0.0455867, -0.0404044, -0.0129521, -0.0174357, 0.0126771, -0.0288348, 0.00835953, 0.0639454, -0.0157344, 0.00151096, -0.0519527, 0.0282672, -0.00777823, 0.0130179, 0.030248, -0.0273729, 0.01571, 0.000427067, 0.00239225, -0.0170784, 0.00341586, -0.00676369, -0.0404584, -0.0157745, 0.0749481, 0.0121759, 0.0314243, 0.0127083, 0.0587417, -0.000603521, 0.0164792, 0.0160993, 0.0122244, -0.000882627, -0.00439987, -0.0176178, -0.028568, 0.0165111, -0.0498755, -0.0768809, -0.000968071, -0.00383526, -0.0213959, -0.0783828, 0.0550421, 0.0199813, -0.0342929, -0.0281559, -0.00474055, 0.025416, 0.054145, 0.00252817, 0.00346699, 0.0222548, 0.0510052, 0.0317413, -0.123597, 0.0179512, -0.0161768, 0.0167012, 0.0479044, -0.00122661, 0.0304275, 0.010778, -0.013963, 0.0419858, -0.0421901, -0.0296608, -0.0241146, 0.0162128, -0.0751636, -0.0806342, 0.00758313, -0.0352263, -0.00169417, -0.0424055, -0.0297723, 0.0454077, 0.00365682, -0.00109796, 0.00142927, -0.00828891, -0.0207071, -0.0135208, -0.00325582, 0.0170808, -0.00428945, 0.0367513, -0.0151143, 0.0287546, -0.00518043, 0.00975942, 0.0133395, 0.007843, 0.00111326, -0.0081021, -0.0155087, -0.0362092, -0.0418092, -0.0269084, 0.0285417, -0.00566665, -0.0264863, 0.0196518, 0.00672945, -0.0183583, -0.0196682, 0.01036, -0.00573884, -0.00981215, 0.00323872, 0.00507892, 0.00754713, 0.000200772, -0.0077466, -0.0417263, 0.00196464, -0.0349914, -0.0343533, 0.00360352, 0.0634163, -0.00797855, -0.0168705, -0.00228135, 0.0297208, 0.012692, 0.0235049, 0.00791508, 0.0160692, -0.0408701, -0.00981889, -0.00102516, -0.00887779, -0.0337186, 0.00857374, -0.02293, 0.00522861, -0.00147295, -0.0500916, 0.0510454, 0.00899236, 0.0203848, 0.00480489, 0.0038489, -0.0456995, 0.0289488, 0.00381236, 0.0100144, 0.0142463, -0.0111145, -0.023192, -0.000503102, 0.0184431, -0.00459089, -0.0201649, -0.0172115, 0.00610246, 0.00698406, 0.0186078, -0.0278018, -0.0147334, -0.0280016, -0.00130265, 0.012996, 0.0067291, -0.0231139, 0.0227001, -0.0452574, 2.5e-05, 0.00250794, -0.0152076, 0.0254406, -0.00183113, 0.0232471, -0.0084127, 0.0217755, -0.028949, 0.0153144, -0.00331823, 0.0399032, 0.00824011, 0.0167457, -0.0162552, -0.00839023, -0.0178076, 0.00147533, -0.00139314, -0.0383936, 0.030995, -0.00392454, 0.0567601, -0.0490237, -0.0304585, -0.0267757, -0.040693, 0.0243231, 0.0116713, -0.0169765, 0.0421708, -0.0490417, 0.0180433, 0.0170809, -0.0327531, -0.00239716, -0.0240217, 0.0067802, 0.00882758, 0.0213371, -0.036073, 0.0147037, 0.000698261, 0.018682, 0.0105443, -0.0226374, -0.0188082, -0.00946294, 0.0103437, 0.00904504, -0.0370475, -0.0155142, -0.0123764, 0.0129839, 0.0368915, -0.00470491, -0.0104772, -0.010274, -0.0135201, 0.00256245, -0.0138275, -0.0439997, 0.0086792, -0.000588324, -0.00542111, 0.0106153, -0.00142577, 0.051027, 0.0196007, 0.000526228, 0.00444776, -0.0125416, -0.0254012, 0.0266311, -0.0122409, 0.0189929, 0.00326499, -0.0137682, -0.00804075, -0.0102961, 0.0111869, -0.0200624, 0.0158472, -0.0323198, -0.0196395, 0.0125353, 0.0190027, -0.0175844, 0.00520731, -0.00606691, 0.00106487, 0.00643808, 0.00765318, -0.02192, 0.0184829, -0.0284227, -0.0391577, -0.002872, 0.0263436, 0.0407725, -0.00228462, 0.0102221, 0.00420497, -0.00848084, -0.0285513, 0.0360175, 0.00150771, 0.0506975, -0.000458745, -0.00692185, 0.000518889, -0.0152218, -0.0259415, 0.00214227, 0.0233326, -0.0396377, -0.0231708, -0.00606006, 0.0469763, -0.0418052, -0.0328778, -0.00737669, -0.0152003, -0.00343315, 0.0287161, -0.0119785, 0.0325086, -0.0258368, -0.0303227, 0.0222103, 0.00463192, 0.0184941, -0.0104468, -0.0240242, 0.0136802, -0.0204466, -0.0308978, 0.0329096, 0.00144367, 0.0216829, 0.00315334, -0.0368718, -0.00368115, -0.0289905, -0.0124826, 0.023645, -0.000836802, -0.024251, -0.0259434, 0.0295668, 0.056906, 0.00276997, -0.0286274, -0.0484633, -0.0255481, 0.0097195, 0.0281352, -0.053081, 0.0160578, 0.00769073, 0.00750451, 0.04089, -0.0316267, 0.0469981, 0.0208587, 0.00386031, 0.029008, -0.0255923, -0.0440828, -0.00482139, 0.00717059, -0.0290603, 0.00639886, -0.0430589, -0.0118811, -0.0260422, 0.0156318, -0.016932, -0.0270248, -0.0396741, -0.0280634, -0.0129412, 0.0269655, -0.00814226, -0.0392273, -0.0461482, -0.0360049, 0.027931, 0.0580891, -0.0290644, 0.023721, -0.0205484, -0.0169988, -0.00135236, 0.00732389, 0.017713, -0.00362353, -0.0112246, 0.0318213, -0.0339125, -0.0567572, -0.00442679, 0.00767591, -0.0281979, -0.0017053, -0.0362592, -0.00501929, -0.0168489, -0.0222161, -0.00864394, -0.0251959, -0.0413538, -0.0360205, -0.00238057, 0.0494215, -0.0346596, -0.036029, -0.0414784, -0.0485991, 0.00870502, 0.070238, -0.0320445, 0.0534652, -0.0176991, -0.0107269, 0.0392192, -0.0353116, 0.0313783, 0.0134557, -0.0130111, 0.0280135, -0.0389212, -0.0605964, 0.0154173, 0.0225581, -0.0215681, 0.00759177, -0.0564349, -0.00184935, -0.0200898, -0.00583014, 0.00248225, -0.0351999, 0.0276728, 0.0168191, -0.00109602, 0.0153715, -0.0163465, -0.0155708, -0.014656, -0.0299959, 0.0465515, -0.0259254, -0.0257674, 0.0115477, 0.0361604, -0.0187427, -0.00397006, 0.0214889, 0.0425878, -0.0223046, -0.000447982, 0.0151, 0.00927663, -0.0121722, -0.0190514, 0.00848288, -0.0119808, -0.00499093, 0.0173067, -0.00528509, 0.0325903, 0.0326831, 0.00198142, -0.0410375, 0.0279198, 0.00827778, 0.00269132, 0.00766383, 0.0131985, 0.0433902, -0.0339423, -0.00590393, 0.0260928, -0.0238708, 0.00203455, 0.0139254, 0.0481086, 0.00555268, -0.0271726, -0.0164241, -0.013416, 0.0692976, -0.0266507, -0.0309614, 0.0179234, 0.0145784, 0.00609463, -0.0109327, 0.00430223, 0.00103295, 0.0499204, 0.0248292, 0.0629131, 0.0359426, 0.0535739, -0.0147863, 0.0486873, -0.00976228, -0.0344088, 0.00610077, 0.0267596, 0.0163697, 0.0191619, 0.0187219, 0.0148742, 0.00659738, -0.002454, -0.00464958, 0.0153909, 0.0202283, 0.0284462, -0.0249348, 0.0210757, -0.0162171, 0.00313576, -0.0353095, 0.0303318, 0.0384257, -0.0067969, 0.00430602, 0.00457983, -0.00215024, 0.0298877, 0.0120674, 0.00318913, -0.0298102, 0.00791711, -0.0125896, -0.0307142, 0.0079514, 0.00201091, 0.0250138, -0.00447323, -0.0634633, -0.0106018, -0.0404248, 0.022837, -0.0182014, -0.0419308, 0.0116043, -0.00972934, -0.0245658, -0.0120892, 0.00432683, 0.024927, -0.0365999, 0.00340663, 0.023738, 0.0176683, -0.00512144, -0.0259599, -0.0181791, -0.0216884, -0.00480978, -0.00829638, -0.00751875, -0.0202831, 0.0108352, -0.0137867, -0.0255037, -0.00868218, 0.051311, 0.00951558, -0.00770525, -0.000303174, -0.0248207, -0.0280818, 0.0199559, 0.0245307, -0.00826113, -0.0032832, -0.0219992, 0.000272708, -0.0128114, -0.018172, -0.000266135, -0.0148241, 0.0842051, -0.00546844, -0.0124569, 0.00461934, -0.02148, -0.000964499, 0.0173564, -0.0364229, 2.25003e-05, -0.021014, 0.0267763, -0.00205578, 0.0130971, 0.0220036, -0.00336037, -0.0157278, 0.00708142, -0.0219617, 0.0164501, 0.00640547, -0.0268106, -0.000482986, 0.0123964, 0.0422525, 0.0049131, -0.0197213, -0.00814335, -0.0362882, -0.0260239, -0.0124523, -0.0211939, 0.0145583, 0.00590051, -0.0186312, -0.0296919, 0.00142829, -0.0123127, -0.0233856, 0.0153383, -0.0148397, -0.00174942, -0.0207825, -0.0196946, -0.0387204, -0.0312432, -0.00463517, 0.0204658, -0.0177668, 0.0090287, 0.00553099, -0.00868051, -0.00825101, -0.00852863, 0.0104034, -0.0531218, 0.00315562, -0.00561032, 0.00535249, 0.000109812, -0.0356731, -0.00542168, -0.0292329, 0.00919481, -0.00380008, -0.0596148, 0.00757365, 0.0438492, 0.0154831, 0.00470354, -0.0175847, -0.0379465, -0.0291434, -0.00885319, -0.00380869, -0.00655709, -0.0338923, 0.0193349, 0.00748889, 0.0221455, -0.02756, 0.00131747, 0.00130297, -0.0209593, 0.00951789, -0.0304145, -0.0252743, 0.00223395, 0.00386806, 0.0150043, 0.00248012, -0.0459903, -0.0172621, -0.00378824, -0.0645171, -0.0410156, -0.0366306, 0.110683, -0.00457408, 0.00528223, 0.0112974, -0.0325061, -0.00370645, 0.0236479, -0.0154946, -0.00506276, -0.0238056, 0.0308555, -0.0196739, 0.00189547, 0.0297861, 0.0247789, -0.037991, -0.0336644, -0.0162044, -0.00655059, 0.0100765, -0.0591632, -0.0281417, 0.0306711, 0.0190714, -0.00276421, -0.0124616, -0.0389469, -0.0499722, -0.0164346, -0.0443458, -0.0215762, -0.0161886, 0.0148225, -0.00780873, -0.00307599, -0.00319282, -0.024113, -0.0122487, 0.026397, -0.0178681, -0.00678743, -0.027946, -0.0190589, -0.0584877, -0.0317285, -0.00418801, 0.011297, -0.0069629, -0.0344416, -0.0181573, 0.0299609, -0.0229705, -0.000232735, -0.0567231, -0.0169974, 0.0226328, -0.00849355, -0.0446239, 0.0221037, -0.00148681, 0.00578635, 0.0349732, -0.0214157, 0.0336904, -0.0183819, -0.0130368, -0.0141453, -0.0115043, -0.00238044, 0.0128545, -0.0112706, 0.0315776, 0.00652589, -0.0170149, -0.0525204, -0.0278075, -0.0511057, -0.0255877, 0.0306456, -0.0414688, 0.0183149, 0.0228107, 0.00912554, -0.0478061, -0.00243116, -0.0578376, -0.0252779, 0.0289924, 0.0186713, -0.0473069, -0.0111767, -0.0117093, -0.0116453, 0.0270414, -0.00274127, 0.0238142, -0.039, -0.0150322, -0.0108441, -0.00160334, 0.0169754, 0.00884364, -0.0178888, 0.0358689, 0.00594232, -0.0207003, -0.0649885, -0.0648979, -0.104518, -0.039464, 0.0280237, -0.0536539, -0.0265572, -0.00607011, 0.038114, -0.0176816, -0.0538641, -0.0488066, -0.0142473, 0.0230875, 0.00139926, -0.0691547, 0.016841, 1.30558e-05, 0.0169977, 0.0357019, 0.0101649, 0.0344913, -0.0172597, -0.0164716, 0.012487, -0.0351721, -0.00702922, 0.0165509, -0.00280065, 0.0452475, 0.00409568, -0.00241704, -0.0235955, -0.0151287, -0.0976825, -0.0391676, -0.00476904, 0.0291481, -0.0249773, -0.00480112, -0.0221163, 0.0187814, 0.00175506, 0.0265126, 0.0141206, -0.00516396, 0.0050916, -0.00721143, 0.00832648, -0.00608575, -0.0304189, -0.0250124, 0.0139576, -0.0542996, 0.0136792, 0.0267852, -0.0336407, -0.00424877, 0.00853893, -0.0336224, 0.00331508, -0.0207858, -5.04194e-07, 0.0646769, 0.0445404, 0.0210629, -0.00880409, -0.00410768, 0.0212469, 0.0139822, 0.0193102, 0.0444671, -0.0351327, -0.00613604, 0.0825918, 0.0208608, 0.066819, -0.0138917, 0.0427681, 0.0931871, -0.00585197, -0.00557125, 0.0124955, -0.0100184, 0.0268206, -0.0335429, 0.0284848, 0.0233033, -0.0177076, -0.0179798, 0.0303434, -0.0278193, 0.0130776, -0.0210563, -0.000598632, 0.0272649, 0.0246927, 0.0371984, -0.013217, 0.023615, -0.00192463, -0.00176677, -0.0204517, -0.00901621, -0.0366508, 0.0327128, 0.0821829, 0.0326143, 0.0341793, -0.0394335, 0.00121092, 0.0615367, -0.000192577, 0.018215, 0.021432, 0.00778196, 0.0137247, 0.0016641, 0.0148277, -0.0424249, -0.0474744, -0.0316849, 0.0424101, -0.0184135, -0.00296056, -0.0125678, -0.00346001, 0.00237455, 0.0218587, -0.00236915, -0.0510945, 0.00409556, 0.00701875, 0.00194266, -0.00210448, 0.0183448, -0.0466153, 0.0126862, 0.0105883, 0.00174189, 0.0169799, -0.00500582, 0.0178037, -0.0194973, -0.0181351, -0.00945825, 0.0146325, -0.0325951, 0.00743376, -0.0424979, 0.0165203, 0.00974859, -0.00804858, -0.0233175, 0.0221347, -0.0234579, 0.0322023, -0.020728, 0.00456194, -0.00227253, 0.00319483, -0.0370939, 0.0675411, -0.0311845, -0.0288012, -0.00765192, 0.0129083, -0.0276237, -0.0186179, 0.00206452, -0.0325192, 0.0311682, 0.00693879, -0.0207779, 0.0182631, -0.0181539, -0.0737004, 0.0263311, 0.0380488, -0.0240118, 0.00877621, -0.0248049, -0.0157722, -0.0283578, -0.0207319, 0.0237158, -0.0114895, -0.00139263, 0.0536183, -0.0325949, 0.00429278, -0.035433, 0.045208, 0.00830324, 0.100785, -0.045713, -0.0329278, -0.00719144, -0.00162245, -0.00201346, -0.0399066, 0.0580873, 0.00189099, 0.0145767, 0.0214686, -0.0305773, -0.0170093, 0.0340216, -0.0530454, 0.0377518, 0.0203638, -0.0155511, 0.0198502, -0.00675768, 0.0498206, 0.00267087, -0.0150335, 0.033227, -0.00422986, 0.00619281, 0.0125284, -0.0161221, 0.00175299, -0.00172054, 0.0194592, 0.0437283, 0.0649712, -0.0203976, -0.0370804, -0.0244956, -0.0104971, -0.0132138, -0.0378894, -0.0104839, -0.0184172, -0.0150994, 0.043444, -0.00319343, 0.0223378, 0.0174474, -0.0313317, 0.0496659, 0.0917386, -0.0454847, 0.0150758, -0.0229809, 0.0616454, 0.0279449, 0.00865105, -0.0228547, 0.00673267, -0.00132121, -0.0192941, -0.00889812, -0.00506263, 0.0294568, 0.00499456, -0.0136866, -0.00951404, 0.0186903, -0.0301557, -0.00524927, 0.00645454, 0.00141728, -0.0235813, -0.00730771, -0.00988243, 0.0106622, 0.0267377, 0.00962409, 0.0117854, 0.000106621, -0.0124992, 0.0571632, 0.0647291, -0.0467409, -0.00746547, -0.0340101, -0.00734827, 0.0261915, -0.0101447, -0.0324298, 0.00725029, -0.0056814, -0.000458035, 0.0123444, -0.00483221, 0.0191916, 0.0508462, 0.00731198, -0.0512618, 0.0253453, -0.0459793, -0.0205078, 0.0231716, 0.0231555, 0.00289129, -0.0312618, 0.0267685, 0.0324722, -0.0124041, 0.0109671, 0.00322057, 0.0262187, -0.00173709, 0.0582956, 0.0569276, -0.0334999, 0.0306827, -0.0202223, 0.000816817, 0.00845192, 0.0326781, 0.00536382, -0.00635033, 0.00099618, -0.0371177, 0.0121827, -0.00567963, -0.0045176, -0.00775322, 0.0344692, -0.0112985, 0.00488706, -0.0304068, -0.0219707, 0.0435536, 0.0362248, -0.00394339, -0.0167588, -0.0228548, -0.0249714, 0.0378858, -0.000231164, -0.021447, -0.0092677, -0.0285211, 0.00407371, -0.0199224, -0.017066, -0.028717, -0.0121001, 0.0586876, 0.0242714, -0.0171969, 0.0273594, -0.00706337, -0.0561211, 0.00378028, -0.0334254, -0.00153974, -0.0115881, 0.0228128, -0.00577774, 0.0136426, 0.000348434, -0.027188, -0.0129925, 0.0577831, 0.0632403, -0.0130921, 0.00834274, -0.0404898, 0.0285415, 0.0504597, 0.00389872, -0.0308449, -0.0135086, 0.0127855, 0.00678011, -0.0123354, 0.0111792, -0.0416848, -0.0196127, 0.0099572, 0.0109396, -0.0290753, 0.00602244, -0.0142603, -0.0650715, 0.0437692, -0.0141532, 2.53772e-05, -0.00643677, 0.0712309, 0.029676, -0.0245202, 0.00885321, -0.0180007, -0.00906602, 0.0225415, 0.0655227, -0.00742719, -0.0108482, -0.0263659, 0.0143305, -0.00558795, -0.0104915, -0.0265787, 0.0115394, 0.0173612, 0.00676016, -0.0335709, 0.0125273, -0.0241018, -0.0170582, 0.0140079, 0.00699929, 0.0251682, 0.0451009, -0.0197408, -0.061202, 1.30047e-05, -0.0114175, -0.00236973, -0.0139804, -0.0117972, 0.0141767, 0.0377689, 0.00382931, -0.0105924, -0.0525674, 0.00775781, 0.00623011, -0.00932523, -0.0194089, -0.0502652, -0.0160971, 0.0186702, 0.00714533, -0.00297458, -0.00785763, -0.0313809, -0.0173634, -0.0205875, -0.00703047, 0.00919617, -0.0241791, 0.042206, 0.0248887, 0.0182036, -0.00136277, -0.0197601, -0.0531837, 0.0125523, -0.0227294, -0.00394268, -0.0368696, 0.0187182, -0.00776537, -0.00192527, -0.0160844, -0.0300582, -0.045631, 0.0275608, 0.0147613, -0.0260597, 0.0221721, -0.0739269, 0.0243026, 0.0275176, -0.0102926, -0.000316174, -0.0101846, -0.00123307, -0.0380812, -0.00977112, 0.00705981, -0.000726217, -0.0369225, -0.00319442, -0.00441088, 0.00500076, -0.019611, -0.0329101, -0.0449864, 0.032009, -0.00947339, -0.00394371, -0.0475365, 0.054419, -0.00178387, -0.0243254, -0.0240177, -0.022972, -0.00275549, 0.0459872, 0.0216812, 0.0145863, 0.0159567, -0.0575629, 0.0112643, -0.0184091, -0.0158798, 0.00163254, 0.00388706, 0.0094717, -0.0314421, 0.00438619, 0.0215357, 0.0066152, -0.0202029, -0.0153856, -0.00830154, 0.0386193, 0.00742829, -0.0202744, -0.0386379, 0.0120897, -0.00627024, -0.00482262, -0.0333737, -0.0144431, -0.00987129, 0.0394809, -0.0137904, -0.0127867, -0.0200959, -0.0174727, -0.00650009, 0.00380739, -0.0119433, -0.0049951, -0.0016921, -0.0240976, -0.0140427, -0.0304286, -0.016214, 0.023653, -0.0439024, -0.00811328, 0.0142953, -0.05444, 0.0123675, 0.0204121, 0.00368126, -0.0158801, -0.0164575, -0.0305758, -0.00631304, 0.00109262, 0.00271606, 0.0129463, -0.0259716, -0.0214327, -0.00392805, 0.0256, -0.0146, -0.0554938, -0.0165834, -0.00921981, -0.0254789, 0.0119819, -0.00600278, 0.00771519, -0.00433244, -0.0199206, 0.0133112, -0.038068, -0.0048857, 0.0139366, -0.00880177, -0.0197505, -0.0170202, -0.0361318, 0.0324646, -0.00574173, -0.00377469, -0.0399732, -0.0135219, -0.019079, 0.0382657, 0.00382478, 0.00681637, 0.00575987, 0.00881912, 0.000629289, -0.015314, 0.0389678, -0.0378823, -0.034613, -0.0174492, 0.0173966, -0.00831493, 0.0188426, 0.00928708, -0.00968926, -0.012412, -0.0199634, 0.0211185, -0.0106457, -0.014754, 0.0120632, -0.0607839, -0.0180642, -0.013611, -0.016442, 0.0119183, 0.0191303, 0.00591493, -0.0382276, -0.0232938, -0.0330421, 0.017446, -0.0116796, -0.00208131, 0.00706495, -0.00759923, 0.00186863, -0.00615086, 0.020184, -0.0240746, 0.00702925, 0.00250524, -0.00616422, -0.017817, 0.0144593, -0.0107979, 0.0283972, 0.0120909, -0.00713147, -0.00110915, 0.00207461, -0.00646606, 9.87885e-05, 0.00193361, -0.000235698, -0.0213558, -0.0733367, 0.00626839, 0.0143889, -0.00236063, -0.0174262, -0.0258197, -0.0162336, -0.0120139, -0.00827842, -0.0119018, 0.00477017, -0.0216659, 0.015726, -0.00222881, 0.0027644, 0.0304813, -0.0565138, 0.0022281, -0.0330918, -0.0413322, -0.0103415, 0.00718537, 0.0172285, -0.00562397, -0.0107843, 0.0127491, -0.0186888, -0.00163063, 0.0154389, 0.0422468, -0.0126584, -0.0507784, -0.088262, 0.0250466, 0.000462126, 0.00052718, -0.0346637, 0.000722541, -0.0171033, 0.0423275, -0.0129196, -0.00834267, -0.000506, 0.00591752, -0.00180733, -0.0337313, 0.00202771, 0.00378591, -0.0330253, 0.00508528, -0.00298228, -0.0405095, 0.0153468, 0.0157395, -0.00274686, -0.0187884, -0.00854017, -0.00877006, -0.000699952, 0.000789885, 0.0091502, -0.0129689, -0.011901, -0.0274105, -0.0532804, 0.0214454, 0.0231401, -0.00126868, -0.0243632, -0.0122648, -0.0188899, 0.0223391, -0.0126406, -0.0173244, 0.00109241, 0.00352063, 0.00576729, -0.0129855, -0.0155796, -0.00532343, 0.0135249, 0.0053789, -0.0327788, 0.00858544, 0.0372991, 0.0265212, 0.0425378, -0.00851735, -0.0126667, 0.0164071, 0.00313777, -0.0289092, -0.00118927, 0.0230115, -0.0278916, -0.00896599, -0.0737118, -0.00282552, 0.0458825, -0.0143081, -0.0278795, -0.00123319, -0.0389892, -0.00858075, 0.0199856, -0.0152806, 0.00897591, -0.0150354, 0.0204708, -0.0012432, -0.027468, 0.0377258, -0.0366913, 0.0140222, -0.0364539, 4.83196e-05, -0.0104762, 0.0292623, 0.02243, 0.00847151, 0.00380846, 0.0267447, -0.0101108, -0.0216991, 0.00586508, 0.0587081, -0.0262571, -0.0221081, -0.0653453, 0.0138049, 0.0212262, 0.00364652, -0.0389597, 0.0245975, -0.0414372, 0.02082, 0.0066519, -0.0148169, 0.00574549, 0.00276836, 0.00327542, -0.012731, -0.0450715, 0.0183034, -0.0120821, 0.0233824, -0.03603, -0.00800907, 0.0132699, 0.0312611, 0.0163944, -0.024845, 0.00164529, -0.00889978, 0.0103826, -0.0175425, 0.0231022, -0.000780993, -0.0318469, 0.00517811, -0.0634142, 0.0179944, 0.0443434, -0.0258885, -0.0437622, 0.00502447, -0.0182676, 0.00115495, 0.0119905, -0.0181291, 0.00599704, 0.00328549, 0.0170548, 0.00393723, -0.0489327, 0.00608168, 0.0450392, -0.0590833, -0.00443877, -0.000117824, 0.0143916, 0.0197233, -0.00323197, -0.00815599, 0.00903908, -0.014071, 0.0267634, -0.0362931, 0.0383847, -0.0239144, -0.00295634, -0.0075876, -0.0156652, 0.000635082, 0.000296155, -0.00404926, -0.00501463, 0.00651239, -0.0339303, 0.020503, 0.00384277, 0.00194758, 0.0109561, -0.0168009, -0.0157057, 0.0135418, -0.0106658, -0.0151781, 0.004115, -0.0561443, -0.00723018, -0.0129651, 0.00759354, 0.0120296, -0.0322642, -0.0399786, -0.0201078, -0.03771, 0.0145833, -0.0351377, 0.0196794, -0.0321986, 0.00397841, 0.0160076, -0.0013903, -0.00550052, -0.0348707, -0.00781393, 0.0117047, 0.00144771, 0.004749, 0.00757312, -0.0386193, -0.028339, 0.00227862, -0.0448306, -0.0396879, -0.0578097, -0.018319, -0.0615887, -0.0369001, 0.0089655, -0.00574312, -0.00800767, 0.0649307, 0.00680701, -0.0113908, 0.00963037, -0.00853452, 0.0025224, 0.0204671, -0.00198281, 0.000443694, -0.0276189, 0.0124764, 0.0133054, 0.00769784, -0.0211289, 0.00781457, -0.00897641, 0.015782, 0.00127705, -0.0125965, 0.0143018, 0.00285011, -0.0253148, 0.00516534, -0.0151137, -0.00700311, 0.0128549, 0.00286783, -0.00574087, -0.0213606, 0.00514254, 0.00686402, 0.0496839, 0.0231806, -0.00232264, 0.0347083, -0.00312966, 0.0293689, -0.00979154, -0.0133602, -0.00441828, -0.0100343, -0.0146868, -0.0172164, 0.0106921, 0.0113252, 0.000279752, -0.00596564, 0.0324058, 0.0352327, 0.0250999, 0.0168999, 0.00568736, -0.00396496, 0.034368, 0.00935507, -0.00764552, -0.0115357, 0.0327803, 0.0124739, 0.0206514, -0.0172776, -0.0403082, -0.0310161, 0.00442905, 0.000163446, 0.00676737, -0.00948044, -0.0472889, 0.0194969, -0.0526706, -0.0377622, -0.00594775, 0.00653438, -0.0230491, 0.00277768, 0.0281375, -0.00290102, 0.0395096, -0.0288476, -0.015901, 0.0307559, 0.00196733, 0.0110911, -0.0131574, -0.0255807, -0.0167064, 0.000483581, -0.0332696, -0.0223436, -0.0411801, -0.00453197, -0.0234, -0.0416978, -0.0475391, -0.0246166, -0.0173724, 0.0460484, -0.0230738, -0.0496112, -0.0105144, -0.0183161, -0.0511176, -0.0129556, -0.0278543, -0.017413, -0.0295509, -0.00895629, -0.000414356, 0.00362822, 0.0136255, -0.0610171, 0.00238922, 0.013415, -0.00721191, -0.0183117, 0.00127828, -0.0133421, -0.032926, 0.00271302, -0.0364534, -0.00979988, -0.0376656, 0.00433938, -0.0257663, -0.0208666, 0.0294392, 0.0251555, 0.0263355, -0.0112165, -0.0347204, 0.0143296, -0.0231953, 0.0360277, 0.0382481, -0.0200658, -0.0156817, -0.0157829, 0.0146452, -0.0307766, 0.0144115, 0.044599, 0.0264141, -0.014459, -0.0157781, 0.0114364, -0.00761691, 0.00242886, -0.00407641, 0.00305833, 0.0134463, 0.0133207, 0.000149019, -0.0171839, 0.0334976, 0.000983878, 0.0199041, 0.00535532, -0.0025328, -0.0121094, -0.00388559, 0.00382629, -0.0105499, 0.0353597, -0.00559402, 0.0322547, -0.0404065, -0.0152907, -0.00493546, 0.00926601, 0.0233602, -0.0350173, 0.000458784, 0.0141477, 0.0286595, -0.00197203, -0.0457019, 0.016258, 0.00134882, 0.0152603, 0.000917214, 0.00894167, -0.00464428, 0.00705373, 0.0115172, 0.0283286, 0.0359774, -0.0159569, 0.0538684, -0.0164462, -0.0237488, -0.0287549, 0.00212272, 0.0251419, -0.00545667, 0.00867206, 0.0133237, 0.0186162, -0.0638766, -0.00141828, -0.035444, -0.0120781, 0.00705963, 0.00176573, -0.0166885, -0.0161695, 0.0275544, -0.0340591, 0.0165485, -0.00535636, 0.00460497, 0.00829856, -0.00352758, 0.019656, -0.0260587, 0.00931684, 0.0178369, 0.0053617, -0.0101965, -0.0246729, 0.023569, -0.0031828, -0.0223519, -0.00159142, -0.0344005, -0.0102994, 0.00492139, -0.0510637, -0.000381244, -0.0111807, -0.0151153, 0.0431097, -0.0585661, -0.00725117, 0.0118826, 0.00483731, 0.0190037, -0.0481529, 0.0355517, 0.0423126, -0.00412772, -0.0314999, 0.000237237, -0.0208319, 0.0319398, 0.0043482, 0.000920182, -0.00108686, -0.00801389, 0.012721, -0.0451589, -0.0389711, -0.0139609, 0.0294721, 0.0450135, -0.0103015, 0.0159066, 0.015128, -0.00844897, 0.0112423, -0.0212507, -0.00562642, 0.015278, 0.016651, -0.0157753, 0.0156992, 0.00245147, -0.0204059, 0.016108, -0.0206693, -0.00750601, -0.00436693, 0.0257901, 0.00456194, 